-0.019174764 -0.06378419 0.04838883 0.04584492 0.033020288 0.020683197 0.042917833 0.014674849 0.022735981 0.01797088 0.05456355 0.0077374144 -0.028415281 0.074117675 -0.07042329 0.0026094874 -0.04288856 0.07974321 -0.070275985 0.07088392 0.04783381 -0.036479823 -0.016595295 -0.07868051 -0.029374093 0.06852358 -0.025421862 0.050146956 -0.033861753 -0.008139088 0.11658416 0.034783293 -0.06656032 -0.033378467 -0.0019388292 -0.0780525 0.028754905 0.12204862 -0.036262784 0.111076914 0.006236713 0.019673174 -0.046077717 0.05159969 -0.062203903 0.056339037 -0.00092838035 -0.050900884 -0.06376436 0.050338097 0.059632428 0.061929382 -0.05384263 0.017734021 -0.03227467 0.07135334 -0.031078307 0.0071659437 -0.03932574 0.028368318 -0.05541249 -0.03145934 0.106179215 0.029202659 0.009563505 0.026977599 -0.0133656515 -0.045960333 -0.017828036 -0.05529778 -0.07123623 0.022407694 0.071552485 0.0099658 0.020854028 -0.041091308 -0.06853728 0.08397285 0.0059091114 0.034468576 0.061377604 -0.015600649 0.030311933 0.0069671012 -0.05996793 -0.010272038 0.06355303 0.037683096 0.027146513 0.09645213 0.0251336 -0.022906132 -0.0063135824 0.008377643 -0.054131832 0.012063917 0.013009523 -0.06517976 0.07818454 0.0033999265 -0.14984356 -0.08629046 -0.021993155 -0.083508424 -0.04456717 0.03581587 -0.017835515 0.052721452 -0.037930254 -0.037942868 -0.022308648 0.004028968 0.04218999 -0.10680121 -0.0055438937 -0.036622893 0.03430199 0.006177413 -0.09418049 -0.03889915 0.019055847 -0.029888455 -0.047330156 0.024020407 -0.0299498 0.0056198924 0.016630352 0.04109147 0.052678514 -0.07880742 0.005904408 -0.008844729 -0.08014532 -0.030941376 -0.013028226 -0.035177622 0.060457177 0.0033392743 0.13155451 0.036728308 -0.037934843 0.0008695881 0.00033878672 0.002934384 -0.013587673 0.07110073 0.024745168 0.080170594 -0.014699127 -0.010838295 0.012916522 0.012642542 -0.03612721 0.021888038 0.010975107 -0.009719631 0.14719434 0.013135783 0.040973008 0.016895799 0.04357505 -0.0039198077 -0.060846217 0.012624132 0.042811546 0.034743257 0.0576952 0.012008562 -0.050953805 -0.11177564 -0.010825857 0.019630982 0.033163395 -0.06568309 0.02792388 0.03860427 0.042339176 -0.040657606 -0.0009323833 0.074594654 0.06247961 -0.026083985 0.09477621 -0.03500277 0.052254718 0.036270175 0.04694477 0.034799937 0.10717019 0.056976266 0.012213463 0.0023153287 -0.014857362 -0.024256026 0.0012765256 -0.070844576 -0.026117504 0.010611839 -0.018118447 0.04987216 0.08390504 0.0029918596 0.019821733 -0.06620478 -0.11168983 -0.022297729 -0.009330434 0.018221013 0.056523062 -0.034616407 -0.121919826 0.03647248 -0.03701876 -0.09987841 -0.024448643 -0.08068037 -0.045141812 -0.016259791 0.0069569345 0.03221455 -0.025758704 0.06993302 -0.020319982 0.041833315 0.0032881682 0.04448441 -0.013655315 -0.029619664 -0.13498208 -0.0031810284 -0.02611483 -0.0926923 -0.034028813 -0.013646026 -0.034105647 0.023439368 0.012489659 -0.13685301 -0.03413781 -0.1067903 -0.001213111 0.038809504 0.007145982 0.036415543 0.031578142 0.03568124 0.06466301 -0.095115915 -0.018240897 -0.06893347 -0.041055128 0.042315908 0.02331443 0.020609155 0.07786267 -0.043238614 0.002306273 0.0033972429 0.0048476453 0.011468018 -0.08554012 0.099148154 0.006442457 -0.01654034 0.0142380595 0.08143407 -0.09176474 -0.007048291 -0.049282994 -0.00049694645 -0.052964706 0.0001879279 -0.038928892 -0.024791913 -0.05323086 -0.083831035 -0.007522055 0.016309233 0.084179685 -0.00817162 -0.01416774 0.044457164 -0.009932313 0.054038446 0.09697523 0.046781342 -0.001206415 0.045875248 -0.0103009185 -0.0197837 0.02635637 0.04583938 -0.03219476 0.04002626 -0.048666786 0.0066951956 0.019714806 -0.016791396 0.08796459 -0.025121504 0.010957661 -0.03069337 0.010739589 -0.021461476 0.016379818 -0.04422382 0.009246505 0.09931837 0.028076142 0.03754622 0.0863165 -0.010160349 -0.058461107 0.0282664 -0.000644034 0.05436517 -0.011560111 -0.050573464 0.03975741 -0.0063726157 0.088569604 0.07567089 0.017332323 -0.029499292 -0.019625053 0.035136055 0.052731585 -0.007210242 -0.033332277 0.0487009 0.043007854 -0.016600471 0.0011451817 0.03187863 0.03745326 -0.06844355 -0.04870635 0.073960885 -0.049625117 -0.082369424 -0.024481047 -0.042987227 -0.05871416 -0.08648201 0.03247742 -0.050557476 -0.008297428 0.098797284 0.046065986 -0.03261945 -0.073042616 -0.030100554 0.040589865 0.035046633 -0.020493796 0.027263397 -0.0016428604 0.005381886 -0.018004298 -0.02928486 -0.014331077 0.05248924 -0.074600585 0.11090348 -0.030765612 -0.09870937 0.061318 -0.010985528 -0.060214162 0.05692127 0.021201095 0.043761555 -0.044837233 -0.0121461395 -0.043295056 0.030517017 0.05158226 -0.016545486 0.058344483 0.0059492085 0.06691024 -0.025049934 -0.086876206 0.05579347 -0.05033755 0.031386692 0.045994483 0.046744633 -0.0041394774 -0.021320792 0.013461118 -0.039153934 -0.006110727 -0.04624472 0.0077748494 0.022899328 -0.031026637 -0.03268395 -0.02131432 -0.042607553 0.010956457 -0.046709817 -0.053975493 -0.0054580113 0.013792174 -0.0029349825 -0.0475382 0.05920371 -0.0017221716 0.016221993 0.016373903 -0.03391204 -0.069989264 0.039316803 -0.08272573 -0.057107884 0.024732402 0.01901394 -0.0074552945 -0.042648792 0.021834897 -0.0190534 0.07973664 0.033441525 0.012403692 -0.01096467 0.01517884 0.058025744 -0.06700857 0.04300497 -0.0537349 -0.06777506 -0.0028046598 0.02234289 0.036777686 -0.023123674 -0.06881769 -0.03888043 0.027886748 -0.116905905 0.0056589055 -0.07982171 0.055998612 -0.029741896 0.0156154735 -0.023764154 0.038371038 -0.04287595 -0.04300736 0.018726354 0.033424318 -0.005155676 -0.049778763 -0.0052036117 0.031373523 0.028948342 0.02239583 -0.08560887 -0.022591693 -0.08021303 -0.024031395 -0.037609052 0.022989307 0.016047474 0.006298074 0.051549304 -0.028301401 0.091903456 -0.024054011 0.0013740887 0.026360571 -0.038723476 0.045608144 -0.00014183523 -0.013408993 0.031676885 0.04323892 -0.10574075 0.034718182 -0.0299248 -0.05295595 -0.010382633 -0.07794443 -0.02218039 0.019657003 0.058600236 0.005717566 0.07519986 0.019356964 -0.014147683 0.036650922 0.03415037 -0.036966667 0.05425961 -0.00852961 0.09606522 0.060610563 -0.03431868 0.07109652 0.022474414 -0.119632356 0.012425647 0.09475156 -0.013857265 0.08988019 0.053380538 0.08429744 -0.012725244 -0.054791477 -0.021630682 -0.05706319 0.14481084 0.06510327 -0.06615614 -0.026441563 0.01955842 0.058297772 -0.065843344 -0.00022412169 0.018024223 -0.058763783 -0.0067624426 0.03320582 -0.1136763 0.0021262302 0.061096378 -0.025910167 -0.029171318 0.03912953 0.012226946 -0.025901286 -0.08974495 -0.002750334 0.044620164 -0.049262542 -0.008333049 -0.0019248655 -0.066630915 -0.0040748115 -0.02008582 -0.012615444 0.038651433 0.025674349 -0.0028428135 0.063280895 0.00227306 0.0069917883 -0.079148024 0.03452578 -0.01992569 0.025958547 0.052286725 0.028290262 0.057114225 -0.036953017 0.03594211 -0.03220248 0.023988703 0.004803129 -0.0092732 0.04594789 -0.052364063 -0.0024664802 0.042956416 0.053454798 0.03052325 -0.018064719 0.020944435 -0.014813758 0.010945189 0.0018711298 0.029428428 0.029783323 0.0037146017 0.064147346 0.050156157 0.025501985 -0.025632933 0.047792204 0.014002137 -0.009326127 0.011210601 0.05881236 -0.048012342 -0.070159286 0.03034246 -0.007890802 0.04604381 -0.011199332 -0.07232463 0.0008097591 -0.07575727 -0.05290549 0.018078636 0.012825804 0.04711789 0.028647332 0.0037381046 -0.05096249 -0.05768737 -0.028421381 0.0066908854 0.00845481 -0.049511235 -0.102367215 0.014658374 -0.04052734 -0.14014395 -0.00647799 0.068620175 0.03710649 -0.11276114 0.038427096 0.022823397 0.05186953 -0.0053924327 -0.026042541 0.020859128 0.05756669 -0.114345945 -0.03312492 -0.08173121 -0.0042291125 0.0508922 0.033056304 0.027009403 -0.09438777 -0.10499858 0.07198738 0.01739298 0.007805459 -0.016048845 -0.033643883 -0.049782094 0.050019372 0.092488356 -0.08544386 0.036356803 -0.016699377 0.040493738 -0.0067642177 0.03342818 -0.001957152 -0.042007785 0.056781527 0.020574173 0.04256865 -0.041175935 -0.06121108 -0.06629575 0.010669949 0.03812376 -0.026240533 0.09831278 0.034343537 -0.08200445 0.025356492 -0.038072456 0.016541945 -0.03806941 0.01690765 -0.054363985 0.007521426 0.04791178 -0.046827875 -0.007258291 0.049046524 -0.042636003 0.02596875 -0.051577967 0.045503136 0.05177297 -0.0021385737 0.016396908 0.06956942 0.016616365 0.033498883 0.033403423 0.06513087 -0.018189212 -0.014564554 -0.050389268 0.047792416 -0.014898278 -0.024171581 0.049764704 -0.003728271 -0.035871428 0.016706323 0.03353907 -0.04238676 -0.019348813 -0.003974989 0.0069804005 0.032892805 -0.013664784 0.10536436 0.070802115 -0.02554954 -0.056363273 0.11975881 0.087615885 0.027112002 -0.035455532 -0.052287042 0.07751175 -0.074285835 0.06488782 0.006511472 0.07052634 -0.023892572 0.046892367 -0.030350387 -0.08887144 0.012484602 -0.046197683 -0.07618351 -0.0036594984 0.0558423 0.070869856 -0.032588344 0.03007404 0.0367279 0.014520305 0.0077617303 -0.048126858 -0.104710475 0.04965773 0.08444004 -0.038827997 -0.035832282 -0.06417292 0.037498068 0.038095884 0.01780658 0.0016867406 0.028222699 0.05405688 0.027882531 0.069908015 -0.078875996 0.029248511 0.076304846 -0.07466055 0.06965365 0.0071190237 6.890031e-05 0.10524943 -0.03806051 0.047356218 -0.05267912 0.027479848 0.016629556 -0.006649761 0.046510197 0.03243571 -0.01310049 -0.026005054 0.07259193 -0.0546374 -0.03137292 -0.012531893 0.0023329507 -0.041878447 0.06494161 0.045549255 0.06154594 -0.074566565 -0.008846485 -0.046101715 0.009051291 0.048415665 0.036965426 -0.021794533 -0.028257752 0.008932134 0.007215354 -0.058288563 -0.02368418 -0.064907834 -0.031260803 -0.088366136 -0.050131913 0.11884133 -0.005281766 0.049027715 0.031184584 0.07749542 -0.04763134 -0.046417385 -0.05484003 -0.048468865 0.04156292 -0.061930902 0.060988095 -0.06603745 0.042923916 -0.076017 -0.0319201 0.02729483 -0.009524789 -0.043992065 -0.10655297 -0.07343 0.039714906 -0.09127423 0.007969781 -0.13143395 0.044006865 0.059829365 0.03886604 0.036415443 -0.035683922 0.0037440762 0.05085357 -0.025721876 0.07766139 -0.06389038 -0.018260825 0.007137661 0.04226988 -0.109502636 0.08882754 -0.011338065 -0.048767544 -0.042730357 0.0182351 -0.022792192 -0.017605187 0.023443572 0.02687327 -0.016636575 0.0071498114 -0.06589997 0.06336042 0.01668045 0.071079984 -0.06218062 0.017244209 0.12742591 -0.059293218 0.029279102 0.05793789 0.048918042 0.04512708 -0.026042474 -0.021266887 -0.08347779 -0.013807966 -0.06530286 0.07840348 0.013842153 0.053239144 0.015044886 0.018519836 0.07874329 -0.053481042 -0.011715525 -0.01735296 0.0052523157 -0.025256166 0.019839307 0.014655969 0.018523125 -0.006914552 -0.013103666 -0.012123476 -0.014249212 -0.08760118 0.09873908 -0.0135951135 0.012203096 0.09647812 0.031503867 0.01295191 0.05877011 0.017529769 -0.017565152 0.0382513 -0.04202519 -0.02476627 0.011352024 -0.023998482 -0.0079277335 0.0107917385 0.046511557 0.036944423 0.010354444 0.056840163 0.006106659 0.015401374 0.022589197 -0.0016756997 -0.017592046 0.02691452 -0.013399161 -0.035045464 -0.019716008 0.061383046 0.00844787 0.022926893 -0.0547445 -0.027054233 -0.031160315 -0.009327377 0.09224593 0.006799976 -0.10725182 0.06441209 0.06496269 -0.013094085 0.04352842 -0.062614284 0.013101402 -0.013073285 0.0016814488 0.037365317 0.0035430416 0.009816204 0.0037421917 0.03885883 0.0029778334 0.07705037 0.04912416 -0.05019165 -0.055629235 -0.007839619 -0.08466788 -0.001028725 0.09481992 -0.008150815 -0.036505792 -0.028599566 0.06449883 -0.0055041267 0.11576136 0.022964 0.01639016 0.0158359 0.06777727 0.015561265 0.0041966704 0.0061518317 -0.05601401 0.07096102 0.005635153 0.026036913 -0.06642522 -0.040970486 -0.029320886 0.0072608413 -0.020411858 0.050347585 -0.03819553 -0.08237489 -0.025555298 0.11115122 0.022838235 -0.0034897705 0.047285665 0.06478601 0.0020664863 0.012516643 -0.061259653 -0.07165044 -0.05327803 0.025591755 -0.04913887 0.060413875 0.016997568 -0.017206099 -0.0053281286 -0.06325217 0.011634546 -0.061853547 -0.059517182 0.02680404 0.091497414 -0.035732634 -0.013328815 0.10417726 -0.03414761 0.04835838 -0.036148615 -0.09753991 0.07421621 -0.07014683 0.00493984 -0.030351086 0.052512098 0.014039393 0.041656762 0.03348701 0.0029202187 -0.054252036 -0.09338674 0.031607684 -0.052025944 -0.08040589 -0.012609506 0.12083938 0.010579878 -0.0134764435 0.02675329 0.0012843054 0.008103765 0.013019483 0.03886868 0.0012017915 0.0009486314 0.02549544 -0.03365558 -0.052845903 -0.08447199 0.051113512 0.0064108144 0.025694946 0.020738808 -0.13100688 0.053008743 -0.01168332 0.100381866 -0.036960695 -0.07165283 0.033974204 -0.008910033 0.033634346 0.025954604 -0.021495966 0.023969112 -0.027619991 0.008782951 0.06120022 -0.04257457 0.04586848 0.004708485 0.035689153 -0.043539535 0.057959538 -0.0010401872 0.091504715 0.06540411 0.06605979 0.014054871 -0.047480267 -0.08233459 -0.03567619 -0.04711131 0.031213855 0.02732684 0.016991701 0.08071592 -0.037087303 -0.005170256 0.04685226 0.0018239695 0.033923443 -0.024238212 0.0571039 -0.01838979 0.10554446 0.054313865 0.013580936 0.08566824 -0.06268659 -0.08190013 -0.035056874 0.02791955 0.07430799 -0.077959545 -0.0012812281 -0.012213492 -0.048067052 -0.043102063 0.05923828 0.0722019 0.063897625 -0.11576241 0.052007895 -0.14031528 0.011961996 0.031084547 -0.0005782104 -0.014111969 -0.074344 -0.0096687805 -0.018304182 -0.039079692 -0.029573692 0.052892655 0.05163125 -0.0034388814 -0.02174423 0.07182049 0.06801083 0.021064425 -0.0762828 0.045314386 -0.05160274 0.057557452 -0.022268083 -0.02752913 0.023853632 -0.033734445 -0.032317225 -0.05106256 0.049164515 -0.008725732 -0.03424717 -0.029185472 0.05402534 -0.049696174 -0.019158717 -0.043970905 -0.026934156 0.065158956 0.12110295 -0.06447175 -0.05769083 -0.024978714 -0.05255542 -0.02950315 -0.13040246 0.011240898 0.04080935 0.048632212 -0.04407764 0.06956069 0.110396676 0.035568397 0.020881861 -0.014445904 0.011865627 0.016917326 0.002403788 -0.02513524 -0.0107255 0.095003836 0.064020805 -0.007782468 0.027906839 -0.01774458 0.024973536 -0.017516358 0.06282632 -0.03536352 0.02187042 -0.012763693 -0.03850094 0.055037167 -0.0073477 -0.06031383 0.0047665383 0.045553457 -0.025950352 -0.05442672 -0.015483822 -0.012378944 -0.023818469 -0.028746793 -0.016389027 0.04313434 -0.009992308 0.030280033 -0.06969189 -0.0029567324 -0.0068351002 -0.013600977 -0.039898217 -0.0893416 -0.048110303 0.03433397 0.0032110612 -0.011899955 0.026510222 0.0697904 -0.028536463 0.052719515 0.0051867715 -0.0045850384 -0.020099694 -0.036765542 0.06960475 0.042931847 0.032451745 0.06546982 0.012302135 0.06312228 -0.011101814 0.018197713 -0.050092757 -0.024823215 -0.0019377762 -0.000312351 -0.0079706805 0.06917542 -0.00029895522 -0.047373246 0.037663195 0.021286888 -0.04623404 -0.0133406 0.05158331 -0.002191859 -0.0149367 0.07491826 -0.02760063 -0.107524194 0.068763606 0.020243172 -0.08887465 0.004651706 0.053193904 -0.028112043 0.0488294 -0.037233647 0.08269986 0.0044492143 0.024363229 0.04540069 -0.03128473 -0.0425933 0.03289101 -0.014384523 0.11704234 0.054017153 0.008543036 0.068516456 0.057480115 0.017673679 0.023743276 0.02255549 0.042480417 -0.003300364 0.010071847 -0.10961185 -0.031224314 -0.05664323 -0.013133992 -0.029931396 -0.10600089 -0.009034182 -0.043034445 -0.07386712 0.07575153 0.045079727 -0.024956472 0.07921135 -0.024805572 -0.032088082 0.057197403 -0.001103735 -0.011691569 -0.0139238825 0.024529094 0.06309337 0.043314524 0.03301518 -0.040825777 -0.03225748 0.010213553 0.067049034 -0.057291802 -0.03986035 0.036505353 -0.081738934 -0.010570065 0.03179103 0.04300896 -0.038925998 -0.012846253 -0.13691594 0.047721323 0.0507285 0.00053033966 0.04234276 -0.014843265 0.0053617912 0.064938076 0.0460049 0.12982278 -0.07942968 0.05838458 -0.01838698 0.009890383 -0.012939425 0.047001213 0.04434297 -0.012051359 -0.0026790684 -0.008851717 -0.12973082 -0.028356854 0.047898185 -0.04434175 0.10104169 -0.010424233 0.019111123 -0.0062131025 -0.011321402 0.003474749 0.055331446 0.03932212 -0.0012108955 -0.08320932 -0.044392522 -0.09101777 -0.07052971 -0.02960064 0.06156073 0.0072710984 -0.06534058 -0.022781355 0.010022915 0.035714895 -0.005620351 -0.067303516 0.021503303 -0.021030439 -0.061717834 -0.03083661 -0.020820184 0.0007259563 -0.053506155 0.03808182 0.04829812 -0.036668524 -0.06461026 0.03328271 -0.06710658 -0.04724101 -0.0034375642 0.059111953 0.10833814 0.056496706 -0.09127545 0.029874822 -0.001221978 -0.03149849 0.04387439 -0.03636746 -0.01865072 -0.03648704 -0.016006788 0.02294138 -0.07022424 0.052960247 0.07597663 0.030929148 0.039009716 -0.019679433 -0.054980475 -0.039044533 -0.020449437 -0.0039280746 -0.084579624 0.0110912025 0.08567611 0.020781478 -0.014919338 -0.017142726 -0.048782226 0.022026306 -0.0349607 0.062487613 -0.040909525 -0.012614379 -0.032349847 -0.024045078 -0.06027008 -0.042191267 0.07822358 0.013942619 0.0046573193 -0.06320441 0.117927246 0.002214928 0.053174097 -0.034923308 -0.004093517 -0.00321697 -0.08488674 -0.001373869 0.0724079 -0.054176655 -0.04420418 0.008457328 -0.014059046 -0.011079227 -0.04221524 -0.07438441 0.022985408 0.058447685 0.042187385 0.0354695 0.031934045 -0.0130058145 0.049003106 0.0067156004 0.026883466 0.048061866 0.0011634637 -0.033868834 0.031377155 -0.039310284 0.013903945 0.028962387 0.049782176 0.053041697 -0.033086807 -0.07560334 -0.07549074 0.0032695818 0.056506436 -0.07430998 0.09667352 -0.07130733 -0.05189396 0.010949351 -0.013024214 -0.059370834 -0.014111534 0.040691704 -0.021689704 -0.033215273 0.04730959 -0.072855465 -0.0060166926 0.009234163 0.02789538 -0.023189586 0.029487643 0.0050942968 -0.03834489 -0.07356132 -0.05048568 -0.0125888875 -0.032601204 0.09016164 -0.007967917 0.06104107 -0.051928174 -0.06335067 0.08080795 0.036677703 -0.06338959 0.0043281037 0.02950853 -0.048632134 0.07993089 0.03360037 -0.053273737 -0.055701055 0.037532743 -0.03195515 -0.04177938 0.0005441676 0.03226198 -0.02204744 0.023645816 -0.026398718 0.069430314 0.10187018 0.034750223 -0.0328273 0.032373462 0.026756516 0.014225528 0.031328995 -0.07665468 -0.118568085 -0.0052875667 -0.02098955 -0.014523986 -0.059878755 0.0037214493 -0.07091407 -0.052462995 -0.0019502387 0.04369475 0.04170364 -0.022110822 0.008581257 0.03041852 -0.053861167 0.052555658 0.024113994 0.0048472877 0.012409394 -0.0103330035 -0.071177125 -0.08107904 0.035960473 -0.033325568 -0.018368622 0.084556095 0.07396507 -0.018106466 -0.05776285 -0.08852335 0.11597331 -0.0756315 0.04708688 0.026632203 -0.04628281 -0.022348098 0.016727518 0.017833544 0.009866112 -0.00015534034 -0.07484673 0.08197908 0.013102153 0.061712205 -0.04364074 -0.0006719089 -0.009842573 0.09861269 -0.008456068 -0.0148058385 -0.08893805 0.026083423 -0.008800923 0.012644772 -0.0014336994 0.027885256 0.04753792 0.0020339824 -0.014561226 0.014434971 0.035731547 -0.040016346 0.016611604 0.029230034 0.07317762 -0.0041679437 -0.044375204 -0.065482564 -0.050415326 -0.0026585076 0.0024152624 0.09929939 0.05514204 0.05674389 0.042363945 0.04664036 -0.028011084 0.02739656 0.05216794 0.03175379 -0.031476744 -0.060837656 0.012367392 0.054993566 -0.081285916 0.05446443 0.01846596 0.023758875 0.04795477 0.02781109 0.0054082195 0.13122575 -0.010036623 0.029650373 -0.098957784 0.0055704187 0.063754335 0.018377006 -0.028863017 -0.013832876 -0.024507424 -0.037087947 0.069348395 0.0038475592 0.009292547 0.054809052 -0.046296034 -0.059311885 0.026685178 0.0033868786 0.045323174 0.0070846896 0.04504585 0.01853555 0.0012848382 -0.054989558 0.05842945 0.010807048 -0.057234194 0.0038600916 0.021158537 -0.00425496 0.028558737 -0.043907497 0.032849625 -0.064609215 -0.08930961 0.028039321 -0.0351576 -0.022908008 -0.010188516 0.051486313 0.061223276 -0.025312359 0.011389643 0.0048691086 0.024709418 -0.0040497864 -0.02997238 -0.057092078 -0.0383123 0.01744075 0.023240255 0.038608115 0.0043157614 -0.049860355 0.09058705 0.002494084 0.04302526 -0.012095607 0.0474195 0.02516889 0.048009094 -0.063902065 -0.028533822 0.11105081 -0.050852038 0.011216843 -0.0059719007 -0.023120953 0.127882 0.07640015 -0.026850045 0.0036805135 -0.011062329 0.0044789873 -0.05088957 -0.054625746 -0.017364377 -0.049759332 -0.0038382628 0.06531223 0.007329706 0.013113381 -0.044370156 0.040500797 -0.018419966 0.039041013 -0.04776444 -0.050314825 -0.052966397 -0.014363735 0.010874271 -0.045833226 0.05618754 -0.039096575 -0.07334045 -0.04892087 -0.04595442 0.0028079941 0.04367994 -0.028718209 0.021161664 -0.061389804 -0.016536562 0.040480625 -0.036159378 -0.004526799 0.005494591 -0.012883279 -0.034392335 0.07728605 -0.110939205 0.02903429 0.06677314 -0.088988215 -0.0067343297 0.035078913 0.016980115 -0.036651462 -0.011762599 0.041342113 -0.018876547 -0.06282054 0.066266626 0.03409961 0.052607603 0.057605196 -0.0424125 -0.11605509 0.030439252 0.00033550555 0.029378397 0.0022655393 0.03233289 -0.006136428 0.060933083 -0.041219093 0.048497032 0.051193636 0.02292416 -0.030577663 0.058985204 -0.02350518 -0.06032026 -0.033336077 0.07354077 0.05270785 0.043898877 0.048131242 -0.041355684 -0.1013213 0.0598157 -0.027636627 -0.0022689325 -0.012171569 0.013902529 -0.043614488 -0.022162981 0.10462326 -0.059334755 -0.04617941 0.008548137 0.051117178 0.0065871375 0.029546311 -0.031259716 0.034247857 -0.014047499 -0.05105977 -0.03529015 -0.10931813 -0.109776415 -0.040600218 0.08259594 -0.082440324 -0.017760156 -0.003898659 -0.05144267 0.020390565 -0.035710078 0.0329013 -0.022334417 -0.013093919 -0.027059337 -0.026773218 -0.020233367 -0.008354151 -0.02164851 0.062582254 -0.05895374 -0.040922955 0.11106022 -0.0109860245 -0.085119694 0.005095148 -0.04567002 0.062007673 0.0023056287 0.025113625 0.032855082 -0.03733549 0.054843415 -0.025420774 -0.012231692 0.035323646 0.07956756 0.10014571 0.053309828 -0.017585551 0.011018479 0.17857207 -0.07042616 0.018396892 -0.12115999 0.115725935 -0.016682556 0.008405848 0.07460117 0.00050933333 0.0064769364 0.04676665 0.005243567 -0.039336614 0.04291701 0.13247465 -0.0872729 0.00039613657 0.01773247 0.02361811 -0.048101824 0.020772217 -0.017411835 0.060464818 0.019364541 -0.060899705 0.039373446 0.031133568 0.05936693 0.07563705 0.043725725 0.08146615 -0.036357243 -0.09623539 0.0033012584 0.0076810676 -0.017066598 0.05986578 -0.031608585 -0.0076391995 -0.11904609 0.05607226 0.04187667 0.04287989 -0.052202176 0.03151884 -0.013411554 0.08531911 -0.010440104 0.0018740542 -0.0100115705 0.04753005 0.07003434 0.04666778 -0.051710386 0.046294965 -0.037372317 -0.093297765 0.049806897 -0.14146201 -0.022489555 0.025676548 0.020187248 -0.12253296 -0.036372676 0.06266733 -0.003006155 -0.019230075 -0.06173065 0.0079337265 -0.008323484 -0.06852704 0.041904785 -0.037268948 -0.023290198 -0.03035446 0.007810235 -0.058567364 0.020553576 -0.0602857 0.019948475 -0.06719795 0.045768686 -0.028161088 -0.043021247 -0.031941716 -0.0076245363 -0.078332774 0.053510364 0.04464605 0.01273474 0.027373532 -0.04940656 -0.06244808 -0.028942231 -0.09235049 0.0026754527 0.031893235 0.0485394 -0.009940615 0.002937728 0.07712892 0.026766116 0.044582248 0.019703876 -0.042064685 -0.031997066 -0.066735074 -0.04035313 -0.0020358788 -0.0122667 -0.017959325 0.02419837 0.008690797 0.06322607 -0.019269072 -0.094896704 0.0032245088 0.061128505 0.0074535063 -0.015024346 0.039502855 -0.024457803 -0.020778324 -0.02416707 0.019959254 0.00037514485 0.09342452 0.07618478 -0.08463623 0.026289994 0.05475828 0.04551849 -0.002498321 0.047712546 -0.027050642 -0.008968987 -0.058747012 0.043645885 -0.032496598 -0.09895088 0.0933848 -0.02843575 0.011199488 0.019178431 0.06547688 -0.053075965 -0.019517906 0.09355983 -0.0027814277 -0.031490628 0.05646786 0.024701886 -0.013174239 -0.033689126 -0.055796858 -0.0070031956 0.0015029316 -0.0567954 -0.097848736 0.026477769 0.020602223 0.07544166 -0.06430949 -0.06874921 0.0046817926 -0.030771986 -0.019510234 -0.044189353 -0.04559731 -0.04763473 0.0070116534 0.06915977 -0.058906373 -0.0019483122 0.03513501 0.08834522 -0.053939518 -0.046556897 0.029713327 -0.020609343 -0.11883741 0.06344205 0.052201908 0.030711835 -0.021569926 -0.0056079 -0.010765181 -0.03585766 -0.05994956 0.097290836 -0.0668321 0.06514157 -0.03337997 0.019110234 0.010240025 -0.0043134796 -0.0029475258 0.051692735 -0.005207268 -0.0013857454 0.09186393 0.07078298 -0.024768353 0.016824571 -0.010999921 -0.01710133 -0.0067049833 0.026045565 0.034755122 0.058303624 0.07028221 0.021204757 -0.052087475 0.016466934 0.03403366 -0.05557266 0.046206977 -0.0018560983 -0.028832907 -0.01075639 0.0071274685 0.08664648 -0.042908538 -0.022478692 0.00036828403 0.06710761 -0.056046862 -0.087346755 0.032837264 0.06873998 0.023484355 -0.022995738 -0.07269528 0.009980853 -0.02049037 -0.0012078384 0.0008251029 0.010289504 -0.009055734 -0.054604292 -0.015499222 -0.0766626 -0.03062736 -0.011963667 -0.032762486 -0.030708367 -0.002713489 0.012130088 0.025194725 -0.04676981 0.030837929 -0.019556902 -0.019037915 -0.02490626 -0.06824894 -0.040497497 -0.016782833 0.070412286 -0.020450976 0.010321822 -0.0316831 0.0327682 0.03582981 -0.065948695 -0.0002743426 -0.0034290545 0.037385423 0.006468795 0.005885907 0.018188069 -0.08803358 0.030651806 -0.027808458 0.021540275 -0.05464505 -0.022259723 0.024061728 0.04532822 -0.0009641289 -0.0115471445 -0.03380681 0.0035263554 -0.046855897 -0.048421472 0.0004613821 -0.0076726475 -0.009007513 0.033290118 0.039875276 -0.049204696 0.044551313 0.005740433 -0.02846446 0.02260385 0.023113023 0.02223484 0.04939557 -0.017917065 0.039207377 0.043588743 0.031506307 0.1564614 0.13479969 0.023911243 -0.0696057 0.09008827 -0.03593284 0.027879084 0.0686795 -0.04403947 -0.03765143 -0.07498796 -0.059964668 -0.061159875 -0.08101037 0.102653764 -0.01399194 -0.02080137 0.09029863 -0.017359558 -0.0040082517 0.06044347 0.05247731 -0.010977704 0.022365453 -0.007293418 -0.07333383 0.004394122 0.04602174 -0.021481138 0.075959764 0.060796317 -0.038338955 -0.027239485 -0.024416193 -0.0020240054 0.0023406225 -0.016206546 0.04001594 0.035903644 -0.025525434 0.023311373 0.012060034 0.08879332 0.10952391 0.0061281775 -0.027543722 0.057586133 0.059542276 -0.005054883 0.0068766223 0.09672881 -0.02734976 0.051551472 0.013453118 -0.06855499 0.16412124 0.016803084 -0.107714474 0.011051434 -0.020109033 -0.019453967 -0.025250513 -0.071995564 -0.027949778 0.06462908 -0.03279756 0.08744184 0.020855075 0.01873176 -0.11704985 -0.011727122 -0.02596279 -0.06630232 0.15521108 -0.0974045 0.064714186 -0.058264196 0.0076489346 0.03743751 -0.031142084 0.078077234 -0.04500319 0.016869618 -0.039356288 -0.042748507 -0.022662427 -0.014252541 -0.0428975 0.007261857 -0.035470963 -0.09303596 0.045568954 0.0055248956 0.014107767 -0.03365994 -0.034023885 0.030496458 0.02675714 0.0041457596 0.017188726 0.08146221 0.018114919 -0.037075464 0.002712534 -0.009881179 -0.014335701 0.020055821 0.0142758265 -0.050739583 -0.032125853 -0.015826713 0.061629158 -0.011207111 0.010542282 0.006011551 -0.08104739 -0.1452251 -0.008800557 -0.005787057 0.026035741 -0.0052650943 0.019870983 -0.0067047826 -0.043345015 0.019490471 0.0273284 -0.112343095 0.034061816 0.009921592 -0.024036108 -0.017425591 0.0177541 0.021701274 -0.031833004 -0.08700742 -0.013768463 -0.020241959 -0.08578694 0.08848648 0.0071634925 0.051810443 0.0835337 -0.028577594 -0.022513686 0.036832538 -0.00733812 -0.060702384 0.054509014 0.034658402 -0.020014612 0.025241802 0.032612234 0.0050455877 -0.0043211803 -0.031729054 0.027487233 0.06799642 -0.06258759 0.014945974 -0.07050929 0.007333353 -0.05026806 0.060948826 0.0036422939 -0.05972293 0.036012936 -0.0036850732 -0.0038396313 0.052555826 -0.0016943889 0.059079137 -0.0050836205 -0.013537385 -0.0567664 0.006871713 -0.039560456 0.019743796 0.11307521 0.008283806 -0.02668663 0.05242615 0.005386524 0.046039905 -0.024045432 0.06999873 -0.07842393 -0.020931162 0.0038104698 -0.08142353 -0.016295347 0.0020944753 -0.016817307 -0.01514073 0.060872078 0.042103626 -0.03775331 -0.0071644783 0.08089176 -0.0019672867 -0.04161533 0.08880125 0.011341135 0.098682106 0.07872629 -0.011121004 0.05470137 0.05436175 0.056658763 0.0080173565 -0.041951668 0.13887928 -0.038282488 -0.033246804 0.052953787 -0.021350313 -0.035271835 -0.02889218 0.042395335 -0.012581058 -0.10234518 0.057727106 0.064287014 0.0028290092 -0.065852515 0.00089098926 -0.04119457 0.05142745 -0.016513415 -0.020944973 0.06703244 0.0076816315 0.08794669 -0.03866294 0.045278184 0.027508507 -0.033117294 0.02609245 0.017535435 -0.007511381 -0.0046421527 0.025628543 0.035504263 0.0065031857 0.10578638 -0.019969175 -0.0009872009 -0.06786851 0.044874758 0.046727147 0.06628775 -0.003405569 -0.052639883 0.007970621 0.010866257 0.04728282 -0.021077875 -0.07140972 -0.118000165 0.08651808 0.1184678 0.009102925 0.020011926 -0.047144674 -0.0022200425 0.03247277 0.022394987 -0.10328162 -0.007633732 0.016377991 -0.04843178 0.073488615 -0.05643369 0.0133906035 0.008293382 -0.05083556 -0.014281656 -0.03837694 -0.059796285 -0.086526155 0.029020136 -0.081002116 0.036365114 0.04260416 -0.051347632 0.0738994 -0.073373765 -0.029645989 0.036488645 -0.017498843 0.0019848305 -0.012032639 0.056322463 0.04236454 0.0128614325 0.07227456 0.026413811 -0.021703525 -0.015963271 0.007875414 -0.050571866 0.03616519 -0.005752688 0.0052850866 0.007636075 0.00958157 -0.011742815 -0.0031224128 -0.021636209 0.06404559 -0.0037740667 0.045587637 0.053552635 0.05081966 -0.073747315 -0.017377077 -0.105125085 0.03927138 0.031002456 0.01369219 -0.05960756 -0.0028122026 -0.00045202492 -0.036949944 -0.030964011 0.022373699 -0.036205813 0.071779795 -0.16496252 -0.015755085 -0.06683503 0.08095559 0.027488051 -0.08712886 0.053629197 0.07397541 0.04322787 -0.03170242 -0.021576373 0.022704147 0.025349442 0.0127221765 -0.01695345 -0.040981837 -0.14066802 0.051475894 -0.058718543 0.060049545 0.0688884 -0.056172248 0.03158481 0.010898965 0.032973308 -0.0461039 0.019288803 -0.10728764 0.0026800993 -0.029978538 0.020212544 -0.00040904022 0.08266772 0.0140701 -0.10534739 0.03485008 0.0020162642 0.027493475 0.013316646 0.11395087 0.104961984 -0.010735692 0.07189215 0.14165102 -0.019948063 -0.010651994 0.05680139 -0.030026574 -0.061278503 0.057109334 0.029313995 -0.0656684 0.062067922 -0.012760686 0.0075413473 -0.04700275 0.04942442 -0.015811814 -0.09011679 -0.03680192 -0.049223814 -0.022115959 0.14649072 -0.04202466 -0.11084125 -0.029622111 0.0748866 0.025795072 -0.03493089 -0.044756737 0.009348521 0.026758546 0.010044775 0.040192675 0.033800595 0.019199861 0.015912382 -0.04617389 0.070313476 -0.12868941 0.027855758 -0.01805111 -0.12701637 0.0034706686 -0.015659124 -0.013383912 -0.02546061 0.042771436 0.099540934 -0.044189014 -0.001091339 -0.060020484 -0.021982735 -0.012316841 0.122760855 0.053907305 -0.0046372567 -0.01742936 0.071159236 -0.009797382 -0.09440065 0.040493067 -0.032882296 0.09908835 0.02970235 0.060048234 -0.06454542 -0.07217896 0.020819312 0.0024394554 0.053240836 -0.022324454 0.0375216 -0.010269215 -0.08500143 -0.037949555 -0.02209551 0.08671949 -0.05063914 -0.029845009 -0.06879667 0.05197814 -0.07710503 -0.00010497485 0.08932286 -0.050827842 -0.1102165 0.0077156047 0.028527623 -0.00987644 -0.0528678 -0.09499379 0.10709567 -0.012008819 0.029862985 0.021104647 0.013849809 0.013173594 0.04218736 -0.035299934 -0.006316303 0.013481985 -0.017264528 -0.062036444 -0.07611122 0.020902675 0.04488518 -0.050626952 -0.061615493 0.013213924 0.05516204 0.019031143 0.04511879 -0.023939008 -0.020995317 -0.032401364 -0.04680538 -0.059897985 0.025814218 -0.039289054 0.0065069026 0.014576398 -0.07452809 -0.029402731 0.0025666698 0.07878243 0.040868286 -0.043019947 0.057949215 0.007056743 -0.025804967 0.0056227306 0.0790421 -0.0010851279 0.06624258 -0.04533215 -0.0057277065 0.030842453 -0.053325165 -0.0296368 -0.04177137 -0.02804502 -0.07095108 -0.03518 0.013059899 -0.034156233 0.04811954 -0.06671028 -0.061958022 0.022011517 0.02238872 0.058912456 -0.09732269 -0.033641174 0.021598427 0.01108 0.08199847 -0.09524918 0.003834607 -0.014424646 0.0636027 0.016554734 -0.007169238 0.009163881 -0.05793347 0.091657214 0.056785535 -0.0190792 0.09468417 -0.007550034 -0.037051156 0.043702748 0.018964102 0.023799535 0.013117406 -0.044166755 0.03384206 -0.095472865 0.010037123 0.047883965 0.025291014 -0.019011958 -0.024207667 0.039855476 0.0064127385 0.029699838 -0.06979754 0.08035351 0.015770251 0.0137934685 -0.0048026606 -0.01306281 -0.040291008 -0.014522003 0.0434612 0.011079034 -0.11660458 0.01029131 0.0016611841 -0.10610484 -0.01815363 -0.042917963 -0.07604876 -0.071414694 0.009051117 -0.036050577 -0.00036011302 0.04944187 0.0043517454 -0.031364743 -0.01947565 0.05392906 0.06033307 -0.07270876 0.026951386 0.04050963 -0.04078902 0.005836816 0.056111317 0.010298141 0.085505 -0.0034488768 0.09658382 0.038945023 -0.08579098 0.05053656 -0.059088707 0.039743934 0.014105166 0.025850073 0.00668042 0.09393325 0.011455151 -0.012318182 -0.056291398 -0.0035981133 0.09007409 -0.039190497 0.0014514291 0.05355629 -0.061782252 0.055866893 0.119258955 0.033187278 -0.015381184 -0.015970137 0.10363759 -0.03502048 0.024930736 -0.04903881 -0.028850792 0.09317317 0.026386706 0.024738543 0.029981632 0.025386238 -0.021801936 -0.022751493 0.031299483 -0.003610704 0.09622998 0.040767264 -0.063728325 0.051741242 -0.036791652 -0.024650766 0.07390697 -0.06252766 -0.015979748 -0.016372733 0.055609852 0.005534928 0.05557059 -0.005972274 -0.052437134 -0.010903352 0.042678688 -0.031784605 0.038446054 -0.03185643 0.053326983 -0.005815402 -0.022009136 -0.011486944 0.08483689 0.020905009 -0.088738464 0.06609217 -0.062448855 0.041571155 0.020901592 -0.060998153 -0.021783698 0.026823765 0.040900152 0.026280338 0.08170185 0.0014048408 -0.0052739154 -0.019604905 0.049830686 -0.017043138 0.0324105 0.018416384 0.045406308 0.026198685 -0.04601268 -0.01015181 0.025446078 0.058383305 0.0473773 0.01813167 -0.063805655 -0.07721451 -0.0063563283 -0.011552535 -0.007165193 -0.002449587 0.010658059 0.015490698 0.04037665 -0.05498409 0.029167164 -0.017774737 0.011081759 0.043316253 -0.011934637 -0.0465923 0.08255213 0.01026003 -0.042240124 0.010795332 0.007288693 -0.039947603 0.0005554715 -0.027079513 -0.051046457 -0.00032036792 0.100432694 0.008260026 0.010604422 0.07702299 -0.051829495 -0.037148107 0.061204385 -0.08116893 -0.050368126 -0.029774224 0.08967162 0.05481407 0.020640856 -0.0896552 0.04439598 -0.040377367 0.006335342 0.00046045944 -0.057000346 0.075884804 -0.013066872 0.04356169 0.050678123 0.045477174 0.022964893 0.051834863 0.00069108926 -0.004043686 0.05825862 -0.053623796 0.071013965 0.019593254 -0.058470447 -0.014516971 0.09042138 0.058096327 0.027503133 0.07087934 -0.03581265 -0.08184176 0.038898967 0.017223721 -0.079853855 -0.048730355 0.050447434 -0.04566601 0.048160803 0.026946565 0.024299884 0.020555908 0.03056159 -0.067463346 0.11433617 0.0002791431 0.007750331 0.031424418 0.06252239 -0.028749898 0.051087834 0.011129006 0.061020542 -0.0066586183 0.016233882 -0.060434896 0.026342085 -0.00072907656 -0.032305982 -0.0034876838 -0.0036593967 -0.023386588 -0.0009731806 0.008289124 0.069844596 -0.03696647 0.032490946 0.067363374 -0.038888864 0.07741445 0.0010098019 -0.048010144 0.00041082586 -0.016301474 -0.0028157241 -0.03786559 0.028641641 -0.043357532 -0.034311038 -0.04587982 -0.028504172 0.0058867214 -0.016446231 -0.005442332 0.014759066 -0.00929104 -0.03161569 0.037974536 0.049326107 0.014272116 0.019183984 -0.0063838433 -0.0918674 0.07284712 -0.04414518 -0.054507 -0.008681054 -0.018645437 0.0047437865 0.00789074 0.03672707 -0.017962635 -0.06253635 0.09380535 0.017541386 0.03527418 -0.027173346 0.0377769 0.027677193 0.054916352 -0.006626304 -0.051278133 -0.0016024736 -0.026277477 -0.015017457 -0.017887002 0.01330158 -0.039056037 -0.0509264 -0.013345048 0.090354875 -0.064228974 0.048935454 -0.040254176 -0.04059268 -0.11006744 0.010598759 -0.04865567 0.06752961 -0.016873522 -0.003339578 -0.0018082726 0.08911454 -0.05231136 0.048377123 0.06962388 0.014408633 0.009188815 -0.06575177 -0.052494723 0.014389596 -0.01997216 -0.06888407 -0.009819694 0.020935632 -0.015820663 0.041946735 -0.0015173149 -0.0032457025 -0.04590776 0.019237129 -0.025366014 -0.024500582 0.0031201479 -0.09014188 0.012877545 0.08851324 0.017777875 0.08973683 0.039936267 0.058552947 -0.06779953 -0.013871612 0.001594803 -0.073500894 -1.788229e-05 0.057816762 -0.008073772 0.067679696 -0.0093989605 -0.040212754 -0.047104802 -0.010428471 0.0050565777 0.048060305 -0.030130228 -0.032547485 -0.059213877 -0.041416816 -0.107224405 -0.051331367 0.019420812 0.061778765 -0.013975607 0.08205508 -0.076649904 -0.044744126 0.0045356257 -0.06474025 0.022066187 0.0389161 -0.007392302 -0.03350184 0.0516207 0.08099772 0.015123841 -0.032972734 0.0032964803 -0.07225082 0.059589185 -0.0709686 -0.104776144 -0.035341065 0.0019878866 -0.08209286 -0.066748604 -0.007752668 -0.000121092504 0.06847513 -0.032661915 -0.006862383 -0.107119404 0.01149181 0.031079 -0.11876787 -0.030543068 0.05709186 0.0032834273 0.030377558 0.08915551 -0.029134622 0.028081143 -0.048795894 -0.014804261 -0.054624017 -0.058053214 0.0016417828 -0.034416582 0.048359282 -0.006428506 -0.064901434 -0.036395553 -0.048444718 -0.039244805 0.044571776 -0.0065678894 -0.052279007 -0.047909908 -0.036152493 0.08839523 0.011147806 0.01924863 0.002051292 -0.03491994 0.021807702 0.017759204 -0.014239161 -0.025582228 -0.02274429 0.14680405 0.10412019 -0.047229555 -0.01151988 0.024644533 0.021332193 0.022307588 0.039922267 0.0636257 -0.02770902 -0.014053807 -0.039753333 0.03510831 0.05014035 0.017133022 -0.00013155326 -0.023534192 -0.07152613 -0.0070726075 -0.0645467 0.021650385 0.034072928 0.04416531 0.013070457 -0.028922144 -0.001047896 0.031051314 -0.008101436 0.062199455 0.04225799 -0.05112304 -0.026991475 -0.038905915 -0.008331454 -0.008100467 -0.08334603 -0.069458485 0.037824888 0.086141765 0.058452472 -0.005380042 0.016068324 0.039841276 0.070105836 -0.070258446 0.03244272 -0.09122998 0.008728343 0.060321704 -0.104955696 0.06533267 -0.066288926 -0.036127705 0.03930382 -0.035593975 0.05123205 0.06815872 0.04183758 -0.033291183 0.12967077 -0.064485505 0.0053757112 -0.052704096 -0.09900411 0.05327509 -0.044888686 0.06877637 0.051842228 -0.021006497 -0.048080135 0.09601769 -0.023179535 0.0869507 0.042536188 -0.059815563 -0.07037047 -0.104036294 -0.016191017 -0.017853256 -0.022437824 0.0064540193 -0.049071323 -0.1323715 -0.049164545 0.00051180104 -0.08779129 0.009627065 0.012786736 -0.0139318025 -0.04450568 -0.10826631 0.018148486 0.04989332 0.016462522 -0.072881944 -0.0071457447 -0.09252666 0.12026786 0.033785086 0.15010062 0.0909366 0.021476347 0.11880582 -0.126159 0.01923794 -0.051151093 0.038140096 -0.13837606 -0.034631353 0.035057697 -0.039527863 -0.040193465 0.04748759 0.023493635 0.04698762 -0.0053593554 -0.0035516059 -0.05880962 -0.03342133 -0.03668443 0.02634876 0.020787433 0.039737165 0.029127186 -0.06057473 0.014711121 -0.063501105 0.11829779 0.04564861 0.04015425 0.0177048 -0.010416608 -0.00652212 0.012588496 -0.009026181 0.017037185 0.0128356395 -0.001551897 0.01899932 -0.03230698 0.038009144 -0.004975517 -0.028469987 -0.12809382 0.08594692 0.091944225 0.14194493 -0.0730344 0.008291871 -0.026405687 0.053118538 -0.13507886 -0.1050851 -0.061699096 0.011725097 0.053252794 -0.08572958 0.0883897 0.0027560634 -0.015495874 0.039354518 0.06332909 -0.027069414 -0.08898026 0.09109184 -0.03528748 -0.121217325 0.0027973952 -0.0790503 -0.011253326 -0.0061906376 0.046316974 0.046383496 -0.06603116 0.059378292 0.034091447 0.0716325 0.03620394 0.02924645 0.021735566 -0.078198865 -0.0099423565 -0.008261451 0.006483907 -0.04771945 -0.022817913 -0.0033961546 0.00045649926 0.018169638 -0.018755782 -0.09197783 -0.041983765 -0.012219367 0.016233435 -0.063169435 0.017601404 0.06925159 0.011026581 0.013327487 -0.04253711 0.0031443 0.031190801 0.05806863 0.011192452 -0.059205286 -0.041354824 -0.060724407 0.004870166 0.046507023 -0.040159665 -0.03338366 0.002373851 0.08659313 0.009565061 0.10879111 0.010685579 0.0033333974 0.027534375 -0.01826046 -0.039639976 -0.020109786 -0.0002206258 0.0454104 -0.014444926 0.07888279 0.04445858 0.030419009 0.02650004 0.0425647 -0.06873357 0.06697068 -0.030922873 -0.067863144 0.0061101285 -0.14533356 0.012261071 0.06824681 -0.003989211 -0.10135489 0.010703523 -0.031126099 0.006786764 0.0004142904 -0.021265335 0.019567646 0.044876434 0.044340994 -0.11497824 0.13647528 -0.015310987 -0.00837039 -0.00558415 0.012090106 -0.025494538 0.12023385 -0.011095675 -0.002398027 0.011675717 0.0032590216 -0.027401956 -0.031664297 0.00055607286 -0.040588085 0.016122464 0.06733854 0.005123155 0.100319825 0.06359961 0.07225732 0.060497817 0.03363555 0.008676412 0.028300796 0.033995565 0.011767811 -0.014142038 -0.027211526 0.029967966 -0.028984537 0.0007766084 0.08271707 -0.027758833 -0.0030708425 0.010171603 -0.0057789716 -0.033949804 -0.0038079002 0.02725666 -0.014063819 0.06797346 0.10387726 0.051016934 -0.0861205 -0.037910394 0.030461308 -0.07157809 -0.011092188 -0.016566623 0.027347634 0.005017573 0.0169818 0.040841933 -0.084098324 -0.03520414 -0.0603736 -0.037837353 0.101856224 -0.01232066 -0.047222644 0.016964164 -0.021543186 -0.07208125 0.006289986 -0.009372072 0.09883471 -0.043198135 0.060953 -0.011404371 -0.010816161 0.061640497 -0.013866687 0.017078416 -0.060894348 -0.008647645 0.025936307 0.08524624 0.18399893 0.0610622 -0.08788728 -0.0644176 -0.039593536 -0.09903813 0.08186815 -0.0065195262 -0.084230065 0.0744371 0.07794556 -0.02198874 0.024382396 -0.015757224 -0.0039595296 0.08103262 -0.046771396 -0.077994324 0.038843643 -0.1030803 -0.04541096 -0.01611816 -0.012662178 0.08139364 -0.0980195 0.0070878137 -0.036743645 -0.046290584 -0.0068647023 0.04929503 0.052032188 0.0002772953 -0.043893266 -0.055220257 0.04473227 -0.041068535 -0.07087647 -0.060201056 0.05670866 0.08435852 -0.11700535 -0.07480604 0.10780581 -0.039211396 -0.071615204 -0.09689863 -0.20718999 -0.051521566 0.0051347315 -0.0030286484 -0.058305383 -0.075438306 0.09361178 0.053674452 -0.010625342 0.08148924 -0.16547148 0.06324867 -0.083203875 0.0034958452 0.087562054 -0.026943091 -0.11442399 -0.13269114 0.00035880815 0.016160263 0.016658831 -0.07032434 -0.054825854 0.031511206 0.056799583 -0.080673024 -0.021444451 0.0007630011 0.028346827 0.06235604 0.020829214 -0.09122575 0.08444905 -0.10124079 -0.028144931 0.007305743 -0.06035705 -0.07124596 0.0686945 0.04334673 0.019928936 -0.029412782 0.014633999 -0.012348342 -0.0015830526 0.055400725 -0.089449465 -0.122370206 -0.03562388 0.021190463 0.018451646 0.0032356489 0.01286911 -0.07740321 0.052995715 0.038443808 -0.002782163 0.06574813 0.034368288 -0.008244776 0.01922569 0.012380782 0.029206594 0.005645646 -0.03323133 0.1561796 0.019323492 0.047418084 -0.110670455 -0.006466322 0.035466496 -0.017863046 0.00718486 -0.077538446 0.0381869 -0.05488003 -0.020766092 0.027742296 -0.043077987 -0.07965461 -0.10237085 0.03391859 -0.017636 0.07928879 0.035042085 0.0055836537 0.013305204 0.018247623 -0.056409888 -0.026309086 -0.0414272 0.011414359 0.10225585 0.010977923 0.10028434 0.04910593 -0.03569747 0.07967979 -0.013732077 -0.048826694 0.080707505 -0.021001026 -0.037370607 -0.037080478 0.025248537 -0.011660695 -0.023509469 -0.040570516 -0.01315507 -0.10994297 0.03762233 -0.063989 0.007309564 -0.059517767 0.13914645 0.017051337 -0.013099991 0.09634926 -0.031609423 0.016448058 0.0056671165 0.0059125344 -0.015160539 0.023152044 -0.07693099 0.003779325 0.08197857 0.008268778 -0.056683805 0.026518088 -0.019207358 0.05344236 0.010277911 -0.18094492 0.109461404 0.08378141 0.028001817 0.017394656 0.13898747 -0.053958967 0.054018307 0.057046257 0.104876705 -0.022087205 -0.033691984 0.003957893 -0.08867086 0.05347553 0.048716005 0.038601704 0.015212164 -0.01253334 0.0065441295 -0.11821062 -0.00752126 0.020232584 0.062292546 -0.017019697 0.027949668 -0.10638252 -0.050766416 0.07874854 -0.04127788 -0.04569828 0.055450354 -0.119228885 -0.006171444 0.042306423 0.025735866 -0.10645908 -0.073616356 -0.12864593 -0.124445 -0.008998985 0.027924053 0.043213755 0.045427922 0.05927986 -0.02570864 0.019372841 0.028731575 0.0075941687 0.0765499 -0.026170203 0.023959711 -0.027390495 0.046793196 -0.054827143 -0.045981836 -0.028483748 0.040797208 -0.02954092 8.67585e-05 0.07517114 0.06820648 -0.068048194 0.043576814 -0.05956618 0.04281708 -0.004832452 0.012835732 0.024346197 -0.08293667 0.027492318 -0.01928 0.032373425 -0.074963935 0.0056038518 -0.021181732 -0.027906036 -0.09326262 -0.025894232 -0.070502624 -0.0046082437 0.033103906 -0.0071522254 -0.09174042 0.04963755 0.053224042 0.038156662 0.027647367 -0.07803751 -0.055752903 0.0071413633 -0.018317528 0.0063822162 -0.03749829 0.035047714 -0.032184843 0.040810473 0.04344408 -0.005131633 0.05047759 0.042229284 0.039094564 -0.005887819 0.1020438 0.050157554 -0.051108804 0.07987665 0.080917396 -0.020532189 -0.05362889 -0.012563956 -0.07089771 0.14004327 -0.0007751124 -7.190072e-06 -0.02413286 -0.008005554 -0.07361644 0.042035714 -0.010812663 -0.0101434775 -0.014743503 -0.070522815 0.09797676 -0.015990075 0.18567717 0.037322767 -0.031620804 0.0019782376 0.029986152 -0.035982218 -0.073301286 -0.025362771 0.029766506 -0.14601487 0.024426652 -0.10909211 0.010343418 -0.040773794 -0.010865412 0.012043426 -0.03533007 -0.04294194 -0.06602304 0.014772385 -0.028036956 0.06380817 0.006324949 0.06200643 0.03441889 0.01953581 -0.05800975 0.03659842 -0.0072966213 0.01042954 0.06394798 -0.09561865 0.011293464 0.008010098 -0.03036389 0.01994473 0.015299699 0.042868886 0.09749486 0.045508705 0.05422541 -0.0364339 0.022268532 -0.007113636 -0.032213274 -0.03247999 0.046274405 0.067331545 -0.037672095 0.09002138 -0.054258257 0.05321705 0.027181964 0.05326726 -0.029816711 -0.09751605 -0.047358733 0.10529394 0.034283303 -0.09275585 0.031344887 -0.0003689961 0.020085376 0.0033413237 0.022972785 -0.024086744 -0.0065670493 -0.022248976 0.051981367 0.0068224533 -0.0014800484 0.008270147 -0.008092922 0.037125576 -0.016353153 0.020285007 0.044818927 -0.0043871445 -0.021334574 -0.015663251 0.094967954 0.05329729 0.01832513 -0.0026589162 -0.01222207 0.00879905 -0.00710503 -0.0906348 -0.005189716 0.075205006 -0.043089893 0.114248484 0.008313068 -0.052265488 0.047425907 -0.14841647 0.06643833 0.05066518 -0.021128863 0.05625933 0.038295202 -0.03674237 -0.018931001 0.01003458 -0.042457666 0.0023724313 0.077768356 0.033702876 0.04118681 -0.102090195 -0.0071883034 -0.09091884 -0.054009106 -0.03569997 0.013091421 0.017256962 0.0033630852 0.045150407 -0.062829114 0.063821316 0.011138613 -0.04042513 0.036770176 -0.030298954 -0.032095823 0.027921293 -0.012281569 -0.07643299 0.038562305 0.00476304 0.13052951 0.006943046 0.06112472 0.021031165 0.03848302 -0.009445298 -0.08228801 -0.08097283 0.06805734 0.11545742 0.1308936 -0.058082454 0.016244248 -0.01820084 -0.010397224 -0.033000648 -0.028990023 -0.009257469 -0.002506449 0.025143914 0.113145456 0.018024312 -0.026916021 -0.14014548 0.008252146 -0.057111442 -0.011985185 -0.046179373 -0.010062198 -0.07254122 0.050892286 0.09779971 0.029025564 0.06367937 -0.034469705 0.024581006 -0.011132908 -0.05608984 -0.099066325 0.04768543 -0.03297779 0.044885132 -0.0037004598 0.0271807 -0.011489399 -0.013732907 -0.015777683 -0.019481968 0.12668136 0.07869806 0.062802024 -0.019467104 0.034524918 -0.012970408 -0.006231981 -0.017676024 -0.06299643 0.00048775435 -0.08298796 0.022741884 0.051927257 0.007751062 0.11674945 -0.022064328 -0.01844524 -0.015883204 0.04554452 -0.09959894 -0.08567143 0.030486315 -0.058431495 0.001561326 -0.052065253 0.05893949 0.01796919 0.06596248 0.08852405 -0.0039619743 -0.016772998 -0.02038368 0.016817879 -0.08738615 0.011043518 -0.078013785 0.020286197 0.011830174 0.053916223 -0.040955994 0.012859354 0.0058743814 -0.030325718 -0.0064571556 0.08978473 0.08469898 0.06402954 0.062150706 0.037840147 0.13060437 -0.030638546 -0.015506396 -0.008504886 0.057222836 0.03145885 -0.06887232 0.008787467 -0.07524646 0.07686695 -0.0362339 0.11279913 0.021188933 0.0665596 -0.06817293 0.122679144 0.08001802 -0.10121582 0.10330649 -0.1327415 0.011942938 0.022263924 -0.021872398 0.08706023 -0.030233303 -0.064113334 0.0007422507 0.050333682 -0.050308917 -0.0038407713 -0.018073205 -0.05003042 0.03602879 0.00560331 0.054365385 -0.02941459 -0.042266577 0.06603375 -0.014589832 -0.012455895 -0.06786925 0.00019329553 -0.024645442 0.038812887 0.0076559084 0.018482968 -0.031469982 0.029786328 -0.032163523 -0.042527802 0.0330032 -0.011583029 0.058594067 0.030009126 -0.07723108 -0.056457628 0.008013664 -0.031395465 -0.025356153 0.033835612 -0.0016294093 -0.058624666 0.012909893 -0.07144739 0.025952926 0.025226086 -0.009860785 0.09727753 -0.0089710895 0.029557323 0.026399676 0.025508111 0.031400975 0.08306386 -0.018717827 0.094880395 0.05835252 0.012915371 -0.0033164911 0.014080885 0.052291572 0.012734824 -0.051909663 0.054229222 -0.039093506 -0.00081183936 -0.044218503 0.018455463 -0.054226384 0.0011323199 -0.03410282 -0.008600212 0.017329616 0.09050155 -0.047596965 -0.04236467 -0.13442296 -0.01849393 0.10092776 0.1270921 -0.04701939 0.023206884 0.019918064 -0.041379176 0.0031277966 0.038201597 0.06587106 -0.06357717 -0.066747576 -0.025112469 -0.01619052 0.038193084 -0.037418656 0.026050726 0.086005434 0.09389798 -0.018832024 0.041550137 -0.05647519 0.037761103 -0.08758231 0.015491639 -0.057140067 0.0031824345 -0.08025086 -0.0039144936 0.010294962 0.008946995 0.04074448 0.029291825 0.013383158 0.034053586 0.04968958 -0.011765532 -0.016123857 0.036296017 -0.009042263 -0.028871503 0.018089017 -0.10372917 0.11600037 0.059332155 -0.06770073 0.0100303255 -0.012919187 -0.014189565 -0.06623333 -0.045953628 0.013698625 -0.008325281 -0.030783394 0.02212152 0.04441769 0.046751354 -0.0075509595 -0.040767353 -0.010664603 -0.075266235 -0.010011607 -0.018683454 -7.826946e-06 0.021140747 0.06341423 -0.09717812 -0.028359449 -0.0239053 -0.026665028 0.029977674 -0.11394165 0.0074121496 -0.032501765 0.035326716 0.08611897 -0.009982732 -0.012771322 -0.038260628 -0.1443434 0.017292308 0.033416588 0.05270579 -0.0035536918 -0.028823847 0.07565454 -0.039533954 0.031907756 -0.009626565 -0.10430118 -0.00018891104 -0.012006253 -0.034756474 0.04259317 0.034907084 0.035536975 0.023396032 0.08268494 -0.050390206 -0.026017912 0.054047093 -0.024072716 -0.10916087 -0.13078043 -0.07084606 -0.0048586633 0.03329701 0.031031763 -0.042686965 0.002257671 -0.04925353 0.04343425 0.022459103 0.021412563 -0.0059372517 0.008085259 -0.0014012851 0.0025288705 -0.05285957 0.08912507 -0.000530414 -0.02925424 0.004304701 0.06898863 -0.00538329 -0.049859915 0.018769402 0.011985178 -0.045874026 0.075484745 -0.09078979 0.06914199 0.048434727 0.007821946 -0.040039808 -0.0013800528 -0.046751194 0.05100655 -0.08608967 0.005366564 0.0038707678 0.010103085 -0.01074677 -0.012018877 -0.006182746 -0.08976102 -0.015250015 0.031865373 -0.07714567 0.041434553 -0.030760655 -0.07379007 0.016481102 -0.0033591685 -0.01045542 0.03701241 0.058205117 -0.032766826 0.0752584 0.00063501456 0.05101638 -0.051988125 0.022076821 0.046889246 0.14674936 0.040322896 -0.08477834 0.04144832 0.013568091 0.07271518 0.0027114914 -0.021474421 -0.059266027 -0.07996995 0.012038256 -0.058843046 -0.063075766 -0.0571584 -0.09198316 -0.030659018 0.039508592 0.0058396487 -0.03536417 0.017855112 0.05858273 -0.0058019715 0.056573123 -0.036962997 0.0040532937 0.045444176 -0.045794755 -0.03062582 0.057753284 0.03456456 -0.022705544 0.06936244 0.08725264 0.07484789 0.041338693 0.100753665 -0.060370035 -0.057102453 -0.08900138 0.07158106 0.015847595 -0.07287918 0.0041701086 0.10429396 -0.12596855 -0.02953823 0.014506918 -0.055017617 0.01535852 -0.018724186 -0.0047286157 0.0076603927 -0.03943194 -0.012684703 0.048767768 0.005655281 -0.018560192 0.06817227 -0.020892711 -2.54936e-05 -0.09492168 0.047176 -0.005030121 0.073001616 0.020240374 0.020715356 0.086593434 -0.027859 0.0069153756 -0.06344658 0.0073005008 0.039997548 0.09238698 -0.00045470637 -0.035548206 0.11044256 5.7614758e-05 0.02443477 0.07587191 -0.061264098 -0.03794732 0.062518194 0.035671134 -0.08358608 -0.11203956 0.042922817 -0.06711039 0.0011536445 -0.053083964 -0.09930398 0.009755558 0.039929878 -0.0068369056 0.04636995 -0.02367481 -0.10362524 -0.039610755 -0.097815365 -0.037102785 0.011683962 -0.017743666 0.07319101 -0.026169201 0.058486987 -0.010472926 0.00996928 0.09284792 0.008256766 0.049167115 0.027692039 0.025325825 0.032934427 -0.034489784 -0.04339821 -0.07071855 0.012857253 -0.05338461 0.034898065 -0.028324926 -0.010934372 0.13606404 -0.06206379 -0.049865887 -0.027125483 -0.01567649 -0.014844923 -0.0037673493 -0.0013790483 0.014526519 -0.060673993 -0.01016388 0.026937077 -0.022251802 -0.038774144 -0.06895069 -0.055529445 -0.05915789 -0.032267027 0.01714484 -0.12890764 -0.030831685 0.07893051 0.0055677304 -0.04999265 0.039886724 0.07812228 -0.0024844739 0.054009963 0.0030932943 -0.01579079 -0.014381689 0.04480235 0.014036371 -0.010398956 0.05899147 0.011207427 -0.05452454 0.04006959 0.029923936 -0.009711273 -0.004286475 0.028837994 0.027768215 0.0231534 -0.049513724 0.04033531 -0.050781216 -0.014173138 -0.031266093 -0.048755854 -0.006945686 -0.007944308 -0.10341821 0.038798276 0.0049164346 -0.053845912 0.068827935 -0.038016006 0.045174208 0.02082741 0.012737534 -0.027776191 0.06594875 -0.0028687299 -0.034707844 -0.0014203173 0.075065374 -0.013125765 -0.17152946 -0.041002955 0.05447731 -0.036748238 -0.057876684 0.009153503 0.044679042 0.08635987 0.031004904 -0.060127687 -0.0020143683 0.048713513 -0.033537593 -0.04151436 0.034548488 -0.0076847337 0.045004785 0.0005308775 0.024307117 0.060638756 -0.05975742 0.038158603 -0.030954933 0.03125984 -0.017756572 -0.0022157675 -0.02533085 -0.029286588 -0.068319306 -0.00724092 0.062292308 -0.0154111115 -0.05342072 -0.030367533 0.022506183 -0.012656326 0.11516609 -0.08812192 -0.03453019 0.0856414 0.048251428 -0.06050038 0.026926378 0.033173647 0.01948913 -0.113572136 0.012218435 0.040182553 -0.010693993 0.011739143 -0.011276063 -0.026011115 0.012617528 0.034654807 -0.024039313 0.04645924 -0.0018379921 -0.0456699 -0.059789635 -0.01233841 0.11959737 0.05637298 0.045933582 0.05088296 0.060650434 0.03616834 -0.05150717 0.075042516 -0.038725436 -0.0076761954 -0.052734446 -0.063427754 -0.013001655 0.05250011 0.046346843 -0.08223649 0.071727425 -0.009215619 0.0017486283 -0.002313274 0.047754478 0.02604859 0.02811017 -0.032651287 -0.008456909 0.023777945 -0.028817138 -0.00901841 -0.015591952 -0.023044625 0.019496042 0.03423846 0.016140439 -0.050151926 0.008564191 -0.03132034 -0.10223981 -0.0330634 0.0011245104 0.028172508 -0.05135281 0.05191366 0.01761919 -0.02496807 0.022575898 -0.06292864 -0.045183282 0.067217946 -0.020289524 -0.012791619 0.0241674 -0.015723648 0.10149045 0.10196576 0.0022067302 -0.046034176 0.047327068 0.06448754 -0.044763744 -0.059731375 0.07263522 0.008156062 0.08774027 0.07276925 0.005567217 -0.02409714 -0.04787488 0.12382849 0.04003026 0.037737038 0.029795349 -0.021189844 -0.017366715 -0.059493333 0.011250917 -0.036031283 0.029382944 0.0058357553 -0.041757062 -0.057026297 -0.013414363 0.015851025 -0.02458971 0.07455243 0.10544994 0.011463566 0.08686862 -0.01575186 0.018756667 0.03416125 -0.029380143 0.06964896 0.07711489 -0.00217582 -0.10264992 0.10077634 0.043369915 0.076648675 -0.06662967 0.018172856 -0.024276664 -0.0067134793 -0.027305866 -0.013383098 -0.011218787 0.026918957 -0.09279289 -0.048053384 0.01703006 0.009483753 -0.04722808 0.017047899 0.07694071 -0.021337284 -0.08445606 0.011343955 -0.06668112 0.015924143 -0.06177486 0.023285173 -0.02437464 -0.030380864 -0.033706658 -0.09073607 0.0867031 -0.071638815 0.064197935 0.085368685 -0.03226718 0.032725252 0.08458841 0.02913746 0.10908681 0.0128762005 -0.11461934 -0.03657439 0.096077666 0.08419362 0.0029874009 -0.078628294 -0.014777444 -0.050896097 0.05886488 -0.021852491 0.0471119 0.095854245 -0.003087974 0.043298736 0.046560463 0.05181957 0.092419945 -0.047166765 0.03723715 -0.027711788 -0.01662635 -0.050305802 -0.026070107 -0.10429275 0.042932298 -0.06444482 0.06519912 0.05369897 0.030649079 0.017777791 0.086374365 -0.017624848 -0.015236675 0.04088182 0.07512342 0.059002545 -0.07591222 0.04812818 -0.016340517 0.0013531676 -0.06892469 -0.020353502 0.013032359 0.02262993 0.00737961 0.056667138 0.031336736 0.02561214 0.038957693 -0.017889846 -0.081119075 0.022027457 -0.012954856 0.027191335 0.04434551 0.08203219 -0.00018236804 0.021516299 -0.013236061 -0.046456672 -0.0002341717 0.041881625 -0.0013299483 0.035411507 -0.044152964 0.0080180885 -0.008806485 0.046792142 -0.013960408 0.09474693 0.06966273 -0.06656628 -0.047775242 0.05923262 0.061566886 0.04016013 -0.08993145 -0.031801518 -0.0057984046 0.04423933 -0.0046091573 -0.021940848 0.06468501 -0.008091877 -0.033009645 -0.016575804 0.06175521 -0.023216335 0.06378027 0.046133067 0.014328817 0.045890134 -0.04744967 0.0059363265 0.069939695 -0.022705765 0.072608255 0.029941037 -0.032615308 -0.04159921 0.04091132 -0.09689515 0.035527833 -0.09524869 -0.0024320886 0.040903393 -0.18988548 -0.009355004 0.008839639 -0.003005781 -0.0789721 -0.0074756257 -0.06553145 -0.03867073 0.013954781 -0.003940017 -0.04242438 -0.0044423286 -0.040262483 0.011393863 0.0020727632 -0.05174745 -0.08629029 -0.05476884 -0.02462159 0.019064704 -0.039561678 -0.031992145 0.002275932 0.004113931 -0.014754687 0.01900998 0.031134242 0.038178336 -0.018071009 0.012538199 0.063990764 0.047473796 0.07027299 -0.012722522 0.05839498 0.0460135 -0.013652173 -0.059871137 0.033932712 0.037136953 0.029015234 -0.021624414 -0.08939828 -0.042231992 -0.028913045 -0.05810367 -0.040966876 -0.04575095 0.06929173 0.008150363 0.053072304 -0.0037652783 0.032988522 0.08619448 0.004735008 0.06733885 0.00528206 0.030480972 0.028824797 -0.012568909 -0.04247744 -0.035297155 0.09096975 -0.05641488 -0.010326101 -0.065408915 -0.032811653 -0.014421371 -0.031555124 -0.06654224 -0.015707923 0.01426871 0.05543055 0.046992537 0.03575216 -0.058364507 0.010987872 -0.021379102 0.081132755 0.049277823 -0.011167037 0.01854176 -0.052391674 0.055656802 0.07430538 0.010687526 -0.0899191 0.004157504 0.0051345336 0.06653144 0.012431517 0.025060972 0.06711887 0.016615547 0.03913645 -0.017010717 -0.0050176433 0.015497063 0.014313369 -0.073081486 0.017390408 0.004154205 0.0023091359 -0.08559621 -0.035829823 0.020893715 -0.10561871 0.009706999 -0.035934746 -0.0057688 0.11860074 -0.08850598 -0.00067068584 -0.024215436 0.014574135 0.056628186 0.06384728 0.01782858 0.03407565 0.023576653 -0.025189353 -0.103626326 0.047480185 0.05943212 0.08800033 -0.061259855 -0.006949083 0.01045197 0.03712694 -0.039532658 0.05456714 0.009612815 -0.021295564 0.04198576 -0.066024736 0.06671483 0.02087473 -0.027077494 0.06982283 0.036054406 -0.017508859 0.056419797 -0.1096005 0.024890114 0.0051321266 0.01778048 -0.037484217 -0.05080079 -0.039017774 0.07204227 -0.047439076 -0.004409352 -0.08421892 0.049860094 0.05119818 0.03243389 -0.006737227 0.0343381 0.10277482 -0.046762057 -0.0064731226 0.04598627 -0.012064832 -0.018625235 -0.03533224 -0.014661397 0.0033053083 -0.039325494 0.06467296 0.003073318 -0.010303795 0.046318304 0.0494054 -0.0034730327 -0.038953867 0.016548468 -0.085488185 -0.051929396 -0.028201759 -0.0057986374 -0.0143136745 -0.0011348004 0.055528875 0.044322457 0.05484661 0.0014835884 -0.04564469 0.030318696 -0.06604237 0.02151507 -0.0011689303 -0.051765073 0.06322237 -0.058622688 0.017882084 -0.054593354 0.054965217 -0.038624283 -0.0555374 0.02857918 0.0020743588 -0.017251609 0.0021044689 -0.047029078 -0.03549099 0.03836782 0.078565255 0.021815628 -0.017561104 -0.049808707 0.10026202 -0.06580048 0.017969625 -0.03683878 0.07604594 -0.08365246 0.0065923594 -0.02293361 -0.021787763 -0.036324386 -0.06865141 -0.055306714 -0.02989012 0.03402303 -0.09688941 0.04640842 0.034197006 0.11119759 0.00961698 -0.07246875 -0.053921886 0.040684413 -0.013138743 0.00024868303 -0.061743893 0.11539177 0.05291743 0.020669052 0.06039503 -0.051300425 -0.05413645 0.04237608 0.07360511 -0.03213838 -0.054370042 0.0054370747 -0.054665364 0.04329021 -0.0021466536 -0.013360428 0.049616765 0.018817319 -0.04538774 0.005391397 0.07146054 -0.034214772 0.024224266 0.084279664 -0.005575839 -0.046750683 0.024713095 -0.0067896987 -0.08954663 0.022801345 -0.005460098 0.0970849 -0.0763241 0.014694533 -0.0084315725 -0.0018062027 -0.032814845 0.090603344 0.017630106 0.014454451 -0.057005215 -0.02492863 -0.009061482 -0.047078263 0.005501561 0.05949784 0.030434374 -0.02445581 -0.0076053697 0.0732606 -0.03961753 -0.017303882 -0.020796563 0.07514672 0.05400732 0.09095898 0.053744536 -0.04258286 -0.07080743 -0.016239792 0.033007246 0.0653799 -0.107272305 0.04073073 -0.05276869 -0.007132403 -0.0035247316 -0.06193917 0.052977305 -0.01119681 0.013021685 0.013544972 -0.014102536 -0.03602889 0.14569885 -0.049829513 -0.014035751 -0.035565756 -0.008094084 0.019173466 -0.038999602 0.10478715 -0.048221465 0.07142537 -0.05913186 0.12735455 -0.05438881 -0.0018969247 0.04011139 0.018289525 -0.02180408 -0.063169755 0.0656062 -0.11178646 -0.046914317 -0.02143395 0.037572555 0.031047238 0.027789328 0.07532909 -0.0952664 0.022142712 0.068399936 0.07577362 0.019354371 0.05640964 -0.020787144 0.06346155 0.035029393 0.02848125 0.021622928 -0.07095948 -0.033281066 -0.06354108 0.009339293 0.038012993 0.000817173 -0.051187374 -0.0047749626 -0.013708009 -0.0018121774 0.046230506 0.044336192 -0.10598961 -0.0813765 -0.059310056 0.014942971 -0.077525035 -0.06263308 -0.022789268 0.026627813 0.076901615 0.0051786667 -0.068564534 -0.017704122 -0.031013314 0.0047979387 0.007962822 -0.063738555 -0.03885404 0.075883724 -0.02637674 0.055233564 -0.062594295 -0.07315755 0.04099538 -0.07473853 0.0127478065 0.02590534 0.007809526 0.044864707 0.018932762 0.00027134392 0.019444155 0.0479345 0.021756299 0.008523534 -0.06783489 0.039767664 -0.045283254 -0.003736258 0.01663353 0.043756813 -0.021057539 0.025985787 -0.042959448 0.00063906005 -0.02279603 -0.052374896 -0.040588405 0.039572973 6.0853632e-05 -0.018939411 -0.043812986 0.027005065 -0.038624354 0.057763197 -0.031898465 0.031237561 0.10049933 0.012131709 -0.11845902 -0.026043087 0.0132192 0.021656035 -0.01131007 -0.01610181 -0.068568476 -0.008120496 0.06200338 0.029942492 -0.01591319 0.081397735 0.011389067 0.020651063 0.026337696 0.09369496 0.04692053 -0.07160619 -0.03659825 -0.05651734 -0.07956963 -0.04660443 0.034970734 -0.093112044 0.06058951 -0.013672699 -0.03409313 -0.076770686 0.04590216 -0.009692456 -0.06532137 -0.0722312 -0.08087107 -0.075455226 -0.10456007 -0.091079466 -0.008810232 -0.011049914 0.104540005 0.08670644 0.07411424 -0.02803481 -0.008714684 0.05277599 -0.028007496 -0.04033425 -0.09389862 0.02785939 -0.013082737 0.017184336 0.021195129 -0.032460656 -0.088677 -0.018925779 0.04999916 0.009522164 -0.07154342 0.023085041 -0.089723684 -0.019625528 0.018194249 -0.07353709 -0.046873543 -0.019942027 -0.01148007 -0.008375882 0.010758967 -0.030022139 -0.04179512 0.03027155 -0.03354576 -0.021286678 0.008681807 0.013483553 0.06960973 -0.1333394 -0.010963622 0.021773553 -0.026963944 -0.053426303 0.030531911 -0.04975764 -0.032393914 -0.01150673 0.06970062 0.113277175 0.0045712725 -0.030423332 0.04578035 0.026558502 0.02141544 -0.113311365 0.00075725804 0.031574305 0.036630344 -0.029958323 0.13004778 -0.015758995 0.028293878 -0.10185088 -0.028652227 -0.016584817 0.03510946 -0.0052832435 0.033404842 -0.040830176 0.04818773 0.052170623 -0.020983394 0.075129166 0.024702542 -0.060891714 0.02486784 0.12602024 0.06141464 -0.018710157 0.026392022 -0.055974305 0.0112278005 0.03769177 0.05066632 0.041517857 -0.026633522 0.090521276 0.05628661 0.04835509 0.035528697 -0.046749167 -0.033800334 0.13195305 0.01874393 -0.0599652 0.037842732 -0.089917906 0.022851557 -0.057169408 0.043400515 -0.02775996 -0.017435586 -0.097127 0.0026003062 -0.042834163 0.022971574 -0.040768016 0.014525815 0.06277422 0.123101845 0.053274173 0.052081358 0.025145574 0.06752344 0.1025872 -0.054630574 -0.013348072 0.018814264 -0.03231075 -0.018156353 -0.064115874 -0.07063977 -0.029885102 0.016715286 0.0461185 0.019700075 -0.017019425 -0.09556394 0.006604866 0.110233545 -0.06520893 -0.020666467 -0.09464673 -0.019520072 -0.042193107 0.1080786 -0.00027727225 0.013662169 -0.11546334 -0.032054782 -0.09791623 0.0046579055 -0.01137702 0.032918293 -0.018611586 -0.020429853 -0.025483057 -0.052474745 0.0087440815 -0.011871728 0.009842056 0.029184857 0.049116965 -0.010748361 -0.031570736 0.013953827 0.037793126 -0.05317047 0.05820605 0.10644429 -0.03884848 0.070306145 0.010373326 5.26003e-06 0.057377685 0.023086399 0.020529829 0.038875584 -0.056338675 0.08486803 0.04484261 0.05770677 -0.018044058 -0.02881968 0.0061265407 -0.099669196 -0.024284417 0.039039966 0.0034344785 0.041632295 -0.051740218 -0.05367561 0.0463194 -0.018065173 0.047971662 -0.018657068 0.025803013 0.02115132 -0.008540977 -0.020253582 -0.013111 -0.038507517 -0.03859015 -0.013530264 -0.03740725 -0.044228725 -0.085238725 0.083305284 0.09970689 0.01578672 0.026038561 -0.022232676 0.068722606 0.07529604 -0.07306843 0.02854211 0.03234629 0.07164811 0.04283835 0.044360504 -0.007776744 -0.014302186 0.051853843 0.010519437 0.03840684 0.027562393 0.021850022 -0.07377311 -0.051486876 -0.056779146 0.039126553 0.07409168 -0.044859122 -0.018248904 0.047281474 0.011555356 -0.06801624 0.005450321 -0.020940367 0.016464166 0.022516862 0.11344413 -0.03140868 0.020635342 -0.022744663 -0.03529644 -0.09122526 -0.016193585 -0.031309437 -0.0051158117 -0.06862885 0.005615457 -0.038122352 -0.018084405 0.040820535 -0.06954009 0.052582707 -0.028935567 -0.046527 -0.06440492 -0.055192243 -0.025879731 0.03128834 0.07897252 -0.06050728 0.00241453 -0.03638748 -0.036954187 0.00612439 0.012771129 -0.12675577 -0.06757047 -0.059952315 -0.07996798 0.0680736 -0.020176524 -0.01911891 0.016864656 -0.04291133 0.06909176 -0.017625405 0.115374066 -0.04994392 0.03726734 0.07889115 -0.0072614844 -0.02945967 -0.013408208 -0.08647067 -0.02656973 0.008128509 -0.0030929355 -0.017215924 -0.037306502 0.04836246 0.0146949245 -0.053150814 0.019740045 -0.040695902 -0.091664605 0.13647036 0.028500438 0.008649993 0.025896654 -0.092706546 -0.0031303482 -0.04494322 -0.001373099 0.09013526 0.09441765 0.011077139 0.046022773 0.0047693467 0.05377043 -0.094654016 0.056996714 0.03931227 0.030283177 -0.09255969 -0.031317957 -0.015463198 -9.4661045e-05 0.017757462 -0.031411216 -0.006701115 0.0072826766 0.014780956 0.10144744 -0.035099864 -0.052738544 0.0057792123 0.020940552 0.058325697 0.06479452 0.07445159 0.0014383061 0.02742203 -0.052180916 0.03446601 0.03881691 0.007220716 0.009903195 0.075987525 -0.030297432 0.00977043 -0.036367983 0.06586336 -0.032960396 -0.017133014 -0.0019516683 0.018401781 -0.02048996 0.021259574 0.039842468 0.015404939 -0.042112406 -0.030821944 -0.08356028 -0.03793008 -0.074120484 -0.04359497 0.07488395 -0.0606516 -0.11336678 -0.0030669167 0.040071733 0.019858317 0.0014779847 -0.014633273 -0.11691246 -0.016676795 -0.05308504 0.0019027075 -0.031899717 0.05222414 0.07095926 0.01713761 -0.050818123 -0.008017602 0.108812146 0.059073117 -0.015309237 -0.02517562 -0.058299035 -0.08390079 0.028840592 -0.035210785 0.0033344657 0.017404767 0.04811815 0.10308178 -0.04483476 0.07211365 -0.010876684 0.042276673 -0.040578175 -0.061678387 -0.04752509 0.058874156 -0.039670873 0.038057894 0.011575874 -0.0126953665 -0.04431257 0.09793266 -0.061895102 0.065964356 -0.009701386 -0.019858195 0.033228125 -0.040722925 0.050918818 0.038142037 -0.01858569 -0.035425067 0.09430213 0.009718156 0.036868613 -0.04002074 -0.030670026 -0.010158403 0.061731644 0.03393778 0.024193853 -0.035846096 0.045911375 0.03731686 -0.063590474 -0.02667625 -0.014550896 0.06066189 -0.055903506 0.018597482 0.03895792 -0.05235029 -0.003985281 -0.027963981 -0.013156413 0.018265331 0.004364421 0.049520895 0.034567825 0.054685872 -0.021281933 0.078099184 0.09155042 -0.030037502 -0.036411315 -0.079930015 0.0054857433 -0.0390096 -0.09568503 -0.05348983 0.014748263 -0.026039768 0.07170156 0.03399571 -0.02640887 0.024177738 0.074181356 -0.0017057591 -0.08201289 0.013788152 -0.0052536917 0.026345465 0.0047015343 0.013293885 0.026557256 0.0009384697 -0.027643735 0.02946866 0.016794203 -0.050086357 -0.025233408 0.033908803 -0.022863373 0.010082857 -0.016248303 0.019600246 -0.09002917 0.015494401 0.06522299 -0.07760703 0.026479086 -0.03952091 -0.025416085 -0.012759027 -0.042225 0.06647944 -0.11468754 -0.08399163 -0.0028492704 -0.087187424 0.1202356 -0.039239254 0.008166132 0.0075009014 0.022286018 -0.06042354 -0.03139507 0.0057209395 0.121232264 -0.02381862 0.026131673 0.03668827 0.02455337 0.04713091 -0.10740477 0.018014317 -0.020763434 0.05952645 0.0008912994 -0.08101444 0.007498663 0.019355757 0.04147118 0.008816517 -0.040292755 0.05349475 -0.03198873 0.04301981 -0.012718627 0.010108742 0.014694872 -0.045714334 0.00045839042 -0.0716326 0.015605725 0.0006707781 -0.0451987 0.0026693211 -0.036128454 0.038331807 0.022964431 0.011417815 0.026202569 -0.026989257 0.039623637 -0.02399225 0.06857389 -0.07703154 0.018355437 -0.015023905 0.01833268 0.018074894 -0.06879723 -0.021930365 -0.030623153 0.019613614 -0.029245654 -0.03487081 0.03511676 -0.035839196 -0.05547343 0.052705746 0.006949418 -0.13766967 -0.005677327 -0.007350503 0.035982694 0.055916514 -0.029792432 0.07669253 -0.07632038 -0.066060595 -0.022730215 -0.030010557 0.025258606 0.057944667 0.013324842 -0.032740638 -0.106733635 -0.02784288 -0.09590452 -0.088515945 0.075337626 -0.06528995 0.013435214 -0.09710558 -0.008080064 -0.06639377 0.025489762 -0.07297539 0.022726662 0.07768957 -0.038857188 0.093421325 0.03224998 0.008572773 -0.0071951 -0.07397499 0.022772674 0.032467872 -0.016524749 0.0065060556 -0.0021716561 0.028664753 0.025554916 -0.0149599435 -0.037566274 -0.027461031 0.04562409 0.045141604 0.017993066 -0.022202095 0.004973531 0.061229803 -0.05410412 0.009776386 0.05428919 0.029355919 -0.018440371 0.019934634 0.06269489 0.06601267 0.04686577 -0.006649791 0.07417852 0.10931826 -0.098845474 -0.020408925 0.056681782 0.024600258 0.017952936 -0.035362273 0.02187076 0.03501582 -0.024749428 0.020417271 0.023524625 0.1248873 -0.004092632 -0.017709797 0.043832563 -0.06870229 -0.0063472586 0.005179244 0.007984824 0.007973888 -0.027973456 -0.06330236 0.04773093 0.028546397 0.03384267 0.05620054 0.050026476 -0.004555022 -0.008838753 0.1402238 -0.014616954 -0.05367108 0.051407993 0.01006098 -0.048523437 -0.017369822 -0.054172993 -0.11625321 0.033391513 0.058067918 -0.050278228 -0.052025434 -0.13906154 0.08661196 -0.045427218 -0.08509414 -0.048973907 -0.017374111 -0.03400842 -0.08032405 -0.02016855 -0.07245684 0.050367434 -0.007052801 -0.04377749 0.043505076 -0.054198828 0.023315577 -0.04072356 -0.0634005 0.02635151 -0.009588829 0.0017169986 -0.050645657 -0.024022492 0.00034900077 0.062400173 -0.024746587 0.10608368 -0.05462519 0.00084225537 0.082036905 0.003734424 -0.032840114 -0.002935475 -0.02412324 0.043438323 0.030825147 0.012745912 0.065299965 -0.110700004 0.10836641 0.02935426 -0.0039790706 -0.044266474 -0.030581474 -0.06436498 0.06920792 -0.058829702 -0.010384141 0.06678879 -0.11548612 0.08992165 0.036601137 -0.05990193 0.03108087 -0.09274504 0.013739399 0.058529764 0.045489784 -0.04074831 -0.026981065 0.041245755 -0.020145541 0.014739352 -0.043970264 0.00031242994 0.0046527665 0.013534284 -0.04511563 -0.07115585 -0.02645511 0.016281836 -0.0521415 -0.011688246 0.0033174523 0.011227933 -0.055274524 0.083436795 -0.010773758 -0.035391476 0.0688644 0.05860577 -0.051396705 0.006290437 0.00525788 0.08039721 -0.02567323 -0.050849266 0.017972903 0.026419023 -0.051962424 0.01137068 -0.05407039 0.035318952 -0.002186774 0.012884279 -0.019776786 -0.026905188 -0.030631796 -0.022024607 0.048336674 -0.032979514 -0.051675376 0.08058186 -0.006226001 -0.0071459436 0.08233587 0.04259297 0.00023001448 0.021163171 -0.07026886 0.019951094 0.11672147 0.0402002 -0.033161364 -0.08214157 0.017999258 -0.022467209 0.08837377 0.03151159 -0.029916842 -0.0068738325 -0.041953724 0.04423278 -0.12125865 0.043888878 -0.058262743 -0.01779407 -0.07553525 0.05626275 0.123454235 -0.012967415 0.073350176 0.08316704 0.016245194 0.032327663 -0.034869354 -0.0141054755 0.06622519 -0.0093460195 -0.1296203 -0.09426001 0.0013047173 -0.022547273 0.049567286 -0.0644043 -0.04446959 0.08458333 0.1253634 -0.062095862 -0.14216909 0.006406834 0.044834133 0.0065364796 -0.055829167 0.023920875 0.023020444 0.05422123 -0.019663256 -0.07747074 -0.039449897 -0.043622743 0.11919866 -0.0650361 -0.035167027 0.0016888902 -0.07134447 -0.006248858 -0.0758741 0.06420063 0.00971146 -0.00372403 -0.035475653 0.101144515 0.05669422 -0.056358643 0.0077020167 -0.017003102 -0.013937171 -0.040380586 -0.003072093 0.04466073 -0.020159086 0.0039442903 0.12623142 0.019985907 0.016265161 -0.027797962 -0.012516675 -0.03434764 -0.03919635 0.011291429 0.05897134 -0.02327805 -0.005156482 -0.0011319339 -0.040872823 0.030676011 0.06227983 -0.081490144 0.01574546 -0.03402915 -0.038304906 -0.10202726 0.062821 0.038886555 0.037804447 0.040734008 -0.05431944 -0.040371936 0.012138169 0.0213234 -0.025080392 -0.0067456807 -0.003588336 0.00011252831 0.0057281195 -0.00028238504 -0.0015764397 -0.09947606 -0.041221626 -0.04654078 -0.04743598 -0.039641116 -0.053676277 -0.015145244 0.015348697 0.054755766 -0.024874343 -0.011407332 -0.0043568653 0.00718001 -0.0057695853 9.8938464e-05 0.12795009 0.024713522 -0.023598216 -0.06305992 -0.050789114 0.017123623 0.0625888 -0.045533504 -0.06493024 -0.016717436 0.03798671 0.0044816155 -0.047649685 -0.057698537 0.022011375 0.024864472 -0.0058254455 -0.0075870105 -0.050326873 0.036956165 -0.0017408701 0.07828886 0.06999389 0.048463617 -0.07387529 0.06572544 0.00093747483 0.06862232 0.009737741 0.018405195 -0.0185771 0.0028607922 -0.016084425 0.032250613 0.011863784 0.06414469 0.14180967 -0.0934099 -0.0851216 0.009045913 -0.05453341 -0.11416024 -0.047956582 0.049903814 -0.053026404 -0.0411333 -0.048088573 -0.0016447743 0.11157419 -0.021274706 -0.054343965 -0.04007497 -0.012321075 -0.015494959 -0.06748428 0.05553474 0.06618949 0.018529003 -0.02620171 -0.0317789 -0.0023890403 -0.029259399 0.0064114975 0.01104719 -0.03980262 0.06311744 -0.04652673 -0.008988905 0.15990317 0.045032512 -0.013031401 0.012055645 0.027946303 0.09574978 -0.059396517 0.037120007 -0.033198863 0.06363257 -0.058259256 -0.013261909 0.008594676 0.007704758 -0.01880469 -0.05829065 0.08948333 -0.041930187 0.041418616 -0.030712266 -0.087704085 0.00011521676 -0.04774214 -0.046690315 -0.038769305 -0.029054811 0.010304061 -0.004801759 -0.014453721 0.113779925 0.079305895 -0.05379299 -0.047582787 0.027374992 0.0013429784 0.02991555 0.0004416462 -0.021050809 -0.031563923 0.0007934226 0.0863614 -0.01651936 -0.013990863 -0.035090875 -0.11575786 -0.018720342 -0.006636038 -0.12248188 -0.02871272 -0.056672376 -0.028901804 -0.08352603 0.03468135 0.039462924 0.07405416 0.025435869 -0.08168231 0.035691224 0.039585646 -0.0044169193 -0.033242952 0.03231803 0.055289187 -0.056098312 0.04270817 -0.059187587 -0.10111653 -0.017856365 -0.014456893 -0.055152662 -0.048747756 -0.041577566 0.08915383 -0.055506554 -0.057241242 0.018299773 -0.03594063 -0.0181547 0.10712377 -0.025182864 0.011412638 -0.014153655 0.014334584 0.015554965 0.14103429 0.10376086 0.07358395 0.09953662 0.048360813 0.014186076 0.08196047 0.016656091 0.020992486 0.03512072 -0.07751683 -0.06750082 0.04378914 0.031226328 -0.08285927 0.027169595 0.0710099 0.02081057 -0.059086133 0.04084383 0.06978292 -0.0014646713 -0.02536413 -0.042363025 -0.016814867 -0.07061792 -0.013588776 0.065259896 -0.012915308 -0.10583135 0.051380545 0.027409663 0.040863167 0.05838695 0.029401606 -0.0074352524 -0.033291224 -0.098053925 -0.02807801 -0.04129198 0.04069184 0.04246316 -0.040075023 -0.006092114 0.009527176 0.03897611 -0.032794088 -0.09105537 -0.019978391 -0.013842071 -0.04710641 -0.069313616 0.035678033 0.11972512 0.06821023 -0.018349813 -0.065238886 -0.020666175 -0.006526094 0.06265128 -0.061863538 -0.0040457947 0.05487144 0.069113776 -0.03314814 -0.093713365 0.014993702 -0.064539365 0.11312804 0.00822922 0.037032373 0.1135632 -0.0099162115 0.007441898 0.028826017 0.09821006 -0.009549837 -0.09796537 -0.058567327 -0.029769165 -0.0716247 0.02159228 0.030820549 -0.028007451 0.07949585 -0.063977934 -0.0127737075 -0.01735419 -0.03272871 -0.034152273 0.008205819 -0.011079385 0.058959942 0.030033544 -0.039759167 0.005709818 0.016708832 -0.011362175 -0.010897295 0.026663467 -0.067489706 0.009735498 -0.008611033 -0.05109021 -0.037969 -0.085386015 0.02144098 -0.07323047 -0.078604214 0.054989327 -0.04539466 -0.013347787 -0.0024510787 0.009387548 -0.009743727 -0.044039343 -0.00743187 -0.058423575 0.010140691 -0.0020509886 -0.00029398588 0.05851835 -0.057493217 -0.0639685 -0.024420215 -0.01082115 0.06383952 -0.019791186 -0.011956531 0.011382862 0.009712931 -0.0051010284 0.039677527 -0.0035233155 -0.032039832 -0.016937222 -0.030200168 -0.03326438 -0.05841239 0.030272085 0.040613182 0.07864253 0.05037145 -0.023858188 0.022705428 -0.0940929 0.0414509 -0.03196471 0.049391933 0.027281512 -0.039281666 0.055785324 -0.06940832 -0.08880404 -0.013103545 -0.078392856 0.013566352 -0.013426825 -0.077267274 0.025501836 -0.10282981 0.0041749584 -0.025254583 0.09409693 -0.03497803 -0.09527583 -0.03631985 -0.08512474 0.0661523 0.014352036 -0.08923852 0.030348334 0.044505805 -0.100286484 0.014669229 -0.023878561 0.016744543 0.0024371166 0.060532916 -0.0006841672 0.048547447 -0.05682198 -0.059747186 -0.04773025 -0.052853286 0.09390449 0.0992656 -0.024929466 0.081963435 -0.02726887 0.018343005 0.061398502 0.02495428 0.04448194 -0.002012111 -0.015973696 0.10859629 -0.04014655 0.058549322 -0.045327723 -0.023087736 -0.03986903 0.063173264 -0.0069129216 -0.033015274 -0.019031493 -0.06538891 0.025701368 0.011163166 0.013284424 0.008104589 0.0038443708 0.013696685 -0.021389198 -0.04666173 -0.053753447 0.018495606 0.07173737 -0.00073512195 0.04436974 -0.03896833 -0.10038223 0.0020894222 -0.011945533 -0.0033060366 0.10004151 -0.0013938756 -0.020723714 0.029301539 0.08704392 0.05253125 -0.04994906 0.031138793 -0.036389273 -0.067682214 0.0068940893 -0.06194511 -0.029532913 0.014776878 -0.051933497 0.0783427 0.035780713 -0.10760187 -0.07185775 -0.011532638 -0.016364904 0.0072711604 0.03278659 -0.0077765244 -0.054580577 0.03956124 -0.01853967 0.051417883 -0.010264329 -0.106273405 -0.044350002 -0.0059353546 -0.07379019 0.010679053 -0.08482569 -0.11206826 0.08015376 -0.017275343 0.03218346 -0.0003765181 0.044070583 0.05692047 0.01907201 0.046198796 -0.04434293 0.00091832795 -0.009317795 -0.046702933 -0.038131926 -0.0528613 0.016437529 0.044791263 -0.07707871 0.006103725 -0.043037582 0.018106421 -0.02983059 -0.008120823 -0.10430117 -0.082216434 -0.0061835996 0.0051184357 -0.046856564 0.03015076 0.01430587 0.020796353 0.055683095 0.07720871 0.03281849 -0.06657269 0.040668864 -0.06139862 0.06077623 -0.07376141 -0.0072269225 -0.07503912 -0.01762431 -0.008484419 -0.022942455 -0.047459982 -0.02290967 0.068626694 0.0051059327 0.024439586 -0.028523987 0.07490822 -0.055574942 0.012191873 -0.00024133314 0.04903924 -0.018360287 0.05742253 0.052960195 0.009563173 0.058525443 -0.055452358 -0.06095552 -0.011229367 -0.0019324549 0.0217717 -0.006551571 -0.029211534 0.061786514 0.07134288 0.018295227 0.030260433 -0.006734381 0.09500913 0.0018718999 0.030458448 0.006317567 0.018135754 -0.0012570267 -0.0025210534 0.07977814 -0.0028158554 -0.048187897 -0.052035738 0.007964842 -0.08565565 -0.04539875 0.08611091 0.008862714 -0.03826465 -0.041647848 -0.0402286 -0.058096785 -0.015430892 0.02145413 0.029951662 0.07370603 -0.08239216 -0.09390977 -0.031814527 0.089532316 0.03825892 -0.07891607 -0.004647022 0.020939197 0.049926944 -0.057023305 -0.058130134 -0.0595173 0.006701529 0.04056076 0.056429178 0.063363515 -0.052811045 0.040820748 0.110083304 -0.020595388 -0.0986054 0.0251171 -0.040516507 0.058846354 -0.047961157 0.061194975 0.011744593 -0.07207932 -0.11230389 0.028913021 0.06986875 0.062114377 -0.0748147 -0.18769635 0.021152614 0.021076038 0.012964743 -0.080850564 -0.020804131 -0.009022137 0.041663434 0.0074511715 0.0425114 0.022609586 -0.118415534 0.11741097 -0.030298686 -0.061369795 -0.068284646 0.083129734 0.04350936 -0.037189286 0.07853724 -0.028862078 0.028329063 0.113199905 0.043071542 0.102897935 0.059486296 -0.017666891 0.028765136 0.003626392 0.07032674 -0.05047458 -0.032485113 0.09087673 -0.015454923 -0.054727852 -0.0015997004 0.012626871 0.041925438 -0.051194903 0.01641485 -0.044555254 -0.0047946796 -0.016735043 -0.06424677 0.026226953 0.07300125 -0.020027906 -0.045842282 0.032141995 0.027743718 0.010160962 -0.0021319555 0.034872197 -0.012302184 -0.018064769 -0.033725 -0.06711255 -0.00055689795 -0.017103737 0.075426154 -0.015580486 0.052998275 0.0014029214 0.0050853104 -0.036503702 -0.038569834 -0.036370855 -0.0088209985 -0.005298139 -0.0032969825 0.060056705 0.01733645 -0.046701785 -0.015301496 -0.010665762 0.04303901 0.028699169 -0.008442502 0.013888361 0.060617566 0.042975705 0.055901952 -0.06915411 0.008903255 0.043385085 0.0009875684 -0.014180851 -0.023991143 0.16064541 0.028294718 0.11048966 0.12144891 -0.007339208 -0.05808832 -0.041299894 -0.04089951 0.061669946 0.13070041 -0.0165097 0.13293116 -0.15619504 -0.09172468 0.09114843 0.049837053 0.040088672 0.016120542 -0.044614714 -0.038841017 0.0068663843 -0.0013941457 -0.033782925 -0.022631653 -0.014325189 -0.0026616764 -0.0018363337 0.005857436 -0.06294085 0.08504994 -0.0064967885 0.013278608 0.044999935 0.0013191556 0.0090877 -0.05854219 -0.021298818 -0.04319787 -0.034048866 0.015345204 -0.07336382 -0.0123522645 0.06812635 0.19723319 0.046169724 -0.058647927 -0.032779694 0.05037827 -0.059067972 0.038046416 0.0707163 0.011788496 -0.06132825 0.085656844 0.006981565 0.079232246 0.024766063 -0.010209561 -0.0061799767 0.027678147 0.0063472427 -0.08332192 -0.022528218 -0.042652052 -0.08018281 0.06271645 -0.027602782 0.05518774 -0.08666994 -0.04824612 -0.0036124785 0.0030576377 -0.03264683 0.020579942 0.022808608 -0.08183013 -0.058229715 0.017235028 0.040336616 -0.0758665 0.011594575 -0.027838904 -0.0044238665 0.049038306 -0.004320889 -0.06986778 -0.03471409 -0.06317513 0.030992944 0.0131811695 -0.015482418 -0.0995731 0.016055739 -0.002360557 -0.031060854 -0.043214425 0.049171057 0.057098806 -0.065776095 -0.07321042 0.0011866769 -0.0086387675 0.024348125 0.042935643 -0.0063706734 -0.030641219 0.023445262 -0.076277494 0.034239754 0.046434756 0.031428162 0.033527948 -0.07115994 0.04847652 0.013445444 0.0108285025 -0.0066733 0.040730283 -0.007680961 -0.014820121 0.04631261 0.018742535 -0.012166622 -0.07598678 -0.021234896 0.0015753296 -0.010007461 0.058480162 0.079851806 -0.028331647 0.027812788 -0.015344927 0.000109135544 -0.02226982 0.13336527 -0.03921294 0.06551392 -0.050860908 -0.09743894 -0.110602394 0.030068893 -0.007107424 -0.044545364 0.054314077 0.08798186 -0.07667058 0.0708955 0.0021205652 0.0019259151 0.023517318 0.019864894 -0.04968618 0.0033978657 -0.046338968 -0.043953355 -0.028775284 -0.061814424 0.0178219 0.034856256 -0.0021953364 0.03314193 -0.059581142 -0.08255725 7.23214e-05 0.0043101083 -0.034947637 0.004646105 -0.116832666 -0.075964816 0.041013543 0.044076566 0.06318833 -0.021005504 -0.025454715 0.06652226 -0.054847516 -0.006130416 0.09393125 -0.015533966 -0.04006841 -0.018297456 0.08797083 -0.005940548 -0.006002806 -0.091882914 0.00054360967 0.02985997 0.037633806 0.05292659 -0.05112633 -0.03622725 -0.016554229 0.030141776 -0.057754528 -0.048445176 -0.034267854 0.07879447 0.09929034 -0.043481044 -0.04378357 -0.10440087 -0.03214879 -0.009350132 0.07068352 -0.004246885 -0.061790753 0.01427487 -0.011594724 -0.060189046 0.08590088 0.13795944 0.0022499205 0.000479556 -0.08070635 0.00913244 0.035813402 -0.044622544 0.093283966 -0.045000926 0.00026607016 -0.031036913 0.03081485 -0.06888979 -0.03845786 0.12826943 -0.02528266 0.01581646 0.026038159 0.043309662 -0.07313937 -0.047672346 0.056799937 0.019256752 0.018860353 0.011919035 0.021205401 0.02805152 0.035917975 0.0027247604 0.016365739 -0.07165133 0.007854017 0.015856622 -0.032131832 0.037212398 -0.00913567 -0.089143075 0.027467852 0.002595208 -0.06308853 0.008838672 0.02628231 0.047029663 0.0073795617 0.17364633 -0.027481614 -0.029642034 -0.015803361 -0.08516678 0.007542214 0.040959254 0.012719783 -0.05366398 0.030747874 -0.018878223 0.03747572 0.009480007 -0.010078891 -0.08300985 0.0018824972 0.009149293 0.034838095 0.13000326 -0.09431565 0.0318479 -0.0017660322 0.022935348 -0.02459878 0.02870676 0.096731395 0.034717247 -0.07413504 0.04856356 -0.1361115 0.104633056 -0.021284426 -0.015339829 0.003781403 0.022451403 0.0035255842 0.032280024 -0.057326593 -0.10108258 0.08589587 0.07318478 -0.016580574 0.041044388 0.009409481 0.007899857 0.041527525 0.031653002 -0.049831662 0.031160964 0.11818905 -0.059526663 0.051212758 0.027901087 0.008616059 -0.017842768 -0.06315669 0.012768782 0.024914645 0.005056887 -0.012074316 -0.06321146 0.016473675 0.0672637 0.0115465475 -0.03509668 0.040944345 0.021164687 -0.039824046 -0.038175177 0.055871107 0.112051845 0.010523585 -0.0077261995 0.022084443 0.05577326 0.013929094 -0.030057533 0.05256265 -0.017958755 0.0147130815 -0.056534495 0.028040025 0.013252027 0.020608718 -0.10855728 0.026057053 0.07574614 0.087866485 0.009516221 -0.07474583 -0.014892775 -0.029798582 -0.006604567 0.1156857 0.04585329 -0.08552178 0.032578833 -0.029112402 0.0088884495 0.086813316 0.06838491 0.033257395 0.058734186 0.04331059 -0.097624205 -0.021487772 -0.00958263 -0.018148055 0.014204742 -0.004670133 0.04271347 -0.022180304 0.009801972 0.028380906 0.006273452 -0.033817995 -0.029091213 -0.05431205 0.06780059 -0.07194901 0.0018189162 -0.02356698 0.056522813 -0.02912112 0.053339597 0.031536825 -0.010856062 0.026424998 -0.0060051805 0.009357742 -0.098528236 -0.06830008 0.050397385 0.040705632 0.09469414 0.10807341 -0.020773424 0.018961819 0.006550149 -0.088913456 -0.016073328 -0.07773913 -0.008058059 0.0056899413 -0.028777018 0.13589582 -0.016581161 -0.014219046 -0.08182773 0.013118793 -0.054102268 0.015912054 -0.016556928 0.017310424 -0.110080205 0.031475317 0.052331805 0.027987927 -0.099968344 0.01911096 -0.012237684 -0.0012784194 -0.013405961 -0.054547902 -0.12619373 0.02482613 0.0117939 -0.11268269 -0.010784051 0.03462187 -0.011521742 0.02769261 -0.028169362 0.065757655 -0.11054524 -0.043927178 0.005647064 0.05635049 0.07761649 0.0064612436 0.039054777 -0.004314249 -0.008234852 -0.05215889 -0.008253231 0.07048225 0.064604625 0.02514678 -0.06500141 0.053754587 0.06730475 -0.038879167 -0.04788747 0.050906397 0.05388245 0.035789933 -0.036172803 -0.01522054 -0.13047066 0.047617614 -0.009311103 -0.06321872 -0.054847926 -0.008394569 -0.041403513 -0.0015060278 0.039916124 -0.06557163 -0.020859618 -0.07603651 -0.017087495 0.003043047 0.04612529 -0.013880848 0.08720023 0.058508724 -0.020771721 -0.061716493 -0.053264696 0.09910928 -0.04378858 0.065933466 -0.09081151 -0.12453878 -0.02630657 -0.03470946 0.024348518 0.016745131 0.035986036 7.016467e-05 0.100188255 -0.02242962 -0.017000241 0.090434596 -0.023157766 -0.021391196 -0.052517634 -0.08698556 0.03986312 0.084180824 0.04505413 0.08250325 -0.012230059 -0.011408762 -0.013374254 0.008304256 -0.022550186 0.037787948 0.026653606 -0.054902148 0.01333492 -0.008694318 -0.024564164 -0.036619615 0.10067631 -0.031849165 -0.0365194 0.049290597 -0.0077775265 0.08258144 -0.08228137 -0.020405706 0.0650954 0.0052841064 -0.04580055 -0.07862276 0.0024946143 -0.06331718 -0.0027379731 0.07986274 -0.021551482 -0.03456488 0.026685819 -0.06886799 -0.062294494 0.06648157 -0.057258524 -0.00872648 -0.01992142 0.014107828 -0.014742777 -0.01770748 -0.02855421 -0.077107996 -0.023224358 0.10098674 -0.10156417 0.0045108777 -0.042858258 0.055104215 -0.0054833475 -0.026032781 -0.057593744 -0.011722749 -0.011964886 -0.0226946 0.033972196 -0.00030337306 -0.02220315 -0.06273698 -0.0740157 0.022043986 -0.011238265 0.112851135 -0.037391637 -0.05617528 -0.040707238 0.009521933 -0.06731286 0.011652968 0.058158487 -0.022753162 0.009848959 0.020943303 0.007995722 0.059914406 -0.08672983 0.04102301 -0.042383283 0.12397482 0.074268535 0.019506626 0.037222214 -0.04769212 -0.02241553 -0.023682484 -0.16969603 0.020333065 -0.024495922 -0.051411282 0.010696582 0.044394087 -0.064714335 -0.019142635 0.03135572 0.03150092 -0.033361685 -0.04003213 0.055982646 -0.025728717 0.021220304 -0.013153243 -0.07055054 -0.06946216 0.013384478 -0.03928683 0.004460432 0.0029248204 0.025865613 -0.0040473687 -0.02640294 -0.025184844 -0.08028473 -0.05849048 -0.021039983 0.017156584 0.065485686 -0.041209042 0.029203687 0.0043629273 0.0039946125 -0.0129899 0.01009478 0.028476765 0.0286085 -0.047158826 -0.007338237 -0.030624572 0.009447096 0.047804367 0.041010853 -0.014145888 -0.0028637887 0.11661639 0.047239453 -0.08482975 0.06804773 0.0049948385 0.0032910828 0.024008235 0.05353942 0.01223405 -0.06728104 0.038997464 0.07216253 0.03131461 -0.007988487 0.014084603 0.05795091 -0.01461184 0.064341895 0.027728682 -0.057540406 0.08607345 0.08975898 0.010133251 0.004825144 -0.034098405 -0.036630508 -0.03523546 -0.015850421 -0.06503419 0.12759301 0.038109764 -0.0924264 0.00084530236 0.035178058 0.11958616 0.010689975 -0.07213896 0.004346309 -0.091658264 0.06949907 -0.015776342 -0.043972258 0.11749905 -0.090518616 0.0046037557 -0.034028012 0.06530931 -0.026879204 -0.049705014 -0.08612091 0.056108057 -0.018680906 0.05405538 0.02912861 0.026206031 -0.058068108 -0.018786352 -0.061226822 0.0062400405 0.018501943 0.033196207 0.107860506 -0.042417314 0.040425595 -0.0041540726 -0.011558895 -0.04949762 -0.030404834 0.046574444 0.058279663 0.00049116625 0.04495573 -0.106968544 -0.030955931 -0.032457642 -0.036186773 0.011434248 -0.03304362 0.010667467 0.003943361 -0.007901183 -0.043348797 -0.04580103 -0.04479298 0.046722658 0.077879004 -0.021176508 -0.021325307 0.06559508 -0.0013984977 0.06790354 0.057768334 -0.02347625 0.07839398 0.057367455 -0.016536845 -0.052532464 0.038804702 0.041148942 -0.008533825 0.080535345 0.014109771 0.017698942 0.025087351 0.028213043 0.045158964 0.020728787 0.007763598 0.055874903 -0.009596431 0.00130017 0.03788312 -0.0676677 -0.026606107 -0.014529466 -0.022869006 0.017646104 -0.06643533 -0.0015926937 -0.009462002 0.054262787 -0.04484164 -0.049579453 0.051731832 -0.035808805 0.020078136 0.015427877 -0.061385125 0.016410725 -0.031574152 -0.060019463 -0.024631817 0.06851548 -0.028063161 -0.09179351 -0.03989735 -0.004945691 0.045712844 0.019240655 0.06272169 0.085374616 -0.022933554 -0.05881187 -0.03550549 -0.098549165 -0.0263765 -0.02286225 -0.0143169565 -0.01380905 -0.07184422 0.029933149 0.102358416 -0.02120346 0.016861636 -0.037648305 -0.010305029 -0.09701916 0.07116578 -0.047454357 0.002353588 -0.00564825 -0.06132421 0.013524825 -0.010341967 0.048606668 -0.07261259 0.0150623545 0.075725645 0.055124857 0.051484432 0.003386872 -0.0357565 -0.025491534 0.07722052 -0.025661483 0.0020658055 0.03912874 0.0073165605 0.10508442 0.037428714 -0.07088767 0.049874768 -0.042232428 0.051558405 0.011946574 0.033678826 -0.058158834 0.07002296 -0.06620036 -0.028566211 0.024066214 0.03808601 0.0052144 0.037958033 0.029370917 -0.03814244 0.016981835 -0.00044978215 -0.008268069 0.031310376 -0.056159973 -0.017645758 0.0032527854 0.06811483 -0.056529857 -0.092270695 0.052993204 0.010212649 -0.07068621 -0.026856272 0.08294856 -0.08457887 -0.06461379 0.0057378015 -0.040903464 -0.051689178 0.06833788 0.027697196 0.03600524 -0.039062638 0.028258046 -0.021711983 -0.03132535 0.038938742 -0.042637628 -0.0014752712 0.014098214 0.111363485 -0.02748831 0.0010014194 -0.021133332 0.070632555 -0.04022558 -0.079144545 0.0016090818 0.010139297 -0.03259838 -0.020480609 -0.043691345 -0.038109 0.024523625 0.042864155 0.013883285 0.050706785 0.0051793833 0.022962403 0.038982358 -0.03143323 0.080012016 -0.050274897 -0.06572212 0.033380482 0.02480979 -0.043659654 0.03472116 -0.069311894 0.058052357 -0.023404257 -0.06423824 -0.010650442 -0.14157411 0.02248931 -0.052138336 -0.07466405 0.025859937 -0.06110483 0.002510605 -0.06173938 0.051936496 -0.0097679375 0.01586148 -0.011341779 -0.047480583 -0.053456336 0.057100482 -0.032357417 0.017936897 -0.00912113 -0.029198682 -0.013920848 0.05069649 0.04964455 -0.10638442 0.002566476 -0.022470318 -0.10554508 -0.041274626 -0.027571663 0.015058984 -0.006667213 -0.048788987 0.032515716 0.060265195 0.035632897 -0.04351428 -0.033195738 0.01988445 -0.08475903 0.04911685 -0.038956508 0.10134866 0.003285315 -0.025492003 0.024193065 0.12525348 -0.04510903 -0.013031319 0.0068308413 -0.1012012 0.03497554 0.006354173 0.051416516 0.033205178 -0.114470385 0.07271549 -0.09980306 -0.035181224 0.009622317 -0.04259881 -0.052601684 0.050103743 -0.0375369 0.059696466 0.090992056 -0.026915763 -0.08498942 -0.0033791473 0.0048761577 0.037362684 0.041172706 -0.026457211 -0.0017786206 -0.040634476 0.00437843 -0.07966101 -0.029102895 0.05286332 -0.03497013 0.0076246494 0.0013728807 -0.03507298 0.046327632 0.037488323 -0.02400581 0.0049963198 -0.0016155764 -0.003522586 0.028679416 -0.018472293 0.005767211 0.03640899 -0.08954392 -0.011668445 -0.05798769 -0.05317927 -0.03607815 0.010964701 0.053996604 0.022472413 -0.032441963 0.013433184 0.104449786 0.050134867 0.05486585 -0.039159395 0.058687 0.114206634 -5.7907433e-05 0.04242037 0.02772486 -0.046576716 0.06481276 -0.029042756 0.021704817 0.021602323 -0.033635292 -0.027000485 -0.08350488 -0.053017892 -0.0016288797 -0.047913205 0.10303233 -0.013197784 0.014577036 0.005347505 0.051329322 0.04609646 0.081176996 -0.022435684 -0.03510411 0.00853636 -0.06711782 -0.0010346601 -0.04752595 -0.078935586 0.056477692 0.0324237 0.0016841044 -0.011687751 -0.03200073 -0.0009719208 -0.06274428 -0.0786378 -0.03257918 0.04414152 0.046550114 0.004142638 0.05543198 -0.03407919 0.071797945 0.010315363 0.0089289835 -0.052108645 -0.09640276 0.053768493 0.094065405 -0.035394046 -0.0696242 0.05333662 0.08058384 0.004984165 0.021510635 0.030428682 0.029889634 -0.015532039 -0.043587334 0.025812859 0.012366162 0.06221197 -0.023875296 -0.018139567 0.07105293 -0.027259534 0.11778265 0.07960761 -0.06609444 -0.006704376 0.029518059 -0.11378353 0.045344405 0.047763556 -0.0007353196 0.0427352 0.009354241 -0.10427969 -0.0423147 -0.022839079 0.011162959 0.012581564 -0.045332346 0.07630265 -0.0041179447 -0.058542717 0.041800402 0.08881921 0.047209006 0.041375674 0.067639135 -0.0182489 -0.024157032 0.03328341 0.043514192 -0.12312888 0.04713523 -0.090413295 -0.009976619 -0.067524604 -0.026383732 0.0779775 -0.07807148 -0.024454528 -0.088783726 -0.001415046 0.028753031 0.043286715 -0.14004104 -0.04592139 -0.017054658 0.06341043 -0.022813207 -0.02527 -0.0070511806 0.03383768 -0.0070890337 0.034667235 -0.002931275 -0.00545746 0.032787006 0.105153084 -0.08080481 0.045886353 0.071703635 -0.060092516 0.041189365 -0.08784605 0.029973939 -0.023995982 0.031269584 -0.09545741 0.028785525 0.07090514 0.019244103 0.030015925 0.0057332027 0.09169671 -0.016438354 0.056627836 0.07401422 0.108527325 0.018492745 0.041174624 -0.050351907 -0.044151023 -0.018335015 0.0693076 0.05662008 -0.083965145 -0.088847585 0.02852313 -0.041818243 0.0036594432 -0.0074806283 -0.0067259157 -0.08035752 0.010802172 -0.010479639 -0.024457645 -0.0054546776 -0.007800631 0.01704391 -0.026932089 -0.021724336 -0.05513161 0.06742009 -0.0056262645 -0.07824969 -0.05149684 -0.0738072 -0.030729 -0.019793672 0.031983346 -0.08115866 -0.06656034 0.03184978 -0.03726371 -0.030454895 -0.037918195 0.00049710646 -0.013544585 0.034262024 -0.022180224 0.0102393245 -0.022393195 -0.04965097 0.0010270368 -0.010525617 -0.033973154 -0.06797157 0.020996446 -0.0013310577 -0.0009958599 0.03268525 -0.066768244 -0.030024657 0.0030752488 -0.07762366 -0.018122217 -0.018496204 -0.01880972 -0.03676378 0.050420593 -0.022684796 0.025925783 -0.024421835 -0.040581528 -0.0452561 0.1120431 -0.066494465 -0.014600803 0.019440627 0.0595944 -0.019276999 -0.026684606 0.0498976 0.043007005 -0.061283804 -0.0019298671 -0.018583704 -0.010137563 -0.030317083 -0.06633525 -0.04760014 -0.03639188 0.011382567 0.02656114 0.052089293 -0.022347635 0.10562412 0.09947255 0.027014846 0.030787442 0.07079579 -0.015097871 0.0033221592 0.068554915 -0.046222623 0.015345235 -0.0154973585 0.16491796 0.06650547 -0.009644364 0.108466975 -0.035421267 0.056015622 -0.0021494487 -0.028357834 0.00047801723 0.0024258425 0.035398643 -0.13239048 0.0027679047 -0.0526789 -0.058300655 0.037470724 0.049527433 -0.10864512 0.0017396543 0.0006860309 0.009143603 -0.004625358 0.040437218 0.035512157 -0.055389952 0.02696501 -0.0036157889 -0.07523859 -0.0619827 0.042954523 0.051303115 0.0066859126 -0.05787763 -0.023285339 -0.05329969 -0.045428455 0.03881387 -0.04023395 0.01519634 -0.05666809 0.033756875 -0.08236094 -0.095906846 -0.086457215 -0.035722394 0.034067407 -0.022736875 -0.00926729 -0.1143437 -4.2145173e-05 -0.013515929 -0.036015123 0.007695429 -0.005747743 -0.030382974 0.019687485 0.069945455 0.0039213095 0.0020531414 -0.011967937 -0.01660389 -0.006478029 -0.019773414 0.089879826 -0.017030945 -0.0002903532 0.014382993 -0.015788719 0.024189401 0.059887934 0.007201505 -0.00062820513 0.02155218 0.041091137 0.02832762 -0.017520787 0.034159746 -0.023908963 0.12528414 -0.05506876 0.04493983 0.06518874 0.03205189 0.008513871 0.035441454 -0.029120004 -0.025495732 0.11205532 0.028954482 0.023683747 -0.024862422 -0.08603584 0.005361267 0.09454815 0.043280583 -0.03155697 0.056090094 -0.041869804 -0.0047052517 -0.019626163 -0.076795824 0.0027797248 0.0746936 -0.019716468 -0.0062145237 -0.009200122 -0.06662976 -0.036448862 0.08103443 -0.013448099 0.009734965 0.0091168 -0.014677179 -0.035073813 -0.0581002 -0.06804471 0.060617536 -0.008068427 0.08573933 0.0021880043 -0.034317076 0.06252948 0.026960943 0.042438574 -0.025249425 -0.061717894 -0.060819905 -0.042847168 -0.045919802 -0.03717591 -0.03185175 -0.0052463934 0.044892948 -0.1202813 -0.026389776 -0.04421399 0.0036295224 0.020411355 0.08052771 -0.0039344844 -0.016045587 -0.031166077 0.13112234 0.072095916 0.039875474 -0.0032185323 0.020704139 0.034480892 0.0010626264 -0.07266613 0.10461295 -0.044894297 -0.017521176 -0.06181963 0.038371917 0.028062416 -0.015622196 -0.014603949 0.026952112 0.009457343 0.0490672 -0.016141975 0.022028958 -0.007212475 0.026331415 0.047082413 -0.040253825 -0.09202232 0.018372647 0.031248424 -0.08390056 -0.0562208 -0.024381047 0.03429228 0.075083934 -0.07086908 -0.049828272 0.04279088 0.059355225 0.00023762877 0.0029053173 -0.027449643 -0.04881213 -0.008326999 -0.09527945 -0.05272865 0.049335964 0.032865644 -0.08733793 8.7665845e-05 -0.051888563 0.0812271 -0.012997828 -0.012680234 -0.10201315 -0.002691006 0.040530223 0.063673355 -0.04098555 0.021863002 -0.027203476 -0.006550903 0.06460253 -0.018893598 -0.07336601 0.004484599 -0.07708981 -0.031571142 0.050166577 -0.045798894 0.047995154 0.05031194 0.055511873 0.0014915972 -0.048740443 -0.011638666 0.01806748 -0.05237631 -0.03385562 0.12096516 -0.034846794 0.037476502 -0.026551677 0.049779557 -0.071780704 -0.022090917 0.03735496 0.0023845872 0.0027768908 -0.016640894 0.008963698 0.017752482 -0.027309665 0.00062334107 0.0012398678 0.011169495 0.0211049 -0.02028593 -0.032513157 0.04261933 0.015813118 0.040442776 -0.03629527 -0.07296651 0.058920126 -0.054194506 -0.053169854 -0.019057402 0.010939109 -0.11934849 -0.0745109 -0.026925523 0.0112446435 -0.016242981 0.088899724 -0.07589767 0.08362187 0.028630173 0.060100198 -0.03590059 -0.028146107 0.07501211 0.089865856 0.09196716 -0.009506455 0.03232979 -0.013869757 -0.029362842 -0.016900739 0.03275975 0.023135858 -0.058755785 -0.026639452 0.074546784 0.010905671 0.077389464 -0.065677464 -0.05173109 0.02646172 0.06916304 -0.07855772 0.073338956 0.07125785 9.985943e-05 -0.069645904 -0.021017877 -0.015961522 0.05363152 0.07453295 -0.041918363 0.061330486 -0.040428575 -0.03939808 0.019014938 -0.09597744 -0.014882537 -0.0291679 -0.019123306 -0.02147496 -0.010915331 0.022582985 0.017174933 0.018718792 -0.043998137 0.03261985 0.023329688 0.068442956 0.03211334 0.06543382 0.029816275 0.067072876 -0.12339359 -0.012072333 -0.017325688 -0.0031029882 -0.008175024 0.04103693 0.008724171 -0.052999128 0.045812313 -0.07337674 0.010530393 -0.026654333 0.025146475 0.0043873223 0.07451138 -0.036175407 0.0040196297 0.07278677 -0.041180417 0.021538194 -0.078433394 -0.034503244 -0.043177154 -0.00641175 0.09130949 -0.016895834 0.020673975 -0.04691242 0.0063261813 0.020950189 