0.008020199835300446 -0.910582959651947 -0.22612492740154266 0.2306687980890274 0.09258028864860535 0.17163662612438202 0.10669322311878204 0.38192299008369446 0.09265507012605667 0.1707414984703064 0.30767330527305603 0.48857787251472473 -0.306196928024292 -0.09418328106403351 0.11051081120967865 -0.45491719245910645 -1.0767415761947632 -0.2560083866119385 0.14168696105480194 0.1312723308801651 0.12593522667884827 0.09293051809072495 0.23382845520973206 -0.08828286081552505 0.13871228694915771 0.1337103694677353 -0.20693624019622803 -0.39523735642433167 -1.5301157236099243 -0.39248377084732056 -1.2222630977630615 0.10086028277873993 0.5075438022613525 -0.17986328899860382 -0.14928169548511505 0.14151661098003387 -0.12537246942520142 -0.1080629900097847 -0.1166410744190216 -0.031044675037264824 -0.3076733648777008 -1.052648901939392 -0.5961102247238159 0.6113630533218384 -0.35739150643348694 0.2860872447490692 0.03762366622686386 0.4579915702342987 0.4277857840061188 0.1491815447807312 0.16397902369499207 0.22514361143112183 -0.5734139680862427 -0.41213640570640564 0.010340841487050056 0.09002287685871124 -0.310868501663208 0.24384035170078278 0.12153297662734985 -0.43096670508384705 -0.6075786352157593 -0.049264587461948395 -0.9786465167999268 -0.21131554245948792 0.2409980148077011 0.18409579992294312 0.7842842936515808 -1.2043178081512451 -0.6668045520782471 0.3464753329753876 -0.6545423269271851 0.07412761449813843 -0.42541739344596863 0.21991576254367828 0.1948404759168625 0.24052202701568604 -0.05496467277407646 0.15563178062438965 0.005041048862040043 -0.07421747595071793 -0.500737726688385 -0.12200528383255005 -0.18932807445526123 -0.08601682633161545 0.1788770854473114 -0.3594292998313904 -0.28438955545425415 0.10149824619293213 -0.5263397097587585 -0.03739031031727791 -0.030326150357723236 -0.5347952246665955 -0.46957582235336304 -0.41280490159988403 -0.18721553683280945 -0.31202924251556396 -0.3210057020187378 -0.06371688842773438 -0.2945239841938019 -0.23022925853729248 -0.20312559604644775 -0.6576128005981445 -0.06785811483860016 -0.4029642343521118 -0.34467267990112305 -0.6876118183135986 -0.5319310426712036 -0.8902300000190735 -0.27006369829177856 -0.7200934290885925 -0.062382396310567856 -0.18483778834342957 0.09763729572296143 -1.1492611169815063 0.13502967357635498 -0.806499183177948 -0.10393156111240387 -0.4542948603630066 -0.11161400377750397 0.6483559012413025 0.246053546667099 -0.857535183429718 0.05484236031770706 -0.4277021586894989 -0.6470702886581421 -0.8050530552864075 0.1174084022641182 -0.03439684212207794 -0.36190149188041687 -0.3049830496311188 0.9750351309776306 0.14911922812461853 -0.7769467234611511 0.3078390955924988 -0.5403078198432922 -0.6342206001281738 0.6636375188827515 -0.053467757999897 -0.3484324514865875 0.39224162697792053 -0.5358265042304993 -0.03373027592897415 0.4787377715110779 -0.058695971965789795 -0.5529966950416565 -1.5327775478363037 -0.25061890482902527 0.16418728232383728 -0.27733689546585083 0.667724609375 0.2336353212594986 -0.01337303128093481 -0.45952945947647095 -0.08941808342933655 -0.817096471786499 0.4944862425327301 -0.17745216190814972 -0.23801074922084808 -0.09681510925292969 0.04862331226468086 0.03207571059465408 0.6911025643348694 0.14985640347003937 0.29280930757522583 0.2746526300907135 -0.22700941562652588 0.06891993433237076 0.4666718542575836 0.18950378894805908 0.9815288186073303 0.6376214027404785 0.09208238124847412 -0.28659239411354065 -0.37215742468833923 -0.31366366147994995 0.09065822511911392 0.17631542682647705 -0.1350097358226776 0.49258068203926086 -0.1751948744058609 -1.4416954517364502 -0.44320106506347656 -0.21445533633232117 0.09504583477973938 -0.3994184136390686 0.04347017779946327 -0.49989500641822815 -1.5377098321914673 -0.6116130948066711 0.8531022071838379 0.21608823537826538 -2.062589645385742 0.6975459456443787 -0.28347301483154297 -1.8643789291381836 -0.2596108019351959 0.3819418251514435 -0.15726377069950104 -0.7470167875289917 -0.5301473736763 1.055406093597412 0.4954744875431061 -0.2544061839580536 0.3999716341495514 -0.17956407368183136 -0.1556302011013031 0.34075477719306946 -0.09087637811899185 -1.146901249885559 -0.06668320298194885 0.4259372651576996 -0.23445631563663483 0.22177986800670624 -0.5636207461357117 -0.43957507610321045 0.35504963994026184 0.5134605169296265 -0.8303455114364624 -0.7927911281585693 -1.0905609130859375 -0.10075074434280396 0.39684608578681946 0.3256136178970337 0.21749630570411682 0.32170599699020386 0.4894557297229767 -1.5424426794052124 -1.8042441606521606 -0.8544072508811951 -0.5973352789878845 -0.39925649762153625 -0.5280333757400513 0.6519572734832764 -0.067267045378685 0.7584549784660339 -0.0827595442533493 0.16762994229793549 0.25667211413383484 -0.2799344062805176 -0.07075919210910797 -0.6470679044723511 0.23453061282634735 0.07372891902923584 0.6528671383857727 -0.32775554060935974 -0.10671979933977127 -0.28178584575653076 0.9233914613723755 -0.43997663259506226 0.8989560604095459 -0.22294561564922333 -0.13987936079502106 -0.1720137894153595 -0.09564691036939621 -1.3719528913497925 -1.381043553352356 -0.8840491771697998 0.4145466983318329 -0.9014644026756287 -0.7981888055801392 0.06226129084825516 -1.2212759256362915 0.5842646956443787 -0.3406585156917572 -0.1851973980665207 -0.7012096643447876 0.6568019986152649 -0.408672958612442 0.364213764667511 -0.6959303021430969 -0.8753570318222046 0.5469675660133362 0.3416191339492798 -1.351546049118042 0.9391183257102966 -1.0225937366485596 -2.2281503677368164 0.5670619010925293 -0.5578415393829346 -1.8930511474609375 -0.7421257495880127 -0.6468117237091064 0.1339985579252243 -1.3464884757995605 -0.020157957449555397 0.011904454790055752 -0.9188846945762634 -0.2153962254524231 -0.9046328067779541 -0.1213415339589119 -0.13625648617744446 0.5839837789535522 -0.34416115283966064 0.37583982944488525 0.4916674494743347 -0.1721986085176468 -0.5156905651092529 0.057218845933675766 0.6390693783760071 -0.6161513328552246 -0.062472641468048096 0.31486305594444275 -0.20833206176757812 -3.840012788772583 0.42279115319252014 -0.2636357247829437 -1.6429561376571655 -1.3187174797058105 -0.1774500459432602 0.23321211338043213 -0.2174917459487915 0.32060086727142334 0.2475188672542572 -1.0628200769424438 0.015163879841566086 0.7866572141647339 -0.8880342841148376 0.4453904628753662 0.09823056310415268 -1.010316252708435 0.14137311279773712 -0.19088394939899445 -0.40996187925338745 0.14608322083950043 -0.6838366389274597 0.6191545128822327 0.4415108263492584 -1.096704125404358 0.15627521276474 -0.51335209608078 -0.04526471719145775 -0.19267618656158447 -0.06569962948560715 -0.2717881500720978 0.013177418150007725 -0.09144466370344162 0.8421277403831482 -0.12926378846168518 -0.10741171985864639 0.41418102383613586 -2.277052164077759 -0.4506189525127411 -1.4382729530334473 -0.11658487468957901 0.029812518507242203 0.4522043764591217 0.2715100646018982 0.3065298795700073 0.537997841835022 -0.013956770300865173 -0.11967573314905167 0.33499571681022644 -0.019240882247686386 -0.004626377020031214 -0.1405283510684967 -1.0226572751998901 0.1088164821267128 -1.6602301597595215 -0.1876598596572876 0.2818447947502136 -0.31074243783950806 0.8332690596580505 0.6856936812400818 -0.8004974126815796 -1.2139794826507568 0.23518361151218414 -2.0859947204589844 0.1262226551771164 0.12529480457305908 -0.1011834517121315 0.05963066592812538 -0.8495911359786987 0.3060842454433441 -0.8089186549186707 -1.1588374376296997 -2.467951774597168 -0.23089957237243652 0.012320546433329582 -0.2280135601758957 0.6501729488372803 0.50077885389328 -1.3901138305664062 0.02402689680457115 0.1588209867477417 -0.6904959082603455 -0.7336223125457764 -0.5416877269744873 -0.2332036793231964 0.6955671310424805 -0.3419543504714966 -1.1739110946655273 -0.4372328519821167 0.5843623876571655 -2.6867973804473877 -1.2052900791168213 0.07653184980154037 -2.1161062717437744 -0.20349152386188507 0.4531855583190918 -0.40837612748146057 0.28267982602119446 0.2537679672241211 0.0356602780520916 -0.10358206182718277 -0.5053775906562805 0.11121398210525513 -0.13072295486927032 -1.4884670972824097 -0.6502873301506042 0.3966756761074066 0.5278406739234924 -0.8455225825309753 -0.8771191835403442 0.4338093101978302 -2.0045323371887207 -0.4862944781780243 0.03390699625015259 0.001702578505501151 -0.18378084897994995 -0.08613870292901993 -0.10159694403409958 -0.2862454950809479 -0.2623645067214966 0.13768628239631653 -0.12451361119747162 -0.30522793531417847 0.1535234898328781 -0.5194043517112732 -1.1048951148986816 -0.30848050117492676 0.7048100233078003 0.21870623528957367 0.24368740618228912 0.6342056393623352 0.6135186553001404 -0.779053270816803 -1.4980926513671875 -1.7904421091079712 0.23246099054813385 -0.531085193157196 -2.304461717605591 0.19683991372585297 0.41194599866867065 -1.405026912689209 0.009760968387126923 1.081740379333496 0.7503759860992432 -0.5707470774650574 -0.10212729871273041 0.6463907957077026 -0.07401694357395172 -0.047266751527786255 -0.974084734916687 -0.14490404725074768 -1.372756004333496 -0.10932644456624985 -0.2878960967063904 -1.1696523427963257 -1.2125935554504395 0.32752132415771484 0.21067214012145996 -0.9414389729499817 -0.7095147967338562 -0.7456307411193848 0.017117133364081383 0.6547542810440063 -0.041522637009620667 -0.7311010360717773 0.134742870926857 0.8356266021728516 0.062070332467556 -0.4258771538734436 -1.6105003356933594 -0.3459949791431427 0.9253758192062378 -1.3368860483169556 -1.1881306171417236 0.5002904534339905 -0.3281990885734558 -0.20762234926223755 -0.22115038335323334 0.5399590134620667 -0.709412157535553 -0.5183588862419128 -0.35134533047676086 0.1947127878665924 0.26998648047447205 0.008143804967403412 0.8733322024345398 0.020198632031679153 -0.21788263320922852 -0.2702861428260803 0.5830302834510803 0.6007221341133118 0.7830427289009094 0.8507469296455383 -0.10635920614004135 0.00989946536719799 -0.7369036078453064 -0.41151532530784607 -0.06936366856098175 -0.15149138867855072 -0.5268232822418213 0.29477459192276 0.36039233207702637 -0.1762077659368515 0.023782826960086823 0.6855313181877136 -0.09340990334749222 0.11359389126300812 0.1796107143163681 -0.05422789603471756 -0.37874606251716614 -1.7351579666137695 -0.8853789567947388 -2.532376766204834 0.3385572135448456 -1.0676159858703613 -1.5498350858688354 -0.035145536065101624 -0.8600848913192749 0.14712582528591156 -1.0885026454925537 -1.8167188167572021 -0.6390267610549927 1.0145174264907837 -0.23747248947620392 -0.12457665055990219 -0.21320968866348267 0.484874427318573 -0.48011693358421326 -0.6359522938728333 -0.054738085716962814 -1.0706017017364502 0.25184476375579834 -0.8338453769683838 -0.6921024918556213 -0.3857249617576599 -0.1833619475364685 0.3612365424633026 0.5588984489440918 -0.1088133379817009 -0.09994345158338547 -0.001661266665905714 -0.17475558817386627 -0.6011687517166138 0.1705400049686432 -1.0996143817901611 -1.7921388149261475 -2.0484848022460938 -0.24831649661064148 -0.46234366297721863 -0.3238256275653839 -0.7593773603439331 -2.0905532836914062 0.650611400604248 -0.17606382071971893 -0.027231046929955482 0.17186182737350464 0.09196801483631134 0.5056976079940796 0.7112700343132019 0.17733632028102875 -0.4329468905925751 0.4942413568496704 0.42295175790786743 0.16806232929229736 0.5281108021736145 0.7627556920051575 -0.19305451214313507 -0.013384467922151089 -0.5531688928604126 0.817385196685791 -1.3008482456207275 -0.674501895904541 -0.7916094064712524 0.046245817095041275 -0.9587971568107605 -0.5925301909446716 -0.24435852468013763 -0.04733698070049286 0.7666281461715698 -1.2908673286437988 0.34015700221061707 0.16283223032951355 -1.7924952507019043 -2.5462207794189453 -2.0787205696105957 0.5243740677833557 0.8043974041938782 -0.046884339302778244 -1.2892242670059204 -1.8819102048873901 -0.4126831591129303 -0.014790547080338001 0.2997894883155823 -0.4403423070907593 -0.1952674686908722 0.04361157864332199 0.20587684214115143 0.1080496534705162 -0.9014897346496582 -2.102186679840088 -0.7838573455810547 -0.7010245323181152 0.7105281352996826 -0.5215180516242981 -0.0728742778301239 0.9934273958206177 -0.10111181437969208 -3.057678461074829 -0.30289924144744873 0.1129264310002327 -0.027718594297766685 0.1032329574227333 0.2599024474620819 0.7705118060112 -0.3266538679599762 -1.9920051097869873 -0.14246657490730286 0.49927544593811035 -1.3745853900909424 -1.3649829626083374 0.4693756699562073 -0.030631382018327713 0.3792399764060974 -0.2149762213230133 -1.6424825191497803 -0.11418516933917999 0.460288405418396 -1.2119008302688599 -1.5968180894851685 0.35837996006011963 -0.5583354830741882 -0.02453705482184887 0.05923722684383392 -0.03240494802594185 -0.1845635026693344 -0.16413336992263794 -0.3487493097782135 -0.36162489652633667 -0.5130330920219421 0.3281734585762024 0.8332353234291077 -0.004243321716785431 -1.0012321472167969 -0.17580477893352509 0.770063579082489 -1.6188936233520508 -1.2035441398620605 0.49873659014701843 -0.03185396268963814 -0.20423898100852966 -0.48819369077682495 1.0338274240493774 -0.5597897171974182 -1.227209448814392 0.19460663199424744 -0.9076642394065857 -0.741288423538208 0.80550217628479 -0.8817219734191895 -1.5041308403015137 0.47938165068626404 -0.13801784813404083 -0.4149198532104492 -1.1052933931350708 0.09814506024122238 0.2630622982978821 0.7500038146972656 -0.7799027562141418 -1.4250680208206177 0.03249896317720413 -1.0249481201171875 -2.0935885906219482 -0.4166980981826782 -0.002723606303334236 -1.190773606300354 -1.7800551652908325 0.3630678355693817 0.746132493019104 0.3597120940685272 0.5844343900680542 -0.3424779176712036 -0.8296559453010559 -1.4913151264190674 0.10457111895084381 -1.150254726409912 -1.1069930791854858 -1.9548791646957397 -1.1561824083328247 -0.01275272574275732 -0.7681288123130798 0.6339290142059326 1.020727276802063 -1.1789765357971191 -0.06901530176401138 -0.15557453036308289 -0.08074722439050674 -0.40789395570755005 -0.13350366055965424 -0.05538976937532425 -0.22596539556980133 -0.26014846563339233 -0.17786933481693268 -0.09366431832313538 0.048537883907556534 -0.07890844345092773 -0.0479087308049202 -0.030479898676276207 -0.03542844578623772 0.04428400471806526 -0.021121542900800705 0.048908818513154984 -0.46561673283576965 -0.15316124260425568 -0.012406044639647007 -0.35730764269828796 -0.14477604627609253 -0.0033562404569238424 -0.139435276389122 0.02296493388712406 -0.09811899065971375 -0.09479079395532608 -0.056731801480054855 -0.10157734900712967 -0.15976707637310028 0.025178629904985428 -0.09746959805488586 -0.026772508397698402 0.038302768021821976 -0.040916841477155685 0.03311082348227501 -0.049444083124399185 -0.021127602085471153 0.05142444744706154 -0.042476870119571686 -0.05812413990497589 -0.1674772948026657 -0.14123132824897766 -0.15025657415390015 -0.2761380970478058 -0.20658069849014282 -0.3601779043674469 -0.0939173623919487 0.035786524415016174 -0.05842490494251251 -0.07008375227451324 -0.06369748711585999 -0.08696626871824265 -0.17309126257896423 -0.12965165078639984 -0.31673765182495117 -0.1137356236577034 -0.28780850768089294 -0.28995898365974426 -0.2581063210964203 -0.390386700630188 -0.45660483837127686 -0.019317084923386574 -0.10333006083965302 -0.10884734243154526 -0.10962063819169998 -0.08248596638441086 -0.35731562972068787 0.01256843563169241 -0.09175868332386017 -0.25402072072029114 -1.218176245689392 0.27602553367614746 -0.08848299086093903 -1.40354323387146 0.3243139386177063 0.6371166110038757 0.071249820291996 -0.9933579564094543 -1.9427534341812134 0.15738584101200104 -0.02751169539988041 -0.0025494247674942017 -0.12729285657405853 -0.1116718053817749 -0.2509545087814331 -0.08289846032857895 -0.07272083312273026 -0.127168670296669 -0.8565499186515808 0.3764488995075226 -0.8447921276092529 -2.4429478645324707 0.0018542127218097448 -2.005281448364258 -0.606738269329071 -2.1229498386383057 -0.35052359104156494 0.31365060806274414 -0.45664700865745544 -1.1727131605148315 0.35263437032699585 -0.23280605673789978 -0.16806885600090027 -0.2105032354593277 -0.013434406369924545 0.3792116045951843 0.19240383803844452 -0.49341052770614624 -1.8483515977859497 0.7162919044494629 0.14286692440509796 0.2600956857204437 -1.1618592739105225 -0.5517268180847168 0.03941512480378151 0.47300344705581665 -0.33019527792930603 -0.016906632110476494 0.6263514161109924 -0.18400081992149353 -0.7524851560592651 -0.23005123436450958 0.046246033161878586 0.2183055877685547 0.8954972624778748 0.8865832090377808 -0.6966149210929871 -1.2045563459396362 0.22929836809635162 -0.703471302986145 -0.8428849577903748 -0.8317315578460693 -0.07965822517871857 0.4255434572696686 -0.9767404198646545 -0.0666002482175827 0.22707250714302063 -0.5384110808372498 -2.2112040519714355 0.4154798984527588 0.6275010108947754 0.46688205003738403 -0.6253001689910889 -0.23078447580337524 0.9849678874015808 -0.5750412940979004 -1.0655375719070435 0.8341193199157715 -1.2846215963363647 -0.36117106676101685 0.567794680595398 -0.06984689086675644 0.14349134266376495 -0.08559687435626984 -0.2681795060634613 -0.256403386592865 -0.36229851841926575 -0.3238593637943268 -0.5668331980705261 -0.19654864072799683 -0.9393776059150696 0.4860808551311493 0.6430206298828125 -0.005601804703474045 0.2203470766544342 -0.1674232929944992 -0.1084207221865654 0.609635591506958 -0.5530890226364136 -0.35681432485580444 -0.13745081424713135 -1.2907583713531494 -1.4768880605697632 -0.18059876561164856 -0.2473706752061844 0.029693473130464554 0.02189643308520317 -0.463489294052124 0.516265332698822 0.5486518144607544 -1.2284516096115112 -0.5271680355072021 0.25101882219314575 -1.3197492361068726 -0.1484171450138092 0.2354717254638672 -0.8698980212211609 -0.30988261103630066 -0.4526502788066864 -0.7828630208969116 -0.5987962484359741 0.11136648803949356 -0.28803229331970215 -0.5041223168373108 0.9451974034309387 -0.7089276909828186 -2.040412425994873 1.0943760871887207 0.34918856620788574 -2.1699700355529785 -0.4214036166667938 -0.6774888038635254 -1.5193921327590942 -0.5025702714920044 -1.5885190963745117 0.4824019968509674 -0.1912592202425003 -1.44047212600708 0.6786575317382812 -0.16535788774490356 0.30241668224334717 0.07689407467842102 -1.0277961492538452 -0.8755537867546082 -2.3803906440734863 -2.5407259464263916 -1.0318515300750732 -0.7974220514297485 -0.8750311136245728 0.6349330544471741 -1.5414022207260132 -2.3067004680633545 0.14006005227565765 -0.17903006076812744 -0.23666425049304962 -0.1979280561208725 -0.1133851408958435 0.009289450012147427 -0.2958630323410034 -0.2720456123352051 -0.22161930799484253 -0.1752709001302719 -0.13226692378520966 -0.11451506614685059 -1.384825587272644 -1.5798208713531494 -0.3060047924518585 0.11533199995756149 -1.4181221723556519 -1.7764887809753418 0.0019909695256501436 -0.1752750128507614 0.7538492679595947 -0.08970107138156891 -0.15810376405715942 -0.5885958075523376 -0.10404791682958603 0.5343543291091919 0.18383482098579407 -0.13329583406448364 -0.5004820227622986 -0.6893623471260071 -0.9144760370254517 1.3096271753311157 -0.36412522196769714 -1.0186371803283691 -0.47163304686546326 0.5345052480697632 -1.2208054065704346 -0.32945820689201355 -1.102519154548645 -0.7530128359794617 0.21061590313911438 -0.12334828823804855 0.06134195253252983 0.10672382265329361 0.4417303204536438 -0.2584609091281891 -0.28781387209892273 -0.5998013615608215 -1.400821328163147 0.7458573579788208 -0.7130876183509827 -0.43466994166374207 -0.31570735573768616 -2.197169065475464 -1.1986935138702393 -0.3081706464290619 -0.7035253643989563 -0.2290296107530594 -0.22771991789340973 -1.750693440437317 -1.210930585861206 0.9601311087608337 0.3265115022659302 -0.17307433485984802 0.6664832234382629 -0.6424502730369568 -1.0917937755584717 -2.430086135864258 -1.2986418008804321 0.08213857561349869 -1.6518452167510986 0.8952328562736511 0.26390817761421204 -0.173919677734375 -0.0822315588593483 -0.08645329624414444 -0.302014023065567 -0.3188942074775696 -0.10073186457157135 -0.24510405957698822 -0.20689158141613007 0.2481965273618698 -1.1064863204956055 -1.2406078577041626 -0.16785959899425507 -1.1102333068847656 -0.15079431235790253 0.7592254281044006 0.06733439862728119 0.21145187318325043 -0.4966384470462799 -1.0684645175933838 -0.4385814964771271 0.2592290937900543 0.3971193730831146 0.27312418818473816 -0.37909120321273804 -0.06043540686368942 -0.7934330105781555 -0.5235044956207275 -0.706393301486969 -0.3307168781757355 -0.7504539489746094 0.0659959688782692 0.7299560904502869 -0.5180915594100952 0.30208468437194824 -0.3688981831073761 -0.17731013894081116 -0.6581205129623413 -0.35068169236183167 -0.43299442529678345 -0.6186726689338684 -0.36389124393463135 -0.3169781565666199 0.1794421523809433 0.5712200999259949 -0.05070103332400322 -2.8573386669158936 -0.7938256859779358 0.3130652606487274 -1.1337652206420898 -0.47691673040390015 0.8772964477539062 -1.015511393547058 -1.0120512247085571 -1.6286017894744873 0.1780763417482376 0.5490126609802246 -1.101754069328308 -0.5376582145690918 -0.037926387041807175 -0.6652857661247253 -0.46607568860054016 -0.28157347440719604 -2.5374977588653564 -0.12536482512950897 -0.10544063150882721 -0.943572998046875 0.1573125720024109 -0.9364217519760132 -2.184032678604126 -0.36541590094566345 -0.5079180002212524 -0.5598835349082947 0.29232725501060486 0.047186341136693954 0.06901208311319351 0.07638794183731079 0.04991691932082176 0.2762546241283417 0.5873722434043884 0.5515837073326111 0.4058726727962494 1.0878548622131348 -0.4178199768066406 -1.4173545837402344 -1.1326829195022583 -2.1850833892822266 -0.08056110143661499 -0.42115840315818787 -0.8595030903816223 0.09209731966257095 0.3535171151161194 -0.3832686245441437 -0.6702366471290588 0.26524314284324646 -0.2121117115020752 -0.13635759055614471 0.5645611882209778 0.1369185745716095 -0.21930086612701416 0.22706159949302673 -0.8255267143249512 -0.6896256804466248 1.0520920753479004 -0.5828271508216858 -0.4401385188102722 -0.9358475804328918 -1.0158607959747314 0.0904129147529602 -0.06874874979257584 -0.5567398071289062 -0.6598625183105469 1.2262442111968994 -0.3966520428657532 -0.5984228253364563 0.09646953642368317 -0.6880286335945129 -1.077871322631836 -1.709169626235962 -0.08635688573122025 -2.5332047939300537 -1.2481961250305176 -1.4814541339874268 0.9633075594902039 -1.0311692953109741 -0.5026559233665466 0.8975996971130371 -0.0916350856423378 -1.020745873451233 -0.405082643032074 -0.21081089973449707 -1.663370132446289 -0.056820791214704514 -0.06985906511545181 -0.004205879755318165 0.40097302198410034 -0.4187695384025574 0.12883110344409943 -0.3225342929363251 0.0641859844326973 0.2384565770626068 -0.13821330666542053 -2.2688989639282227 -1.165719985961914 -0.900056779384613 0.490590363740921 0.9544882774353027 0.49462252855300903 0.30074843764305115 0.4977419674396515 0.3787502646446228 0.56180739402771 0.7487247586250305 0.5618700385093689 0.4423992335796356 1.1414223909378052 0.5390998125076294 0.8540013432502747 -0.5765649080276489 -1.2482887506484985 -2.004229784011841 -1.2193001508712769 0.049107860773801804 -0.4092440605163574 -0.3612282872200012 -0.1996261477470398 -0.14657917618751526 -0.4908326268196106 -1.273529291152954 1.1281837224960327 -0.11427750438451767 -0.43032577633857727 -0.8697474598884583 -0.21233218908309937 0.9097716212272644 -0.1787104606628418 -0.7561780214309692 -1.161693811416626 -1.1055108308792114 0.14970804750919342 0.37056252360343933 -2.1165084838867188 -2.0039987564086914 -2.2294247150421143 0.170624241232872 -0.16343973577022552 0.11023695766925812 0.042032692581415176 0.023107539862394333 0.032877568155527115 0.15596427023410797 0.2504640221595764 0.40259304642677307 -0.22116732597351074 -0.4847220480442047 -0.15444695949554443 -0.41291117668151855 -0.3050903081893921 0.5615981221199036 -0.3617696464061737 -1.3232260942459106 0.21183180809020996 -0.8714459538459778 -1.2090312242507935 -1.133034110069275 -1.049843668937683 0.5767034888267517 0.42660024762153625 0.5220218300819397 0.5977621674537659 0.5556857585906982 -1.6571471691131592 -2.2455732822418213 -1.4692909717559814 -0.27171823382377625 -0.01423382107168436 0.19775724411010742 -0.058596186339855194 0.40656977891921997 0.501543402671814 0.5011672973632812 0.6064813137054443 0.08066519349813461 -0.557125985622406 -0.037646934390068054 -0.2944619357585907 -0.5305516123771667 -1.3791438341140747 0.18486930429935455 -0.8989481925964355 -1.680006980895996 -1.2517991065979004 -0.5305426716804504 -0.5712078809738159 -1.3040014505386353 0.17244112491607666 -0.24425926804542542 -0.3483881652355194 0.14429312944412231 0.38902342319488525 0.20426838099956512 -0.030549803748726845 -0.39446762204170227 -1.1565152406692505 0.5382114052772522 0.6023672819137573 -0.8926562666893005 0.08377625793218613 -0.47066083550453186 -0.41473138332366943 -1.5333831310272217 -0.06616917997598648 0.0703524574637413 0.1267247349023819 -0.4543856680393219 0.02521783486008644 0.45259493589401245 -0.2731260061264038 -0.6938010454177856 0.06936214119195938 -1.425444483757019 -0.6763391494750977 -0.4901036024093628 -0.2964435815811157 -0.11933919042348862 -0.6232774257659912 -0.8983342051506042 -0.111858069896698 -0.9450521469116211 -0.4063943326473236 -0.3226337134838104 0.2543352544307709 0.09343966096639633 -0.9581237435340881 -0.9903687238693237 0.04970764368772507 -0.4169604182243347 -1.0959521532058716 -1.9886435270309448 -0.16370095312595367 0.41314998269081116 -0.14422722160816193 -0.4461297392845154 -0.10950274020433426 -0.5920429825782776 -0.6311923265457153 0.29338595271110535 -0.06977419555187225 -1.0554261207580566 -0.2961941659450531 -0.19007349014282227 0.2442805916070938 -0.3871544897556305 -0.1102890744805336 0.07557716965675354 -0.5031092762947083 -0.14256323873996735 0.2856207489967346 -0.3615446984767914 -1.851816177368164 0.6451551914215088 -0.041255004703998566 -1.2643424272537231 0.8353267312049866 0.7791142463684082 -1.606801986694336 -0.2704293131828308 -1.832128643989563 -0.059112731367349625 0.4549637734889984 -2.013181209564209 -0.14712505042552948 -0.055483054369688034 -2.3081538677215576 -0.4815039336681366 0.02453939989209175 -1.3259365558624268 0.6061978340148926 -0.3087451457977295 0.21940499544143677 0.40261027216911316 0.46203377842903137 -1.9906078577041626 -0.36542242765426636 0.28560373187065125 -1.6917839050292969 -0.48443442583084106 -0.3680885136127472 -1.0800368785858154 -0.19012874364852905 0.16950391232967377 -0.8136093020439148 -0.2856491208076477 0.2170674055814743 -0.14760568737983704 -1.0491468906402588 1.6600037813186646 -0.11078285425901413 -2.3505821228027344 0.8935260772705078 -0.2726443409919739 -2.0181005001068115 -1.8266288042068481 0.0232551246881485 0.2863330841064453 -0.10820087790489197 -0.8958538770675659 0.6697202324867249 0.08757057040929794 -1.4748543500900269 0.3953152894973755 0.8135667443275452 -0.9676362872123718 0.15379001200199127 0.6076470613479614 -0.3147454857826233 0.4875064492225647 -0.5642043352127075 0.36917805671691895 0.15132024884223938 -0.5758082270622253 -0.32685521245002747 0.11226149648427963 -0.26393449306488037 -0.19249296188354492 0.07689062505960464 -0.5898640155792236 0.10955433547496796 0.3047657310962677 0.4355967044830322 0.5906316637992859 0.4388883113861084 -0.17208772897720337 0.0678330585360527 -0.381685733795166 -0.22809848189353943 -0.153352290391922 -0.28507137298583984 -0.22927118837833405 0.23697637021541595 -0.17591670155525208 -1.2797653675079346 0.24630160629749298 -1.922684907913208 -1.598105788230896 -1.8238366842269897 -1.530537724494934 0.05651304870843887 0.11985519528388977 0.1936296969652176 -0.22491203248500824 0.44804129004478455 -0.5843834280967712 -1.0223069190979004 -1.1738014221191406 0.27999207377433777 -0.22150464355945587 -0.06059586629271507 -1.2226210832595825 -2.275986909866333 -0.07145141065120697 -1.687870979309082 -2.098555088043213 -0.9971967339515686 -0.8054524660110474 -0.2587352693080902 0.2814127504825592 0.7392515540122986 -0.06156028062105179 0.48768892884254456 0.12193111330270767 -0.6763282418251038 -1.0909397602081299 -0.24394726753234863 -0.12705618143081665 0.4360184967517853 -0.8404743075370789 -0.5547407865524292 -0.7878440022468567 -0.628332257270813 0.3014346957206726 -0.10517121106386185 0.02248295769095421 0.5794939994812012 0.8001512289047241 -0.2794690728187561 -0.7429291605949402 -0.2558652460575104 0.4191100001335144 0.7794828414916992 -0.42056575417518616 -0.5255886912345886 0.49712690711021423 0.6730331182479858 0.1671685129404068 -0.20829373598098755 0.7615348100662231 0.6373838186264038 -0.796855092048645 0.6422109007835388 0.6392115354537964 0.26557111740112305 -0.35844287276268005 -0.3083718717098236 -0.7463405132293701 -0.6601206660270691 -0.03155151382088661 0.5733386874198914 -1.0106627941131592 -0.5573520660400391 0.38627898693084717 -2.60612154006958 -1.7880594730377197 -0.711351215839386 -0.8998605608940125 -1.2015644311904907 -1.6680420637130737 0.37575817108154297 -0.6295217275619507 -0.41500750184059143 -1.030028223991394 -0.5437717437744141 -1.0793806314468384 -0.5396734476089478 -0.05236620828509331 -0.7392169237136841 0.7126782536506653 0.09002713859081268 1.1857945919036865 -0.7587302923202515 0.5821077227592468 0.8444517850875854 -0.7710491418838501 -1.4817582368850708 -0.04589410498738289 -0.25552812218666077 0.3139764964580536 0.018977146595716476 0.14918607473373413 -0.18762338161468506 -0.22909103333950043 0.44518765807151794 0.5174705386161804 -0.08263634890317917 -0.48368722200393677 -0.9156036972999573 -0.9511944055557251 -1.3751510381698608 -1.708709478378296 -0.9988886713981628 -1.2263702154159546 -0.10904426127672195 -2.3389599323272705 -0.12853935360908508 -0.3003765344619751 -0.7095025777816772 0.06225007027387619 -0.2389487326145172 -0.2769979238510132 -0.2681238055229187 -0.39991462230682373 -0.10687673836946487 -0.2117275595664978 -0.09035462886095047 -0.054697103798389435 0.11787260323762894 -0.16404151916503906 -0.289106160402298 0.03703353554010391 0.06410196423530579 -0.19475294649600983 -0.5065928101539612 0.1132907122373581 -0.3976631462574005 -0.6256868839263916 -1.2592804431915283 -0.8360802531242371 0.027601076290011406 -0.958866536617279 -0.01815776899456978 -0.31313708424568176 -0.08040311932563782 -0.019707834348082542 -0.35738563537597656 0.3692390024662018 0.10755819082260132 0.7987403869628906 -0.48393893241882324 0.04649326205253601 -0.27069854736328125 -0.8859767317771912 0.11363118886947632 -0.8886317014694214 -0.10615429282188416 0.20206999778747559 0.6620246767997742 -0.20473423600196838 0.5106698870658875 0.2947307229042053 -0.22587841749191284 0.38635578751564026 -0.1825876235961914 0.4997592568397522 -0.24419564008712769 0.6786605715751648 0.29456713795661926 -0.5115069150924683 -0.43355268239974976 0.8369654417037964 -1.8689429759979248 -0.04362332075834274 0.908728301525116 -0.8162910342216492 0.9579354524612427 -0.0869273915886879 -0.3945842385292053 0.4133549630641937 -2.472778797149658 -1.659654974937439 0.16499921679496765 0.37884950637817383 0.9999161958694458 -0.8808644413948059 -0.24349620938301086 -0.9975279569625854 -1.2224229574203491 0.18064624071121216 -0.3107149004936218 0.8031889796257019 -0.41754063963890076 -1.4787755012512207 0.18192362785339355 -0.33666902780532837 -0.6100613474845886 0.3345254361629486 0.05391908064484596 -1.1225632429122925 0.18938566744327545 -0.34307995438575745 0.2888275384902954 0.43265289068222046 0.12968237698078156 0.1499437391757965 0.0007787718204781413 0.3563937544822693 1.8913828134536743 -0.07234086841344833 0.0005252881674095988 0.4837908148765564 0.7553408741950989 -0.22834618389606476 -0.7264851331710815 -0.10343537479639053 -1.4049853086471558 -1.271712303161621 0.47605806589126587 0.33253443241119385 0.46860048174858093 1.0140475034713745 -1.957046389579773 -4.21948766708374 -1.4719616174697876 -0.348023921251297 -0.17002131044864655 -1.096206784248352 -0.7316978573799133 -2.242234230041504 -2.4182910919189453 -1.2252700328826904 -0.4587332308292389 -0.2937068045139313 -0.32783961296081543 -0.4685296416282654 0.17533132433891296 0.20078743994235992 0.2051192820072174 0.21245022118091583 0.5984134078025818 -0.21580718457698822 0.9428518414497375 -0.09719085693359375 -0.057283591479063034 0.24619260430335999 -0.6517130136489868 0.05702696368098259 -0.9956731200218201 -1.4341434240341187 -1.3674672842025757 -0.5449422597885132 -1.0441566705703735 -0.20758016407489777 -1.1810775995254517 -2.9550557136535645 -0.34852147102355957 -0.04095049202442169 0.6419897675514221 -2.295098066329956 -1.3420088291168213 -0.27898281812667847 -1.7691892385482788 -1.1136600971221924 -1.568964958190918 -1.0749326944351196 0.7549417018890381 -0.06981392949819565 -0.026794465258717537 0.4675258994102478 0.04622448980808258 0.43225914239883423 0.7554514408111572 0.3211093842983246 -1.4071893692016602 0.36448028683662415 -0.5118308663368225 0.4767805337905884 0.8760334253311157 0.8172615170478821 0.09721231460571289 -0.5323448777198792 0.7682488560676575 0.20733009278774261 0.5404594540596008 -0.0977332592010498 0.9701247811317444 0.692442774772644 0.753961443901062 -0.22812014818191528 -0.7048783898353577 -0.9311335682868958 0.4628434479236603 -0.5164520740509033 -0.31244567036628723 0.5756607055664062 -1.1966021060943604 -1.6505792140960693 -1.8314601182937622 -1.1059657335281372 -0.2937777638435364 -0.24197012186050415 -0.32525634765625 -0.6766687035560608 -1.7816154956817627 -2.3320298194885254 -0.17751480638980865 1.3967928886413574 1.2656080722808838 -0.3424749970436096 -0.20370881259441376 -1.7321144342422485 -2.4724886417388916 -0.3258567452430725 0.3762381076812744 0.10732650011777878 -0.16551326215267181 0.2753857672214508 -0.32164672017097473 -0.5451807379722595 0.5579831600189209 0.3177396357059479 0.09081965684890747 -0.0398629866540432 0.35683393478393555 0.2389141023159027 0.522172212600708 0.3842200040817261 -1.0960733890533447 -1.5018658638000488 -0.34192827343940735 0.27296656370162964 -0.09811443090438843 0.015115576796233654 -0.1548534333705902 -0.5777056217193604 0.8091229796409607 0.019729385152459145 0.3447366952896118 0.4007194936275482 -0.5014932155609131 -0.1942199170589447 0.6197059154510498 0.20675592124462128 1.9638460874557495 0.6577232480049133 -0.03326266258955002 -0.901166558265686 1.7012027502059937 0.23171480000019073 0.6504682898521423 0.4529028832912445 -0.5603904724121094 -1.5474401712417603 -0.43359145522117615 0.36066940426826477 -0.04095781221985817 -0.4412928819656372 0.35259661078453064 0.07654352486133575 1.0065053701400757 0.5913811922073364 -0.3070959746837616 -1.5685125589370728 -1.087741732597351 -0.45321276783943176 0.21814443171024323 0.3189457356929779 0.7552289962768555 -0.45749637484550476 -0.6517795920372009 -1.1360586881637573 0.39403340220451355 0.09829402714967728 0.28323057293891907 -1.1401116847991943 -2.1585447788238525 -0.35813772678375244 0.8780466318130493 0.39725953340530396 0.0005298469914123416 0.029156269505620003 0.006374781019985676 -0.08355769515037537 -0.09332764148712158 -0.08546721190214157 0.015957066789269447 -0.008864467032253742 -0.06411534547805786 -0.04830881208181381 0.04662870615720749 0.04065689817070961 0.042036041617393494 -0.06308615207672119 -0.026259955018758774 -0.06540828198194504 0.03575161099433899 0.08329358696937561 0.06350608915090561 0.05997741222381592 -0.032798171043395996 -0.005090079270303249 -0.0695013776421547 -0.0712941437959671 -0.09018674492835999 -0.042277418076992035 0.06294038891792297 0.029008707031607628 -0.0019960489589720964 0.034327857196331024 0.03368806838989258 -0.07644275575876236 -0.07443363964557648 0.04765454679727554 0.029287708923220634 -0.017559729516506195 0.04810965061187744 0.030298087745904922 0.03201942890882492 -0.08472619205713272 -0.07105479389429092 -0.0809536725282669 0.03543046861886978 0.0884789228439331 0.0785171389579773 0.031291037797927856 -0.0754966288805008 -0.05086721107363701 -0.07303337007761002 -1.3813450336456299 -1.5112706422805786 0.3823455274105072 0.173594668507576 -0.6738685965538025 -0.49657076597213745 -0.07199184596538544 0.585265040397644 0.26704391837120056 0.229562446475029 -0.31333237886428833 -0.8562372922897339 0.10262362658977509 0.037220556288957596 0.5558921098709106 -0.03218122199177742 -1.4067398309707642 -0.21896512806415558 0.23809441924095154 0.20818795263767242 -0.1896582394838333 -0.4423292875289917 -0.7008063197135925 -0.947179913520813 -1.5422614812850952 0.5352737903594971 0.1674945205450058 -0.03750218078494072 0.3881842792034149 0.11408346891403198 -0.3637997806072235 0.28473347425460815 -1.193145513534546 -0.048000071197748184 -0.20786331593990326 -2.0812532901763916 -0.8379409909248352 0.11667747050523758 0.9725404381752014 -0.48557642102241516 -1.492285966873169 -0.478667676448822 1.2340914011001587 0.1783316731452942 1.1166530847549438 -2.0112407207489014 -4.039061546325684 -0.7689711451530457 -1.7138872146606445 -0.7121320366859436 -0.16225410997867584 -0.3949556052684784 -0.6049553155899048 -0.9354884624481201 -0.35111570358276367 -0.12622392177581787 -0.20712220668792725 -0.5315307378768921 -0.718745768070221 0.15484699606895447 0.3849247097969055 -1.351747989654541 -0.06284153461456299 0.19193264842033386 -0.5327681303024292 -0.22710031270980835 -1.0816980600357056 -0.49912604689598083 0.07397030293941498 0.3126615881919861 0.5790404677391052 0.045440927147865295 0.3711463212966919 0.6568658947944641 -0.009223219938576221 0.6057987809181213 0.9719565510749817 0.2383432537317276 -0.3052176535129547 0.29479631781578064 0.48250719904899597 -0.36886221170425415 -0.6278820633888245 0.6317768096923828 0.8068012595176697 -0.4193153381347656 0.5848109722137451 0.1496911644935608 -0.3436412811279297 -0.3621717393398285 0.009544800035655499 0.5447004437446594 -0.04862874746322632 0.1548452526330948 0.1473725140094757 -1.9373455047607422 -0.5306110382080078 0.22447824478149414 0.21765221655368805 0.12467402964830399 -0.2190331518650055 0.11499594151973724 -0.2787187993526459 -0.1760198324918747 0.37571898102760315 0.06608790904283524 -0.5487129092216492 0.39458054304122925 0.06479422003030777 0.30250778794288635 0.840194582939148 -0.10453101247549057 0.13046644628047943 0.38492366671562195 -0.7144371271133423 -0.24382765591144562 0.3411829471588135 0.7125136256217957 0.415591835975647 0.32553964853286743 0.8274880051612854 -0.20611128211021423 0.5177590847015381 -0.12016291171312332 0.13573653995990753 -0.20472155511379242 0.32870906591415405 -0.33713266253471375 0.3166351020336151 0.26429301500320435 -1.6542407274246216 -0.4366576671600342 -0.4645766317844391 0.2852106988430023 0.12442353367805481 -0.38477447628974915 0.22642627358436584 0.32939058542251587 -1.0281982421875 0.06834357231855392 0.22503824532032013 0.3679012954235077 -0.11261680722236633 -0.16139762103557587 0.09487152099609375 0.10746653378009796 0.055045805871486664 -0.08341267704963684 -0.8209050893783569 0.2890281677246094 -0.34065020084381104 -0.07833622395992279 -0.3519055247306824 -0.6269305944442749 0.018000252544879913 -0.714597225189209 -1.1967440843582153 -0.14420542120933533 -1.0915687084197998 0.9529294967651367 -0.3663341999053955 -0.19191241264343262 -0.720378577709198 0.12386777997016907 -0.15765826404094696 -0.6220477819442749 -1.3598695993423462 -0.16594195365905762 0.553600549697876 -0.6516293883323669 0.26453518867492676 0.9762779474258423 -1.3630186319351196 -0.6015350818634033 1.3511549234390259 -0.31981638073921204 0.1896742731332779 0.12738332152366638 -1.1052886247634888 -0.05103007331490517 0.1822388917207718 -0.3794436454772949 -0.1629384607076645 0.1768234372138977 0.18044576048851013 0.9728111624717712 0.21752884984016418 0.4517550766468048 -0.18216605484485626 0.3937765955924988 0.05971505865454674 -1.3991442918777466 -1.9985690116882324 -1.0869399309158325 -0.08913705497980118 -0.39042162895202637 -0.09678097814321518 -0.27702468633651733 -0.01860589161515236 -0.12716951966285706 -0.16884498298168182 -0.33286356925964355 0.13890565931797028 -0.07924488931894302 -0.09726100414991379 -0.9797766208648682 0.16454298794269562 -0.10145311057567596 0.07887784391641617 -1.626133918762207 0.14889787137508392 -0.39649659395217896 -0.217977836728096 -0.12892407178878784 -0.2731671929359436 -0.4356384873390198 -0.5029125809669495 0.0716259777545929 1.0066356658935547 -1.1276410818099976 -1.264299988746643 -0.735902726650238 0.22373242676258087 -0.99521803855896 0.17600661516189575 0.20369908213615417 -0.1754900962114334 -0.09200417250394821 0.33928734064102173 0.6607595682144165 -1.2798192501068115 -0.15733250975608826 -0.2232876718044281 -0.14693684875965118 0.5464874505996704 0.1583023965358734 -0.22087375819683075 -0.8737239241600037 -0.23000968992710114 -0.4478658139705658 0.6040352582931519 0.10771189630031586 0.5191687941551208 0.004691941663622856 -0.34367966651916504 -0.3897460401058197 -0.17874227464199066 -0.5380272269248962 -0.7507658004760742 0.1331762969493866 -0.06505341827869415 -2.0143465995788574 -0.362303763628006 0.6020016670227051 1.1229336261749268 -0.2590658366680145 0.32661473751068115 0.1243865117430687 1.1339863538742065 -0.5731778740882874 -0.03166772797703743 0.3663427233695984 -0.9357721209526062 -0.31630945205688477 -0.14950650930404663 -0.5443092584609985 0.16603878140449524 -1.2409790754318237 0.6536017060279846 -0.7953343987464905 -0.6462024450302124 -2.6059298515319824 0.3275843858718872 -0.7903912663459778 -0.22108867764472961 0.01587529294192791 0.10594817996025085 -1.2155413627624512 -1.9038854837417603 -1.1517446041107178 -0.8240745067596436 0.8077194094657898 0.6080509424209595 -0.023391541093587875 -1.223419427871704 -1.041792869567871 -0.520529568195343 -0.022832335904240608 0.009097116068005562 0.486836314201355 -0.5117408037185669 0.5727561116218567 0.20298445224761963 -0.5049593448638916 0.4762382507324219 0.08290714025497437 0.06258538365364075 0.11831478774547577 -0.02025631070137024 -0.06961475312709808 0.502371609210968 -0.3328109681606293 -0.3085218369960785 -0.8965264558792114 -0.05918407440185547 -0.5814434289932251 0.5183513164520264 -1.6697125434875488 0.9475175738334656 -1.2789177894592285 -0.865338921546936 0.14946794509887695 0.16200965642929077 0.19952377676963806 -0.45590564608573914 -0.09874483942985535 -1.9840062856674194 -0.6927090287208557 -0.452793687582016 -0.49928876757621765 0.089968740940094 -1.3782966136932373 0.38128331303596497 -1.3537276983261108 -1.5265883207321167 -0.802166759967804 0.9306018352508545 -0.1060056984424591 -1.7367770671844482 -0.5167178511619568 -0.38994354009628296 0.050968825817108154 -0.36424288153648376 -0.42426368594169617 0.3207176625728607 -1.095185399055481 -0.2525540292263031 0.027731765061616898 -0.07621169090270996 0.8858383893966675 0.5912072658538818 -0.4554550051689148 0.18228569626808167 -0.6693353056907654 -2.470327377319336 -0.006182034034281969 0.12600620090961456 0.4496506154537201 -0.6610630750656128 0.41051679849624634 -1.1691464185714722 -0.2637627422809601 -0.4287419319152832 -0.4730234742164612 -1.0165413618087769 0.11756973713636398 0.09700170159339905 -0.14400175213813782 -0.35634931921958923 -0.31393423676490784 -1.3269610404968262 0.7782637476921082 0.1572992503643036 0.7223913073539734 -0.26532459259033203 0.5622345805168152 0.1188988983631134 -0.32024145126342773 1.2789376974105835 0.7455191612243652 0.5271695852279663 -0.02543477900326252 0.21278811991214752 0.3942689299583435 -0.4303795397281647 0.5653173923492432 0.8133335113525391 0.24166220426559448 0.18110033869743347 0.34285256266593933 0.6585264205932617 0.008284451439976692 -0.8889087438583374 -1.4301304817199707 -1.198798656463623 0.4968826174736023 0.4197094738483429 0.9640023112297058 -1.625267505645752 -4.8376593589782715 -1.3514118194580078 0.12370286136865616 -1.1024779081344604 -0.06264360249042511 -0.5850341320037842 -0.2718586325645447 0.19597281515598297 0.9002005457878113 0.7876577377319336 0.6511244177818298 0.4236336946487427 0.23590190708637238 0.39651310443878174 0.0006149315158836544 -0.640189528465271 -0.12598398327827454 -0.12997400760650635 0.14271076023578644 0.2372628152370453 -0.30802491307258606 -1.7329241037368774 -3.03446626663208 -1.4997878074645996 0.8179923892021179 0.750459611415863 0.588161826133728 0.40728867053985596 0.3921750485897064 -0.3717643618583679 -1.3103471994400024 0.30037641525268555 -0.30330055952072144 -1.3075188398361206 1.157590389251709 -0.11202602088451385 0.7607160806655884 0.5983195900917053 0.7968606948852539 -1.9961302280426025 -2.242839813232422 -1.4690929651260376 0.8390325307846069 0.31584200263023376 0.7429682016372681 0.043695058673620224 0.0022878351155668497 -1.7996478080749512 -0.4385383725166321 -0.4889703392982483 -0.4995580017566681 -0.505582869052887 -0.18717969954013824 -1.1496756076812744 -0.7658823132514954 -0.4343346357345581 -0.21909227967262268 0.6840128898620605 -1.0623538494110107 -0.20939400792121887 -0.5219241976737976 -0.11444579064846039 0.3688795864582062 0.3959825038909912 0.9857287406921387 0.43869447708129883 0.7541095018386841 -1.1126823425292969 -0.23376047611236572 -0.3840276598930359 1.2896077632904053 0.3759951591491699 0.21862828731536865 -1.6844053268432617 -1.3253480195999146 -1.3628270626068115 -0.3906036615371704 -2.7015559673309326 -0.5026893615722656 -0.6187915205955505 -1.4210302829742432 -2.6983137130737305 0.34306958317756653 1.393672227859497 0.5417277216911316 -2.0276877880096436 -0.561967670917511 -1.6826330423355103 -1.9870291948318481 0.012828819453716278 1.1416480541229248 -0.1958198994398117 0.379855215549469 0.01022715400904417 0.27203643321990967 0.9744862914085388 -0.027035534381866455 -1.4962295293807983 -0.22707252204418182 -0.35471293330192566 -0.02045314572751522 0.17769183218479156 0.1914425790309906 -0.25671932101249695 -0.1736987978219986 1.5219162702560425 1.084038496017456 -0.8533230423927307 0.7315192818641663 -0.6984159350395203 0.7021657228469849 0.1991778016090393 0.05223563686013222 0.9682477712631226 0.33035600185394287 1.059256672859192 -0.5591299533843994 -0.811043918132782 0.0047644819132983685 0.2044753134250641 -0.6706995368003845 -0.7295913696289062 0.23053142428398132 -0.834579348564148 -0.16574978828430176 0.5065288543701172 0.08079434931278229 -0.3036380410194397 -0.3296896815299988 0.349378377199173 0.2673146426677704 -0.27139225602149963 -0.5757783651351929 -2.60878849029541 -1.3478747606277466 0.03982936963438988 0.17794887721538544 0.15796712040901184 0.2378656566143036 0.08429528772830963 -2.615633487701416 -1.0601145029067993 0.028108416125178337 -0.3735490143299103 -0.7037879824638367 -0.7020532488822937 -0.027862481772899628 -0.019412873312830925 -1.4240144491195679 0.03608208894729614 0.017914600670337677 0.44691014289855957 0.03181507810950279 0.32462453842163086 -0.16085326671600342 0.5225964188575745 -0.19623595476150513 0.36226996779441833 0.24834847450256348 0.7211750149726868 1.052485704421997 0.2906895577907562 0.5785729289054871 0.31230708956718445 -0.08059865981340408 1.5013737678527832 -0.04400371387600899 -0.20800839364528656 -0.1577482521533966 -0.08267325162887573 -0.7568135261535645 -0.3789726197719574 -0.5897619128227234 -0.8493107557296753 0.204223170876503 -0.11075791716575623 -0.7850241661071777 -1.881964087486267 -0.20802634954452515 -0.44760367274284363 -0.7832933068275452 -0.3307204842567444 0.13514359295368195 -1.1571836471557617 -0.7310788631439209 0.24911822378635406 -0.24873138964176178 -0.6598238348960876 0.7657091617584229 0.09691482037305832 0.4822171628475189 -0.2548151910305023 -0.29096442461013794 0.0545327328145504 0.6604818105697632 -0.03706665709614754 -0.582678496837616 -1.8623586893081665 -0.39909911155700684 0.23973223567008972 0.5712358355522156 -0.2463446855545044 0.6051443219184875 0.11162542551755905 0.23006798326969147 0.9494814872741699 0.41586458683013916 -0.1512468010187149 -0.4057689905166626 0.8116359114646912 0.17492276430130005 0.10016787797212601 0.13523373007774353 -1.0784215927124023 -1.265275478363037 0.16655147075653076 0.07281066477298737 -0.4964017868041992 0.16052770614624023 -0.4079230725765228 -0.822478711605072 -0.42669662833213806 0.10410287976264954 0.7531415224075317 -2.633519172668457 -0.07440312206745148 0.10114291310310364 0.09225814789533615 0.87999027967453 0.7548059225082397 1.3505384922027588 -1.1400009393692017 -0.0921449139714241 0.4869612455368042 -0.031379953026771545 -0.12107439339160919 0.938559353351593 0.980905294418335 0.6508899927139282 0.1046464666724205 -0.02456021122634411 0.5247806310653687 0.16009491682052612 -0.809712290763855 -0.5662185549736023 -0.20588527619838715 0.312576025724411 -1.1191205978393555 -0.5194358229637146 -0.4571521580219269 -0.3556859493255615 -0.22397340834140778 -0.47783729434013367 0.2640465497970581 -0.9080944657325745 -0.3106575310230255 -1.8307017087936401 -0.3299157917499542 0.3086400628089905 -0.7217267155647278 0.8707099556922913 -0.5162882804870605 -1.1109141111373901 -1.5490272045135498 0.035113200545310974 -0.7003083825111389 -1.7430366277694702 -2.0628442764282227 -0.6851335763931274 -0.33206117153167725 0.5558413863182068 -0.4936419427394867 -1.2966814041137695 -0.6229932904243469 -0.3885307312011719 -0.37892255187034607 0.6081459522247314 0.7465742230415344 -0.41954147815704346 0.7300734519958496 0.44402652978897095 -0.3778625726699829 -0.6940099000930786 -0.0026133100036531687 -0.803612470626831 -0.801774799823761 1.2596659660339355 0.8301302790641785 0.6209698915481567 0.6704354286193848 0.31155505776405334 -0.048347726464271545 0.10191293060779572 1.0574663877487183 -0.22727318108081818 0.8430694937705994 0.015760648995637894 0.450551301240921 0.46661970019340515 0.04998064041137695 1.2158321142196655 -0.5166536569595337 0.02332647331058979 -0.08915770053863525 -0.45715826749801636 1.009724497795105 0.5258610248565674 -0.4647762179374695 -0.8916500210762024 -2.602353811264038 -0.7089744210243225 -0.23891142010688782 -0.7940666675567627 -1.1593067646026611 0.5239750146865845 -0.8515716791152954 -0.42171967029571533 -1.4860411882400513 -0.2840156853199005 0.17871516942977905 -2.0081632137298584 0.04431554302573204 -0.4994107782840729 -0.8940603137016296 0.032356228679418564 -0.03001176379621029 -2.4209961891174316 -0.4923343062400818 -1.1723415851593018 -0.49387937784194946 0.42737406492233276 -0.07988067716360092 -0.10381422936916351 -0.1650003343820572 1.2080987691879272 1.858441948890686 0.5247592926025391 1.181854009628296 0.6293337345123291 -0.09483637660741806 -0.2519966661930084 1.1123359203338623 -0.2891419529914856 0.5452820658683777 0.08855346590280533 -0.7477579116821289 0.003934898879379034 0.02398664318025112 0.01627179980278015 -0.06523411720991135 -0.09477581083774567 -0.038698192685842514 -0.015685835853219032 -0.025497859343886375 -0.06831302493810654 -0.06943599134683609 -0.04529096186161041 0.04760180786252022 -0.06611032783985138 -0.07624022662639618 0.002109059365466237 -0.031701039522886276 -0.08734232932329178 -0.07697444409132004 0.07412317395210266 -0.052163634449243546 -0.07243058830499649 0.013775669038295746 -0.07338259369134903 -0.09039949625730515 -0.03577910736203194 0.06210824102163315 -0.044188544154167175 -0.038157083094120026 -0.0012223252560943365 -0.0263344869017601 -0.0896710753440857 -0.032210573554039 -0.05969945341348648 -0.08647401630878448 -0.05067110061645508 0.024731330573558807 -0.0626203790307045 -0.052633680403232574 0.07709874212741852 -0.0804857537150383 -0.053381070494651794 -0.04902808740735054 -0.030703963711857796 -0.06992795318365097 -0.061577197164297104 0.08978448063135147 0.07180610299110413 0.07146180421113968 -0.07286492735147476 0.4089917242527008 0.11738628149032593 -0.5510627031326294 0.2939072251319885 0.537993311882019 -0.14783422648906708 0.04596880450844765 2.1237189769744873 0.008009347133338451 0.5237184166908264 0.59571373462677 0.9666784405708313 -0.3472571074962616 -0.4225163161754608 -1.694077730178833 -1.011104941368103 0.25382301211357117 -0.7384160161018372 -1.6375309228897095 -0.8404567241668701 -0.5540271997451782 0.23899084329605103 0.05721524730324745 -1.8400709629058838 -2.1601815223693848 -0.19445952773094177 -0.8560300469398499 -0.2659619152545929 -0.7115976810455322 0.22124239802360535 -0.20001451671123505 -1.7141175270080566 0.24348296225070953 -0.44455066323280334 1.1443836688995361 0.6532904505729675 -0.22242982685565948 -0.7251619100570679 -0.8472146391868591 0.44801250100135803 0.6253318786621094 -0.5029551982879639 1.0464414358139038 -0.3005240261554718 -0.09641561657190323 1.3227713108062744 1.1339861154556274 0.8728305697441101 0.6461513042449951 -0.6041358113288879 -0.30304449796676636 -0.5001192688941956 1.1142284870147705 0.14036792516708374 -0.23445013165473938 0.11625128239393234 -1.1588982343673706 0.2180163413286209 1.0891871452331543 0.03706759214401245 0.016188353300094604 0.15397298336029053 0.2244313657283783 -0.5930315256118774 0.4952571392059326 -1.5523707866668701 0.5633296370506287 0.45252931118011475 -1.2662298679351807 0.17347122728824615 0.3058071732521057 -0.26234644651412964 -2.208465576171875 -0.5260528326034546 -0.047350723296403885 -0.059931062161922455 -0.6674919724464417 -0.28188586235046387 -2.139143705368042 -1.32602858543396 0.722455620765686 0.26957613229751587 -0.2687808573246002 -0.48601794242858887 -0.8521462678909302 -0.46408775448799133 -0.5304534435272217 -0.2426566630601883 -0.6976954936981201 -0.4946955144405365 -0.41149094700813293 -1.0715566873550415 -0.5646272897720337 -0.007955010049045086 -0.5673065781593323 0.424620658159256 0.34044840931892395 -0.11096581071615219 0.6240630149841309 0.6078830361366272 -0.05365370959043503 0.6558266282081604 0.7718020081520081 0.2924592196941376 0.46139782667160034 0.008422800339758396 0.7474364638328552 0.8583078384399414 0.06755663454532623 -0.7501493692398071 0.0035549039021134377 0.33909937739372253 -0.10691861063241959 -0.8298066258430481 -0.924174427986145 -1.371431589126587 -0.46028685569763184 0.12428628653287888 0.2772296667098999 -0.09282703697681427 -1.3121273517608643 -0.7697780132293701 -1.0488660335540771 -0.5038644671440125 -0.34626245498657227 0.19872458279132843 0.02687077783048153 -0.7788510322570801 -1.6865507364273071 -0.4589133560657501 0.508742094039917 -0.5976613163948059 0.21445100009441376 -0.24423201382160187 0.2236316055059433 0.06947344541549683 -0.10684885084629059 -0.22765551507472992 0.6645961999893188 0.5982533693313599 0.2907956838607788 0.9798159599304199 0.18230657279491425 0.6087284088134766 -0.4312768578529358 0.07304605841636658 0.19786399602890015 0.9140052199363708 -0.8852639198303223 0.5958022475242615 0.47941234707832336 1.4985721111297607 0.5321968793869019 0.10398416966199875 -1.1938647031784058 0.14955219626426697 -1.3082637786865234 -0.058595649898052216 0.406540185213089 -0.27691224217414856 -0.34871137142181396 -1.322770595550537 -0.8003701567649841 -0.7237616777420044 -1.5377600193023682 -0.06993558257818222 0.5071008205413818 0.5688415169715881 -1.145010232925415 -0.39468568563461304 0.019787348806858063 -0.06540415436029434 -0.7157317996025085 0.299309104681015 -0.22355595231056213 -0.4686944782733917 -1.37357497215271 -1.075636386871338 -0.3619973957538605 -0.1867016702890396 -0.41766494512557983 -1.0405089855194092 -1.769634485244751 -0.15707868337631226 -0.04473819211125374 -0.3006957769393921 -1.4561508893966675 -0.8935651183128357 1.1537481546401978 -0.7579022645950317 -0.15076665580272675 1.0954951047897339 -0.12929382920265198 -2.248509645462036 0.7497239708900452 -0.427268922328949 0.37039923667907715 -0.1320607215166092 -0.12655790150165558 0.14578503370285034 -0.023277105763554573 0.028296181932091713 -0.16812698543071747 -0.10385338962078094 -1.1999846696853638 -1.005738615989685 0.22047430276870728 -0.11936899274587631 -0.024464653804898262 -1.0764168500900269 -0.102707639336586 -0.41210803389549255 1.2364904880523682 0.10253559052944183 -1.5961145162582397 -0.508186399936676 -0.6179434657096863 -0.03875501826405525 -0.7084946632385254 0.12349345535039902 -1.3404954671859741 -0.8714802861213684 -0.03184400871396065 -0.682468056678772 -0.1779729276895523 -0.06363703310489655 0.5567939877510071 -0.8017374277114868 -1.358801007270813 0.33202293515205383 -0.12010814249515533 -0.14913968741893768 -1.0830906629562378 0.10610190778970718 -0.07822061330080032 0.3579004406929016 0.9550621509552002 1.0125923156738281 0.05951068922877312 -0.6826682686805725 -0.9973048567771912 0.21564722061157227 -2.2592194080352783 -0.810648500919342 0.11878979951143265 0.6226468682289124 0.7392690181732178 0.0145305460318923 0.041743822395801544 -0.46363747119903564 -0.9083045721054077 -0.41132214665412903 -0.04894018918275833 -0.6005383729934692 -1.2308671474456787 -1.4380584955215454 -0.6762329936027527 -0.49527278542518616 -1.5251270532608032 -0.39075517654418945 -0.05499117448925972 -0.5449999570846558 -1.0490182638168335 -1.2685250043869019 0.482841432094574 -0.30326756834983826 0.022529790177941322 0.9677096605300903 0.52277010679245 -1.3617887496948242 -1.8845880031585693 -0.5373652577400208 -0.2232680767774582 0.05034253001213074 -0.5996681451797485 0.013390596024692059 -1.166948676109314 0.20070956647396088 0.5372794270515442 1.5667308568954468 -1.0485432147979736 0.9024279117584229 1.093142032623291 0.4906128942966461 1.0016143321990967 1.1474419832229614 -0.34978267550468445 0.31692489981651306 0.4134840965270996 -0.6714304089546204 0.7296591401100159 0.05271713063120842 -0.737672746181488 -0.6423710584640503 -0.08102748543024063 -0.40042442083358765 -0.07254055142402649 -1.3290048837661743 0.10269787162542343 -0.4414016008377075 -0.09789122641086578 0.3862293064594269 -0.8754564523696899 -0.8341716527938843 -1.1782504320144653 -1.713232398033142 0.029116975143551826 -0.8525542616844177 -0.38412031531333923 0.42440545558929443 -0.15308937430381775 -0.43753740191459656 -2.183079481124878 -1.5245821475982666 -1.1133756637573242 0.12412548810243607 -1.0756951570510864 -0.6148241758346558 -1.8705641031265259 0.2451867163181305 1.0866400003433228 -0.06164773926138878 -0.19481366872787476 0.04958903789520264 -1.1200910806655884 -0.5538590550422668 -0.26738378405570984 -0.29509711265563965 -0.02007352188229561 0.12387547641992569 0.8554472923278809 -0.2978224456310272 0.4705227017402649 0.23710359632968903 0.48142993450164795 1.1225632429122925 -0.4477072060108185 0.36226099729537964 0.3861103653907776 0.39540958404541016 -0.6363740563392639 0.4473092555999756 -1.2280280590057373 0.029388291761279106 -1.3993661403656006 0.5947192907333374 -0.42029815912246704 -0.368068665266037 -0.4203089475631714 0.39472946524620056 0.9211273193359375 0.3353118896484375 1.0328232049942017 0.8686171770095825 0.7192161679267883 -0.5541747808456421 -0.9534069299697876 0.26726800203323364 -2.8659911155700684 -0.15510159730911255 0.5038788318634033 0.3487742245197296 0.7744202613830566 0.038666196167469025 0.035625241696834564 -0.99757319688797 -0.44104552268981934 0.2910625636577606 -0.19288186728954315 -0.41566088795661926 -0.9998520016670227 -2.6653316020965576 0.07669022679328918 0.25039157271385193 0.8832870125770569 -0.514755368232727 0.03677893429994583 0.07919461280107498 -0.4975218176841736 -0.6009587645530701 0.0378694087266922 0.634023129940033 0.3918144702911377 0.2776608169078827 0.23155546188354492 -0.3936671316623688 1.120692491531372 -0.09932652115821838 0.2669536769390106 0.04319386184215546 -1.4675098657608032 -0.8821663856506348 -0.021442953497171402 -1.1716926097869873 0.20840170979499817 0.6164098978042603 0.3268716037273407 0.4071507751941681 -1.0214993953704834 -1.2850080728530884 -1.0354424715042114 0.20601467788219452 1.2232506275177002 0.8627626299858093 1.590114712715149 -1.1846389770507812 -0.6930130124092102 -0.9750252962112427 -0.4269426763057709 1.024503469467163 0.5936208963394165 -0.17880143225193024 0.08060480654239655 -2.3442275524139404 -0.7104126811027527 0.5890252590179443 -1.2901792526245117 -0.2509864270687103 -0.0817812904715538 -1.2075402736663818 -1.155822992324829 0.3309674561023712 0.3186512291431427 0.7139981985092163 0.9454637765884399 -0.12003975361585617 -0.2840256094932556 -0.3254379630088806 0.9902709126472473 -0.3687332272529602 1.5899722576141357 -0.12134295701980591 -0.7183117866516113 -1.4276200532913208 -0.717132031917572 -0.509260356426239 0.6075021624565125 0.36979493498802185 0.01576925627887249 -0.2695927023887634 0.1039704754948616 0.4372735321521759 0.7480990290641785 0.4023178219795227 0.26445260643959045 -0.5552597641944885 -0.10681021213531494 -0.1430184692144394 0.13079537451267242 -0.4116564095020294 0.7574232220649719 -0.5703917741775513 0.4468946158885956 -0.39792028069496155 -0.983321487903595 -3.4673268795013428 -0.04247971624135971 1.413941740989685 0.8478519320487976 -0.5298448801040649 -0.5741565227508545 -0.6455121040344238 -1.7552862167358398 -0.2867502272129059 -0.3646051287651062 0.2832510769367218 0.5228293538093567 0.5025380849838257 0.12996619939804077 1.1715925931930542 0.5884907245635986 0.934786856174469 -0.10679962486028671 -0.2636369466781616 -0.31299999356269836 -0.8441925048828125 -0.061414267867803574 0.5397899746894836 -1.248310923576355 -0.9503955841064453 1.0488178730010986 0.6122358441352844 -0.03653508797287941 -0.224585622549057 -0.6762263774871826 -0.0674845278263092 0.4876147508621216 -0.15862058103084564 0.5601324439048767 -0.7547599077224731 -0.10071417689323425 0.26656654477119446 0.8195550441741943 0.04425627738237381 -1.8144694566726685 -1.253692865371704 -0.8390005826950073 -0.8680681586265564 -0.9227122068405151 0.45919445157051086 -0.13737767934799194 -0.605069637298584 -1.2473256587982178 0.39599335193634033 -0.8560069799423218 -0.17019836604595184 -0.9642379879951477 -0.2354828417301178 -0.5613157153129578 0.5411463975906372 2.723123073577881 0.004145320039242506 -1.3650987148284912 -0.249916672706604 -0.24523048102855682 0.8214269280433655 1.1256186962127686 1.981573224067688 0.27433493733406067 -0.4472113847732544 0.07127609848976135 0.856793999671936 1.5092886686325073 0.9813827276229858 0.6551502346992493 0.8559592962265015 -0.5284530520439148 -1.2956597805023193 -0.6427552700042725 -1.0890353918075562 -0.41449645161628723 -0.3933204114437103 -0.18669132888317108 -0.22251714766025543 -0.9191538095474243 1.035728931427002 -0.3091762065887451 -1.3234004974365234 0.3422626256942749 1.1189942359924316 0.1828426867723465 0.661063015460968 0.38549599051475525 0.641253650188446 -0.8470498323440552 0.05192424729466438 -0.7988523244857788 -0.7611084580421448 -1.6232322454452515 -0.14932739734649658 0.9953937530517578 0.6772804856300354 1.03251051902771 0.2783098816871643 0.23712100088596344 -1.2167906761169434 1.0393677949905396 0.923261821269989 -0.08561711758375168 0.01740686595439911 0.18639154732227325 -0.16058161854743958 -0.8318456411361694 0.7401741743087769 -0.19303807616233826 -0.7468348145484924 -0.8957380056381226 0.7086885571479797 -1.0526312589645386 -0.2717995345592499 -0.862442672252655 -0.6129477024078369 -0.49616846442222595 -0.8658534288406372 0.30278873443603516 -0.9637808799743652 -1.0624200105667114 -2.1813361644744873 -1.0699080228805542 0.18418286740779877 -0.29670432209968567 0.262389212846756 -0.188765287399292 -1.1976059675216675 -1.172003984451294 -1.7620688676834106 -1.7606388330459595 -1.2566670179367065 0.29544463753700256 0.5301331281661987 -0.1773383468389511 -0.15838825702667236 -0.1452861875295639 -0.25712424516677856 -0.9129555225372314 -0.8986812233924866 0.31610292196273804 -0.3524950444698334 -0.5450364351272583 -1.270462989807129 -1.629976749420166 -0.5768722891807556 0.27858197689056396 0.8441186547279358 0.33202213048934937 -0.10023868829011917 -0.812863290309906 -2.3961758613586426 -1.6531938314437866 0.9736045598983765 1.2533245086669922 -0.1816183477640152 0.5404598712921143 0.26782646775245667 -0.14435997605323792 0.44450849294662476 -0.3776055872440338 -0.13117893040180206 -0.059123024344444275 0.5710646510124207 0.5186893343925476 0.8330522775650024 1.4241656064987183 0.3887837529182434 0.6825738549232483 -0.017003364861011505 0.08073597401380539 0.2327757626771927 0.7993272542953491 1.0900312662124634 0.23345869779586792 -0.1607036143541336 0.003940876107662916 0.16051222383975983 -0.19474132359027863 0.5563831925392151 0.846784234046936 -0.4594416618347168 -0.26839569211006165 0.613932192325592 0.05273429676890373 0.1983031928539276 -0.3158119022846222 -0.5378178954124451 -0.3946189284324646 1.1554232835769653 0.24844105541706085 -0.1593504548072815 -0.36317622661590576 -0.5957367420196533 0.29648762941360474 0.7976693511009216 0.3203217387199402 0.6996350288391113 0.7446433901786804 0.3018184304237366 -2.5205776691436768 -1.0434067249298096 0.44622066617012024 0.654236376285553 0.22939537465572357 -0.07241766154766083 0.2657463252544403 -0.682363748550415 -0.8820019960403442 -0.6998895406723022 -0.4810120165348053 -2.192420482635498 -1.4074440002441406 -0.5592114329338074 1.0993460416793823 1.005876064300537 0.6526186466217041 -0.3874722719192505 0.1883116215467453 -0.45592403411865234 0.776168704032898 1.554978370666504 0.35868412256240845 0.35846564173698425 0.36324504017829895 -0.37967613339424133 -0.2936737537384033 0.4320352375507355 0.9217857122421265 0.6518512964248657 -0.3172682523727417 0.4485808312892914 0.6427596211433411 -0.424945205450058 0.46846675872802734 -0.9874548316001892 -0.26780182123184204 0.184589222073555 -0.9110493659973145 0.5094209313392639 0.44898223876953125 0.9154012203216553 0.20712949335575104 -2.0580832958221436 -0.31210577487945557 -0.4729039669036865 1.2257188558578491 0.8167702555656433 -0.0070117162540555 0.559187650680542 -0.7933123111724854 0.7399506568908691 -0.8266563415527344 1.0615230798721313 0.18683066964149475 -1.5301334857940674 -1.3493238687515259 -1.4660086631774902 0.29913008213043213 -0.6971670389175415 0.3166957497596741 0.7425247430801392 0.7446873188018799 -0.1262892335653305 -0.20689642429351807 -0.2555145025253296 -0.6374190449714661 -1.7116860151290894 -1.0290241241455078 0.4581470489501953 0.9708289504051208 0.39476683735847473 0.08810912817716599 -0.595921516418457 -2.4986770153045654 -2.136580228805542 -1.7800368070602417 -0.9950089454650879 -0.5435217618942261 -0.021072525531053543 -0.011052102781832218 -0.008559423498809338 0.09548337757587433 -0.07023905217647552 -0.07805205881595612 -0.0023404189851135015 -0.03556746989488602 0.08651755005121231 0.0663137286901474 0.09452018141746521 0.02993450127542019 -0.06884125620126724 -0.04308616742491722 0.013280545361340046 -0.06936875730752945 -0.030517887324094772 -0.05659771338105202 0.03451116010546684 0.02892434224486351 -0.03324658051133156 0.03467532619833946 -0.05472251772880554 -0.06302464008331299 -0.06780225783586502 -0.04876304417848587 0.034686245024204254 -0.08686362951993942 -0.027841761708259583 -0.06681527197360992 0.03841576725244522 0.08964169025421143 0.038961075246334076 -0.044129595160484314 -0.22397638857364655 -0.02624845691025257 0.041544508188962936 0.0550297349691391 0.0688994973897934 0.0478476844727993 0.06598484516143799 0.044133007526397705 0.004508107900619507 -0.034090012311935425 -0.051925934851169586 -0.08135473728179932 0.027385560795664787 0.06975170969963074 0.03206799179315567 0.823823094367981 1.296500325202942 0.7988977432250977 0.04560990631580353 -0.7738555669784546 -0.23744158446788788 -0.006539035122841597 -0.16875997185707092 -0.320311963558197 -0.044683463871479034 0.12325416505336761 0.02883700467646122 -0.16655154526233673 -0.9054964184761047 -1.0229750871658325 0.04585524648427963 -0.4702710211277008 0.3543689548969269 0.10644429177045822 -0.06553181260824203 -0.6858960390090942 0.680266797542572 -0.7740333676338196 -0.968754231929779 -0.10871809720993042 -0.029917733743786812 -0.6714481711387634 -0.2268165498971939 0.3307320475578308 -0.0853566825389862 -0.38985544443130493 -0.4420742094516754 0.25144168734550476 0.4854816496372223 0.38899990916252136 -0.6822764277458191 -0.6684848666191101 -0.3390759229660034 0.5143517255783081 0.7039418816566467 0.945831835269928 0.7789404392242432 0.25827398896217346 -0.7853697538375854 -0.37664729356765747 -1.217273473739624 -0.9264304637908936 0.6863304376602173 0.10202731192111969 -0.4070710837841034 0.20523889362812042 0.3422062397003174 -0.5952321887016296 0.5058797597885132 -0.19968275725841522 -0.058060385286808014 0.9234643578529358 -0.046468909829854965 -1.0452715158462524 -1.3041057586669922 -0.1413806527853012 -0.7930870056152344 -0.44578713178634644 -0.7797524333000183 -0.2147819548845291 -0.912074089050293 -0.5992143154144287 0.2219163179397583 1.4304622411727905 0.52536541223526 -0.08838199079036713 -0.2135821133852005 -1.0023399591445923 -0.2567380964756012 0.6557270288467407 0.46312662959098816 0.6697797775268555 -0.8548594117164612 -0.535677433013916 0.011674758046865463 0.13939185440540314 -0.6402592658996582 -1.115237832069397 -1.0618953704833984 -0.31323695182800293 -0.19770118594169617 0.36013180017471313 -0.059639036655426025 -0.010841507464647293 -0.02571142464876175 -1.0971819162368774 -0.004316708073019981 -0.40722939372062683 0.02274293079972267 -0.13506534695625305 -0.1471409946680069 -0.056097615510225296 0.294507771730423 -0.16840530931949615 -0.13637016713619232 0.15210914611816406 -0.1501903384923935 0.6156054139137268 0.08394297957420349 -0.1483481526374817 -0.3620041310787201 0.023405833169817924 -0.399204820394516 0.6873447299003601 1.6685445308685303 -0.2791190445423126 -0.18173082172870636 -0.07649819552898407 -0.6061121225357056 -0.6579322218894958 -0.951278567314148 -0.690069854259491 0.30860480666160583 -0.1530984342098236 -0.04716172441840172 -1.1617234945297241 -1.9365484714508057 -0.6160682439804077 -0.7480028867721558 0.0016621622489765286 -0.23250429332256317 -0.2567489445209503 0.799537181854248 0.4096735715866089 -0.039833251386880875 0.307198166847229 0.28536999225616455 0.0010257051326334476 0.7372644543647766 0.25329604744911194 0.41121774911880493 0.10015065222978592 0.15287721157073975 -0.7185275554656982 0.009420537389814854 0.8909384608268738 0.0423361100256443 0.5292825102806091 0.6096333265304565 0.4164768159389496 0.15898971259593964 0.009931763634085655 0.07122712582349777 0.658870279788971 -0.39912477135658264 0.46944212913513184 0.3473227322101593 -0.15305916965007782 0.3578905761241913 -0.2836240530014038 0.32510676980018616 -0.8771021962165833 -0.6261789798736572 0.44938868284225464 -0.09756223857402802 0.09937332570552826 0.47991225123405457 0.42639198899269104 -0.14631254971027374 -0.18104854226112366 -0.762024998664856 -0.29900217056274414 0.8500699996948242 -0.30315345525741577 -0.8070067167282104 -1.2111754417419434 0.08460278809070587 0.3828999996185303 0.3925146758556366 0.991578996181488 -0.5970737934112549 -0.22422382235527039 0.2503436207771301 0.7892097234725952 0.5190902352333069 0.44915851950645447 1.347652554512024 -0.08116468787193298 0.08652288466691971 0.2755306661128998 -0.22238470613956451 0.153860405087471 -0.5541456937789917 0.019417235627770424 0.5027852654457092 -0.7194705009460449 -2.351496696472168 -1.559682846069336 -0.7183007001876831 -1.6729754209518433 -0.30340519547462463 -0.06094209849834442 0.20002387464046478 0.5126218795776367 0.670853853225708 -0.15050427615642548 -0.34283217787742615 -0.13324102759361267 -0.1494319885969162 0.23835094273090363 0.04906429722905159 -0.14948132634162903 0.177001953125 -0.95545893907547 -1.9726554155349731 -0.1182006224989891 0.4540189504623413 -0.20962956547737122 -0.2518790066242218 0.3506178557872772 -0.027843736112117767 -1.6451600790023804 -0.384723961353302 -0.7794772386550903 -0.8240389227867126 -0.3193577527999878 -0.41286781430244446 0.236510768532753 1.3158929347991943 0.32366445660591125 0.15472273528575897 0.18268828094005585 -0.5957460999488831 0.7015632390975952 0.9660952091217041 0.25316253304481506 0.6112807989120483 0.33906498551368713 -0.2062297910451889 -0.004587935749441385 -0.2275768369436264 0.41822099685668945 0.07598140090703964 -0.6335592865943909 -1.4931731224060059 -0.29458028078079224 -0.22949284315109253 0.2899414598941803 0.5231889486312866 -0.5324870347976685 -0.5114509463310242 -0.08470187336206436 -0.11309908330440521 0.3438251316547394 0.37107884883880615 0.028527075424790382 -0.02654118649661541 0.2239644080400467 -0.4203656017780304 0.1001439243555069 -0.2107381820678711 0.43834832310676575 0.6021332144737244 -1.317868709564209 0.03536223620176315 -0.9844043254852295 0.23017525672912598 0.06591274589300156 -0.25642403960227966 -0.007122734095901251 -0.006968710105866194 0.6722553968429565 0.2722311317920685 -0.9688347578048706 0.3201417326927185 0.4022030532360077 0.28395944833755493 1.1282150745391846 0.6409361362457275 0.8137168288230896 -1.1532832384109497 -0.0697648674249649 0.36691462993621826 0.8767094612121582 0.18426644802093506 0.04091032221913338 -0.6950069069862366 -0.7778434753417969 -0.19383756816387177 0.7626460194587708 0.9398281574249268 -0.05279291048645973 0.039196886122226715 -1.4253389835357666 0.9922882318496704 0.7787635922431946 -0.22389166057109833 -0.45169946551322937 -0.6389437317848206 -0.6416544318199158 -0.3178788423538208 -0.030006151646375656 0.9160171151161194 -0.3999294340610504 -0.5801821947097778 -1.478641152381897 -0.651730477809906 0.5387084484100342 0.03960699960589409 -0.19281315803527832 0.36121925711631775 -1.1842761039733887 -1.9786900281906128 -1.0240479707717896 0.012888917699456215 -0.3540566563606262 0.5321222543716431 0.5127735137939453 -0.6833083033561707 -1.1256803274154663 -0.7101565003395081 0.7269651293754578 0.2804039716720581 0.33150750398635864 -1.6277450323104858 -0.27305126190185547 1.3387385606765747 -0.5503405928611755 0.3667551279067993 0.029397793114185333 -0.0855531096458435 -0.2850399315357208 0.40906330943107605 1.1846750974655151 1.501304030418396 0.5730502009391785 0.04222686588764191 -0.06058487296104431 0.2731418311595917 1.202000617980957 0.9036806225776672 -0.7339537143707275 -0.6030507683753967 -0.11189570277929306 -0.39148053526878357 0.5414395928382874 1.0044907331466675 0.8609051704406738 -0.08532804250717163 1.861067533493042 0.4455479383468628 1.0628669261932373 -0.6896109580993652 0.07387595623731613 -0.12880323827266693 -0.936580240726471 -0.5047898888587952 -0.6356577277183533 -0.20225466787815094 -1.0661628246307373 -0.22062495350837708 0.23872007429599762 -0.5526262521743774 -1.098595380783081 -0.013639616779983044 0.2153429538011551 0.07154382020235062 1.1058543920516968 0.331504762172699 -0.7061266899108887 -1.8055973052978516 -1.6959655284881592 -0.5487828254699707 0.8042453527450562 0.3325028121471405 -0.2926606237888336 0.18095415830612183 0.44518807530403137 -0.0062216464430093765 -0.3230779767036438 -1.3569570779800415 -1.1608439683914185 0.3105798065662384 0.6958967447280884 0.3640858232975006 0.8387808203697205 -0.9879353642463684 -0.008617051877081394 1.0538933277130127 -0.808143138885498 0.1000853180885315 0.5502122640609741 0.07888880372047424 -0.3082042634487152 -0.2072925865650177 0.6988925337791443 0.49159932136535645 0.22045789659023285 -0.3349910080432892 -1.5255143642425537 -0.6863346099853516 -0.6388567090034485 -0.42428961396217346 0.48529675602912903 1.6319571733474731 0.5217931866645813 0.5066872835159302 0.36003631353378296 -1.3621712923049927 -0.2827141284942627 -0.9026605486869812 -1.0519273281097412 -1.3125083446502686 -1.3434733152389526 0.5571721792221069 -0.4613182246685028 -0.3015497028827667 -0.5386220812797546 0.11661101132631302 0.7066690921783447 0.2241542786359787 0.7072653770446777 0.9135465621948242 0.8408357501029968 -0.09762578457593918 0.8184903264045715 0.9960238933563232 0.9761900901794434 -0.3226660192012787 -0.3746563792228699 0.17138522863388062 0.22230161726474762 -0.6655155420303345 -0.20427627861499786 0.09960467368364334 -0.061542969197034836 -0.8093004822731018 -0.14913564920425415 -0.09798774868249893 0.30151256918907166 1.2442278861999512 0.46442314982414246 -2.2047035694122314 -1.2135822772979736 -0.5264157652854919 -0.5738720297813416 -0.7886764407157898 0.351710706949234 -0.10164743661880493 0.5063323378562927 0.2827114164829254 0.052874770015478134 -0.3643937110900879 -0.2046658843755722 0.30233126878738403 0.010770028457045555 0.04171090945601463 0.16955596208572388 -0.4361153244972229 -0.19038552045822144 1.970140814781189 -0.6245439648628235 1.0155092477798462 0.7342832684516907 1.1199524402618408 -0.3688514232635498 -0.04759010300040245 1.042612075805664 0.1381731778383255 -0.13089795410633087 0.4317500591278076 -0.057411275804042816 -0.560590922832489 0.30377882719039917 -1.0996453762054443 -0.779127299785614 -0.18649591505527496 -0.9661216139793396 -0.04832451790571213 0.4082748293876648 0.5449490547180176 -2.273160219192505 -1.2664480209350586 -0.11398053914308548 -1.305648922920227 0.021925585344433784 0.8939719796180725 0.8140997886657715 -1.0777161121368408 0.7735499739646912 -0.28138870000839233 0.13596133887767792 0.3924744725227356 0.4689902663230896 -0.2929740250110626 0.7778013944625854 -0.08505983650684357 1.0792771577835083 -1.1400463581085205 -0.26300886273384094 -1.2641205787658691 0.45849716663360596 1.3204197883605957 0.4417855739593506 -0.5147436261177063 -1.3931727409362793 0.3576793968677521 0.3842424750328064 -0.4403492212295532 0.14678145945072174 -1.2043788433074951 -1.1776607036590576 -0.7010471224784851 0.24793723225593567 -0.026147151365876198 -2.1548852920532227 1.0319715738296509 -0.024303652346134186 -1.005160927772522 0.2735404968261719 0.03742523118853569 -1.0636597871780396 0.7159549593925476 -0.5686640739440918 -0.5809651613235474 -1.0412551164627075 -0.2512802481651306 -0.2862272262573242 0.024999020621180534 0.5114201903343201 0.06081707403063774 -0.29802486300468445 -0.6653363704681396 0.12417466938495636 0.5775271058082581 0.7574228644371033 0.9161804914474487 0.5034263134002686 0.47273799777030945 0.5591537952423096 0.3083723783493042 1.429173231124878 0.4411834478378296 -0.21963198482990265 -0.753841757774353 0.2143692672252655 -0.030311433598399162 -0.8446770906448364 -0.6188684701919556 -0.3882913887500763 -0.24959509074687958 0.45460131764411926 -0.016402356326580048 -0.6347593069076538 0.36541345715522766 0.43863794207572937 0.000416187453083694 0.43560388684272766 -0.6351646780967712 -0.8616463541984558 -2.161860704421997 0.6065996885299683 0.49444228410720825 -0.06974738091230392 0.24709783494472504 -0.24308258295059204 1.402159571647644 1.3653290271759033 -1.3267532587051392 0.11300573498010635 0.13468794524669647 -0.4056127667427063 -0.5251104831695557 0.9590672850608826 1.4673551321029663 1.213640809059143 0.12128349393606186 0.5401231646537781 0.20009653270244598 -0.8158309459686279 0.17019066214561462 -0.7411298751831055 0.7591585516929626 0.8059952855110168 -0.32034650444984436 0.43602192401885986 0.19322006404399872 -0.5868546366691589 -0.004403246566653252 -1.2921080589294434 -0.9292458295822144 1.8182873725891113 0.15647852420806885 1.1442209482192993 -0.3695809543132782 0.06875073164701462 0.3032122850418091 -0.2883719205856323 -0.19506226480007172 -0.30575865507125854 0.5237302184104919 0.8250143527984619 0.11304124444723129 -0.805831253528595 -1.809270977973938 -1.1089147329330444 -1.591721534729004 0.6026283502578735 1.5267809629440308 -0.44846227765083313 0.4533957242965698 -1.117542028427124 -0.9917287230491638 -0.746834933757782 -0.57584148645401 0.5611844062805176 -0.42243075370788574 0.29581838846206665 0.7436448931694031 0.4707699418067932 -0.3448297381401062 0.8295645713806152 0.2934446334838867 0.3110608756542206 -0.02478736825287342 -0.025231683626770973 -1.8537554740905762 -1.587134599685669 -0.541083037853241 -0.6917303204536438 -0.07417924702167511 0.0709594339132309 -0.18923121690750122 -0.9080682992935181 -1.0061408281326294 -0.5662126541137695 -0.17705322802066803 0.526098370552063 0.41603073477745056 0.07638541609048843 0.04565288498997688 -0.5898283123970032 0.22679980099201202 -0.5756353139877319 -0.33060330152511597 -0.03181973472237587 -0.4087332785129547 -0.801946222782135 -0.13539844751358032 -0.17557665705680847 0.17665420472621918 1.1342726945877075 1.3029491901397705 0.22798897325992584 -0.8538022041320801 0.0594547837972641 0.32337260246276855 0.9103311896324158 0.9555394649505615 0.16755035519599915 -0.6517762541770935 -2.1859939098358154 -0.6045743823051453 0.4456092417240143 0.2751925587654114 0.87279212474823 0.5290111303329468 -1.013909101486206 0.05724450200796127 -0.11119820177555084 -0.9326820969581604 0.08005466312170029 1.233555793762207 1.1516592502593994 -0.04528826102614403 -0.7857115268707275 -0.026429984718561172 0.11525873094797134 -0.028573138639330864 0.6550247073173523 0.38820895552635193 -1.8556517362594604 -3.0295658111572266 -1.202636957168579 -0.294681578874588 0.025430019944906235 -0.2793092131614685 -0.9242694973945618 -1.168992280960083 -1.5512324571609497 -0.33879750967025757 -0.22068849205970764 -0.26932016015052795 -0.4481143355369568 0.010886763222515583 -0.3603132367134094 0.5466019511222839 -0.17062172293663025 -1.259190320968628 -0.44696810841560364 0.3092731535434723 0.0828196257352829 0.6265879273414612 0.7782939076423645 0.23762306571006775 -0.5243779420852661 -0.37432655692100525 -0.07405901700258255 0.34855011105537415 0.9433362483978271 -0.3023052513599396 -0.47467952966690063 -0.23170800507068634 1.1171396970748901 -1.0726451873779297 0.050714120268821716 0.6017063856124878 0.93797767162323 0.8809636831283569 0.1594471037387848 0.2875371277332306 -1.3013302087783813 0.10359111428260803 0.6585019826889038 0.24143999814987183 -0.9088058471679688 -0.3409838080406189 -0.2876599133014679 -0.6878828406333923 0.022365035489201546 0.29815682768821716 -0.4330976605415344 0.5704928040504456 -0.4437871277332306 -0.3282540738582611 -2.102147340774536 0.5047429203987122 -1.0469413995742798 0.8995888233184814 -0.3172493577003479 0.015932155773043633 0.024811936542391777 -0.02023082599043846 -0.0776291936635971 0.06598783284425735 0.0843154564499855 -0.022061076015233994 0.023723198100924492 0.04507554695010185 0.026203282177448273 0.07613668590784073 0.033206742256879807 0.03384894132614136 -0.058000169694423676 -0.017839305102825165 -0.050518304109573364 0.04075045511126518 0.049755390733480453 0.07754581421613693 0.05092561990022659 -0.09391593188047409 -0.029764670878648758 -0.06209482625126839 0.059414464980363846 0.0462973415851593 0.027529362589120865 0.04083462059497833 -0.02851119264960289 0.01574118807911873 -0.03817465528845787 -0.09603612869977951 -0.19792085886001587 0.041550904512405396 0.04797019809484482 0.08246839046478271 0.02898395247757435 0.02991742454469204 0.035199154168367386 0.05895374342799187 0.034449681639671326 0.056526415050029755 -0.07753702998161316 -0.02822209894657135 0.06225140020251274 0.041899241507053375 -0.07978375256061554 -0.03181248903274536 -0.0694538801908493 -0.034292347729206085 -0.32669708132743835 -0.2645963430404663 -0.14746052026748657 0.40395981073379517 0.017492081969976425 -0.2703345715999603 -0.14612559974193573 -0.034401100128889084 -0.33014824986457825 -0.2665511667728424 0.41655871272087097 0.4946986734867096 -0.14240506291389465 -0.37598466873168945 0.12045688927173615 -0.5710666179656982 -0.04162426292896271 -0.3450370728969574 -0.15981708467006683 -0.12826253473758698 -0.3527774214744568 1.0156251192092896 0.6934530735015869 -0.8413507342338562 -0.6157025694847107 0.3440485894680023 -0.11686435341835022 -0.9001029133796692 1.1327826976776123 0.5083733201026917 -0.30189642310142517 -0.18538062274456024 0.5885865092277527 0.3932028114795685 -0.7811602354049683 0.8742808699607849 0.12175289541482925 0.2813848853111267 -0.3284417390823364 -0.19459430873394012 -0.8787107467651367 -0.4604591429233551 -0.46315187215805054 1.4144502878189087 0.7339273691177368 -1.7612507343292236 -1.1515209674835205 -0.8319898843765259 -0.33565858006477356 -0.25892722606658936 -1.081821322441101 -0.4807821214199066 0.841025710105896 -0.7308270335197449 -0.1943313181400299 -0.34689241647720337 -0.26613733172416687 -0.04799935221672058 -0.2855636775493622 -0.5832772850990295 0.05982820689678192 0.09588975459337234 -0.5767837166786194 -0.6397640109062195 -0.8204120993614197 -0.639409065246582 0.46725448966026306 0.19689512252807617 -0.6831693053245544 0.08756786584854126 0.7423984408378601 -0.056873563677072525 -0.257276713848114 -0.2650116980075836 -0.44909796118736267 -0.4850982427597046 -0.9200264811515808 0.3287893235683441 1.0110701322555542 0.012551860883831978 -1.2694987058639526 0.027546821162104607 0.48844432830810547 0.5416519641876221 0.1160251796245575 -0.14378687739372253 -0.8533446192741394 -0.3043724000453949 -0.035967689007520676 -0.3429886996746063 0.382272869348526 -0.03723406791687012 0.013833204284310341 -0.5363791584968567 -0.6263407468795776 -0.2848980128765106 0.5749785304069519 -0.10475897789001465 -0.018080223351716995 -0.03984850272536278 -0.06531514972448349 0.49924156069755554 -0.6350986957550049 -0.15312425792217255 -0.1899043172597885 -0.4958806335926056 -0.022100815549492836 -0.511732280254364 -0.9541031122207642 0.41335028409957886 1.173638939857483 0.12251447886228561 -0.1714296191930771 -0.8429073095321655 -0.9685981273651123 -0.2924104332923889 -0.4765261113643646 0.27507585287094116 -0.03223104029893875 -0.164796382188797 -1.4290099143981934 -0.9294575452804565 0.1445346176624298 0.3876398503780365 0.4881606698036194 -0.5860306620597839 -0.21652819216251373 -0.25643646717071533 0.16035336256027222 0.06686917692422867 0.27183088660240173 -1.0549800395965576 -0.026887960731983185 -0.7311077117919922 -0.2844642996788025 0.22071033716201782 -0.25235021114349365 -0.02427138201892376 -0.25809457898139954 0.09172642976045609 -0.033287666738033295 0.2419465035200119 -0.1316867470741272 -0.15732114017009735 0.37977609038352966 -0.0870763435959816 0.249005526304245 -0.9101702570915222 -0.30363354086875916 0.44450604915618896 -0.07865414768457413 -0.4591033458709717 -0.37327927350997925 0.21287812292575836 -0.520211398601532 0.3689154386520386 -8.497761155012995e-05 -1.08989417552948 -1.1115319728851318 -1.2916078567504883 -0.6000944972038269 -0.4033171534538269 -0.4352874755859375 0.21951906383037567 0.28054559230804443 0.3951360881328583 0.8230406641960144 0.6564746499061584 0.47703278064727783 -0.6139314770698547 0.019294025376439095 0.8826676607131958 0.9908145666122437 0.07989896088838577 -1.474143624305725 1.551482081413269 -0.7664777636528015 0.04717876762151718 -0.005112836603075266 0.3412531614303589 -0.30403855443000793 0.742396891117096 -1.1737903356552124 0.8100707530975342 -0.3422984182834625 -0.5316689014434814 0.18857768177986145 0.1447673887014389 -0.6709216833114624 0.10524788498878479 -0.9250462651252747 -0.11093702912330627 0.40588176250457764 0.6045634746551514 1.0179095268249512 0.5109125971794128 -0.18053656816482544 0.03545469045639038 -0.4187961220741272 -0.4684266149997711 0.5427746772766113 -0.6714580655097961 -0.2098887860774994 0.06898713111877441 0.5803807973861694 0.5999599099159241 0.4380808174610138 0.34467649459838867 -1.3396073579788208 -1.1215051412582397 0.1398424655199051 0.6229260563850403 0.5214533805847168 -0.6662132740020752 0.20905908942222595 0.4114406108856201 -0.654416024684906 -0.2837543487548828 -0.993614912033081 -0.5255136489868164 -0.10157082229852676 -0.4853282868862152 -1.1973596811294556 -1.2388362884521484 -0.09884586930274963 0.28540781140327454 -1.54090416431427 -0.5040284991264343 -0.7158283591270447 -1.0318870544433594 -0.7933330535888672 -0.049105748534202576 0.4948051869869232 0.14425073564052582 0.07657051086425781 -0.03056257963180542 -0.48322656750679016 -1.0988929271697998 0.03891130909323692 0.34534791111946106 1.0037131309509277 -0.27631324529647827 0.6775568723678589 -0.09855570644140244 -0.052461180835962296 0.1320602148771286 -0.774201512336731 0.533312201499939 0.41377928853034973 0.5516974329948425 0.4707788825035095 -0.6118187308311462 -0.1366652399301529 -0.6212415099143982 0.2737392485141754 0.6643542647361755 0.2095046043395996 -0.28897741436958313 -1.3263624906539917 -0.5761993527412415 -0.037452783435583115 -0.9349398016929626 -0.3353601098060608 0.8848450183868408 0.30026230216026306 -0.23705604672431946 0.8666139245033264 0.10180110484361649 -1.2578617334365845 -0.7058959007263184 0.6636971235275269 0.1661231815814972 -0.4547019302845001 0.24603193998336792 0.8630656599998474 0.2976246178150177 -0.7241374254226685 -0.4586777091026306 -0.35510414838790894 -0.6048623323440552 0.9703255891799927 0.47213393449783325 0.1670503467321396 -0.7904719114303589 -0.5605013966560364 0.12335430830717087 -1.0912657976150513 -0.539284884929657 0.2930547595024109 0.710099995136261 -0.13495121896266937 0.9864159226417542 0.07991977035999298 1.4874699115753174 -1.0850603580474854 -0.7380856275558472 -0.4945065379142761 -0.4426586925983429 0.010767116211354733 -0.1523618996143341 0.003891723696142435 0.0861639678478241 1.5368155241012573 0.6509879231452942 0.590919554233551 0.09356539696455002 -0.8260464668273926 -1.6728520393371582 0.8985685110092163 1.3275009393692017 0.4500485062599182 0.17664454877376556 0.052450843155384064 -0.8672323822975159 -2.272292375564575 0.4750334322452545 0.6500616669654846 -0.23180222511291504 0.15640240907669067 0.7755338549613953 -1.2583434581756592 -2.0907249450683594 -0.8009713888168335 -1.050289511680603 0.25106868147850037 0.26603803038597107 0.1417687088251114 -0.7139338850975037 0.16323637962341309 -1.084675669670105 -0.19507816433906555 0.05614521726965904 0.20158378779888153 0.10648069530725479 -0.9288133978843689 -1.134901762008667 0.4836554527282715 0.5497347116470337 0.05765537545084953 -0.43216070532798767 -0.5966760516166687 -0.559295654296875 0.014103472232818604 0.7593632936477661 0.9951749444007874 -0.22439180314540863 0.27958762645721436 -0.5467686057090759 0.565427303314209 0.19494476914405823 0.7743300795555115 0.0755605474114418 -0.7182018160820007 0.7041053771972656 0.5242817997932434 0.7844306826591492 -0.05025528743863106 0.1955493986606598 -0.4929528534412384 -0.8666324019432068 -1.103249430656433 -0.73203045129776 -0.2440020591020584 -0.5415670871734619 -0.6420513987541199 -1.0140210390090942 -0.19635632634162903 -0.43464043736457825 -0.9812692999839783 -1.2952996492385864 -0.4193405210971832 0.6585156321525574 0.4096357226371765 0.11834587901830673 0.05605511739850044 -0.11023493111133575 -0.09824856370687485 -0.016467176377773285 0.2869734466075897 0.2997846007347107 -0.625070333480835 -0.6905826926231384 0.0842379629611969 -0.6921989917755127 0.7263621091842651 -0.27287349104881287 0.26607611775398254 -0.3757087290287018 -1.6977252960205078 -0.6269531846046448 -1.0569418668746948 0.382717490196228 0.18529318273067474 -0.4126054644584656 0.09132910519838333 -0.7493586540222168 -0.5681095719337463 -0.6263836622238159 0.1344582587480545 0.4745110869407654 0.277118057012558 -0.6973277926445007 -1.3508193492889404 -1.1542072296142578 -0.48336324095726013 0.6077156662940979 -0.9731014966964722 0.16818301379680634 -1.8828530311584473 -1.199847936630249 0.07801778614521027 0.9870702624320984 0.17786741256713867 -0.3190888464450836 -1.8117588758468628 1.3990890979766846 -1.4165313243865967 -0.673343300819397 0.7928757667541504 0.7442482113838196 0.1905418485403061 -0.9818968772888184 -0.6415219306945801 -0.5319333076477051 0.24224384129047394 -0.08991218358278275 -0.7212145924568176 0.24371834099292755 -0.6692547798156738 0.6906234622001648 -0.23236995935440063 0.2691468298435211 0.7654434442520142 -0.37878313660621643 1.6927720308303833 0.3757683038711548 -2.9840409755706787 -1.9710829257965088 0.30848634243011475 0.23050452768802643 0.675606906414032 1.2420790195465088 -0.620981752872467 0.3066646456718445 -0.03800995275378227 -0.08907269686460495 0.452449768781662 -0.1643839031457901 -0.13065312802791595 0.3857203722000122 0.27712124586105347 -0.3456942141056061 -0.3157726228237152 -0.4528822898864746 0.0027128318324685097 0.47104427218437195 0.5051662921905518 0.13070367276668549 -0.5263983607292175 -1.2583563327789307 -0.666532576084137 0.7031767964363098 0.30166903138160706 0.434522420167923 0.17431683838367462 -0.8044524192810059 0.33456698060035706 0.00046788202598690987 0.7754358053207397 0.08799858391284943 0.7622585892677307 0.5040425658226013 1.015712857246399 -0.25549519062042236 0.7763195633888245 -0.5940000414848328 0.7503085136413574 1.2654378414154053 0.00882350280880928 0.48009875416755676 0.17009563744068146 -0.2792896330356598 0.0835019052028656 -0.6165556907653809 -0.7627812623977661 -0.0010185206774622202 0.4348241984844208 -0.2694275379180908 -0.08013573288917542 -0.8316059112548828 -0.11385082453489304 -0.9824157357215881 -0.9234440326690674 0.9301096200942993 -0.9053711295127869 -0.9153077006340027 0.07451453059911728 0.18636906147003174 0.3783273696899414 -0.02225898765027523 0.822813093662262 0.9014100432395935 0.3711519241333008 1.0335347652435303 -1.6386576890945435 -0.46714597940444946 -0.05083104223012924 0.3763824701309204 1.3300238847732544 0.25280919671058655 -0.9337256550788879 -0.7960481643676758 0.16459199786186218 0.2624223232269287 -1.2607994079589844 -0.13917070627212524 0.2537025213241577 -0.8732824325561523 -0.22147949039936066 0.4734998047351837 0.8516800999641418 -0.0655379593372345 -0.3522419333457947 -0.5597879886627197 -0.47643306851387024 -0.8144828677177429 -0.5979124903678894 0.09104777872562408 0.0075609395280480385 0.08601923286914825 -1.7659658193588257 -0.801619291305542 -1.2092366218566895 0.5266401171684265 -0.8428927659988403 -0.03764798119664192 -0.11726052314043045 -0.32220128178596497 -0.6456377506256104 -0.01284197997301817 -0.45001864433288574 -0.9938886761665344 0.8403583765029907 -1.0581889152526855 -0.933111310005188 0.01678077131509781 0.7039141058921814 0.33056899905204773 2.273658514022827 0.9026265740394592 0.10996555536985397 -0.0033964470494538546 0.7635076642036438 -0.6970983147621155 1.2436414957046509 2.2699780464172363 0.1165737584233284 0.24158218502998352 0.21753016114234924 0.08228873461484909 0.07702460139989853 -0.5151694416999817 0.8252187967300415 -1.0287548303604126 -0.4518536627292633 -0.7568719983100891 0.06089281663298607 -0.3900400400161743 -0.7664720416069031 -0.9212599396705627 -1.0712990760803223 -0.6463069319725037 -1.0910606384277344 -0.7293745279312134 -0.7380464673042297 -0.41561082005500793 0.8888170719146729 0.02225308120250702 -0.3576304018497467 -0.38385412096977234 0.36992526054382324 -0.47992727160453796 0.3035193979740143 -0.9337334632873535 -1.1227493286132812 0.12852665781974792 -0.6827868819236755 -1.310064435005188 0.8222247362136841 -0.05650811269879341 -0.7420239448547363 -0.2694334089756012 0.7465775012969971 0.6033973693847656 0.6709603667259216 0.8063442707061768 0.803000271320343 -1.5925312042236328 -2.3197007179260254 -0.23324769735336304 -1.0699580907821655 0.5543512105941772 1.1838696002960205 -0.2767789661884308 0.5651209354400635 0.2817417085170746 -1.2305164337158203 0.6295778155326843 1.4328229427337646 0.8756515383720398 -1.5768941640853882 0.6701972484588623 0.15204419195652008 -2.433932304382324 1.4308393001556396 0.66093909740448 -0.9771349430084229 0.26240575313568115 0.6547389626502991 0.12748101353645325 0.15708285570144653 0.38352933526039124 -0.245092511177063 -0.8181092739105225 1.357009768486023 0.21448692679405212 -0.9096609950065613 -0.9324521422386169 0.7587641477584839 0.5301211476325989 -0.3086296319961548 0.20519430935382843 -1.4262837171554565 -1.1484235525131226 -0.6225660443305969 -0.10599951446056366 0.8116775155067444 0.1936386078596115 0.41943785548210144 0.13222455978393555 0.23545552790164948 1.3381677865982056 -0.563681960105896 -0.270579069852829 -0.42700108885765076 -0.555947482585907 0.6311630606651306 -1.888559341430664 -0.003329700091853738 0.059629108756780624 0.7347184419631958 1.2765995264053345 -0.7288554310798645 -0.8428772687911987 -1.3674715757369995 -0.02320169098675251 -0.4626668691635132 0.2461538016796112 -1.8256869316101074 -0.11129738390445709 -0.2994379699230194 -1.0235320329666138 -0.23541514575481415 -1.3280220031738281 0.5382863879203796 1.5590980052947998 0.672645092010498 0.41381436586380005 0.5028281807899475 -1.8097134828567505 -0.5532510280609131 -0.5094372630119324 0.6066606640815735 0.6967343091964722 -0.10522967576980591 -0.26652562618255615 0.04466564208269119 0.9001381993293762 -0.6291972994804382 -0.5944483280181885 -1.2806553840637207 -0.900486946105957 -0.34447914361953735 0.5900270938873291 1.2058076858520508 -0.2871292531490326 0.08552832901477814 -0.521661102771759 -0.2681434452533722 -1.0150771141052246 -1.1027348041534424 -0.0391198955476284 0.35432684421539307 0.4735835790634155 0.4387442171573639 0.17426460981369019 0.2098982185125351 -1.0925348997116089 -1.8616975545883179 -0.12526723742485046 -0.06548880785703659 1.073273777961731 0.8482315540313721 -2.4093172550201416 -0.7845601439476013 -0.3991771340370178 -0.5001013875007629 -0.3445965051651001 -0.5774785876274109 -0.03326670452952385 -0.12340661883354187 -1.1200196743011475 -0.3497464954853058 -0.8811761140823364 0.15386129915714264 -1.5563524961471558 -0.047346968203783035 -0.03630887717008591 -0.8454708456993103 0.004033105913549662 0.09743029624223709 -0.126937136054039 -0.02436118759214878 -1.3536864519119263 0.7601765394210815 0.3033699691295624 0.36120736598968506 -0.4843582212924957 0.004187327343970537 0.17360621690750122 -0.030457792803645134 0.046825435012578964 -0.20016725361347198 -0.8080998063087463 -0.4590422213077545 0.014252645894885063 0.016539430245757103 -0.014828520826995373 -0.03530576080083847 -0.027803057804703712 -0.0293490719050169 0.004149599000811577 0.012195510789752007 -0.08249898254871368 0.08360990136861801 -0.052055150270462036 -0.024533329531550407 -0.05763053148984909 -0.06498011201620102 0.00502230878919363 -0.051857635378837585 0.03673136979341507 -0.0643126517534256 -0.08742215484380722 -0.033108603209257126 -0.037626780569553375 0.034828346222639084 0.08306017518043518 0.03134212642908096 -0.046140156686306 0.04601018875837326 0.032909877598285675 -0.08688493818044662 0.022101279348134995 -0.06118331104516983 0.09708636999130249 0.22890490293502808 0.03617971017956734 0.034110311418771744 -0.05288470536470413 0.0032994577195495367 -0.06574781239032745 -0.07943543046712875 -0.06935220211744308 0.026528729125857353 -0.049445442855358124 -0.05060573294758797 0.010715331882238388 -0.03806766867637634 -0.034806471318006516 -0.06312131881713867 0.029153821989893913 0.06958675384521484 -0.062268465757369995 -0.6293932199478149 -1.8539930582046509 -0.9883941411972046 0.35306206345558167 -0.6914331316947937 -0.6790676116943359 -0.006786803714931011 -0.006001833360642195 1.064354658126831 0.676127552986145 0.13691413402557373 0.18849840760231018 -0.8125720620155334 0.14774706959724426 0.464165061712265 -0.31797176599502563 0.2623984217643738 -0.3857073485851288 -0.14745204150676727 -0.0196013655513525 0.3092026710510254 -0.5880939364433289 0.4380948543548584 0.45210549235343933 0.5019100904464722 -0.436333566904068 0.3274340331554413 -0.12970879673957825 -0.030045218765735626 -1.9368983507156372 0.0763385072350502 0.19971708953380585 -0.42534467577934265 -0.2009027600288391 -0.5945706367492676 -1.9234386682510376 -1.041979193687439 -1.230222225189209 -0.4327360689640045 -0.8076381087303162 1.4665557146072388 -0.16389472782611847 1.4317865371704102 2.421274185180664 0.055715691298246384 0.15415935218334198 0.1562882363796234 -0.1554994285106659 -0.058492809534072876 0.5400377511978149 -0.5515459179878235 -0.21093256771564484 -0.9712904691696167 -0.3519960045814514 -1.1776916980743408 -0.023194869980216026 -0.320140540599823 -0.9008031487464905 0.7958729863166809 0.8816490173339844 0.659520149230957 0.17307043075561523 0.8570528626441956 0.648076057434082 0.10466133803129196 0.5564171075820923 0.8925536870956421 0.06028810143470764 -0.2806037962436676 -0.09097381681203842 -0.8762784600257874 0.11670716851949692 -0.030473802238702774 -0.269942969083786 0.382657915353775 0.5394381880760193 -0.8916872143745422 0.47820529341697693 -1.1625216007232666 